{"learner":{"attributes":{"best_iteration":"9","best_ntree_limit":"10","scikit_learn":"{\"n_estimators\": 10, \"objective\": \"reg:linear\", \"max_depth\": 6, \"max_leaves\": null, \"max_bin\": null, \"grow_policy\": null, \"learning_rate\": null, \"verbosity\": null, \"booster\": null, \"tree_method\": null, \"gamma\": null, \"min_child_weight\": null, \"max_delta_step\": null, \"subsample\": null, \"sampling_method\": null, \"colsample_bytree\": null, \"colsample_bylevel\": null, \"colsample_bynode\": null, \"reg_alpha\": null, \"reg_lambda\": null, \"scale_pos_weight\": null, \"base_score\": null, \"missing\": NaN, \"num_parallel_tree\": null, \"random_state\": null, \"n_jobs\": null, \"monotone_constraints\": null, \"interaction_constraints\": null, \"importance_type\": null, \"gpu_id\": null, \"validate_parameters\": null, \"predictor\": null, \"enable_categorical\": false, \"feature_types\": null, \"max_cat_to_onehot\": null, \"max_cat_threshold\": null, \"eval_metric\": null, \"early_stopping_rounds\": null, \"callbacks\": null, \"kwargs\": {\"seed\": 1}, \"evals_result_\": {\"validation_0\": {\"rmse\": [46.37741084732494, 37.06129296908136, 31.46815047236001, 28.301726871378474, 26.59705917575584, 25.691038526734324, 25.219682094902993, 24.96914132357874, 24.829176023741343, 24.75155566638686]}, \"validation_1\": {\"rmse\": [46.233681315621986, 36.93052314007724, 31.36024720794016, 28.216481062659614, 26.522179607059698, 25.64210200351938, 25.181234123074034, 24.94630443928038, 24.82795453098401, 24.770076101249714]}}, \"_estimator_type\": \"regressor\"}"},"feature_names":["Jet_0_hwEta","Jet_0_hwPhi","Jet_0_hwPt","Jet_1_hwEta","Jet_1_hwPhi","Jet_1_hwPt","Jet_2_hwEta","Jet_2_hwPhi","Jet_2_hwPt","Jet_3_hwEta","Jet_3_hwPhi","Jet_3_hwPt","methf_0_hwPt","mhthf_0_hwPt","ntt_0_hwPt"],"feature_types":["int","int","int","int","int","int","int","int","int","int","int","int","int","int","int"],"gradient_booster":{"model":{"gbtree_model_param":{"num_parallel_tree":"1","num_trees":"10","size_leaf_vector":"0"},"tree_info":[0,0,0,0,0,0,0,0,0,0],"trees":[{"base_weights":[4.3733448E1,3.640997E1,1.4240698E2,2.9489674E1,6.2590816E1,1.1748069E2,2.2333362E2,2.6278667E1,3.7296486E1,5.434557E1,7.8154274E1,9.80478E1,1.3533139E2,1.8940533E2,2.5402272E2,2.4593554E1,2.9254501E1,3.4890137E1,4.298829E1,5.039999E1,6.4749535E1,6.758777E1,8.5211365E1,8.068458E1,1.0472397E2,1.2415947E2,1.5227824E2,1.7437718E2,2.0714607E2,2.833344E2,2.2377626E2,2.3778475E1,2.8739885E1,2.8246038E1,3.3387028E1,3.3200386E1,3.9042805E1,4.0807713E1,5.036678E1,4.669173E1,5.4964493E1,5.8821087E1,6.906792E1,6.076176E1,7.105221E1,7.906397E1,9.3345665E1,6.130089E1,8.680996E1,1.0082005E2,1.2141543E2,1.18042885E2,1.3314038E2,1.4270139E2,1.6219662E2,1.6005219E2,1.80589E2,1.9653873E2,2.1783847E2,2.6001883E2,3.9401898E2,2.8141187E2,2.0079329E2,2.1985863E1,2.5263023E1,2.8015795E1,3.3395092E1,2.7230585E1,3.0440163E1,3.244343E1,3.7893715E1,3.1984962E1,3.6236023E1,3.7895313E1,4.386777E1,3.9556953E1,4.5670208E1,4.863574E1,5.974333E1,4.385629E1,4.9797775E1,4.9661903E1,5.76311E1,5.5199776E1,6.256135E1,6.6924706E1,7.613007E1,5.8181477E1,6.884291E1,6.9217094E1,8.143661E1,7.4772675E1,8.307188E1,9.092842E1,1.0400857E2,5.265205E1,6.716772E1,8.140358E1,9.612641E1,9.6193245E1,1.0495646E2,1.17844536E2,1.3170053E2,1.1588057E2,1.3024994E2,1.2550715E2,1.3936461E2,1.3815265E2,1.5057976E2,1.5628386E2,1.7042088E2,1.5236351E2,1.6620612E2,1.7667705E2,1.8809734E2,1.8898784E2,2.0275337E2,2.1015952E2,2.3002203E2,2.4327563E2,2.934107E2,3.626146E2,4.677457E2,2.898637E2,2.4176263E2,1.7367128E2,2.0475357E2],"categories":[],"categories_nodes":[],"categories_segments":[],"categories_sizes":[],"default_left":[1,1,1,1,1,1,1,1,1,1,1,1,1,1,1,1,1,1,1,1,1,1,1,1,1,1,1,1,1,1,1,1,1,1,1,1,1,1,1,1,1,1,1,1,1,1,1,1,1,1,1,1,1,1,1,1,1,1,1,1,1,1,1,0,0,0,0,0,0,0,0,0,0,0,0,0,0,0,0,0,0,0,0,0,0,0,0,0,0,0,0,0,0,0,0,0,0,0,0,0,0,0,0,0,0,0,0,0,0,0,0,0,0,0,0,0,0,0,0,0,0,0,0,0,0,0,0],"id":0,"left_children":[1,3,5,7,9,11,13,15,17,19,21,23,25,27,29,31,33,35,37,39,41,43,45,47,49,51,53,55,57,59,61,63,65,67,69,71,73,75,77,79,81,83,85,87,89,91,93,95,97,99,101,103,105,107,109,111,113,115,117,119,121,123,125,-1,-1,-1,-1,-1,-1,-1,-1,-1,-1,-1,-1,-1,-1,-1,-1,-1,-1,-1,-1,-1,-1,-1,-1,-1,-1,-1,-1,-1,-1,-1,-1,-1,-1,-1,-1,-1,-1,-1,-1,-1,-1,-1,-1,-1,-1,-1,-1,-1,-1,-1,-1,-1,-1,-1,-1,-1,-1,-1,-1,-1,-1,-1,-1],"loss_changes":[4.881353E8,1.1392941E8,9.411859E7,1.246688E7,1.686608E7,1.2364832E7,1.139392E7,1.766512E6,1.983792E6,3.524592E6,3.389056E6,1.9724E6,3.501888E6,1.356384E6,5.049472E6,7.5976E5,5.30024E5,7.13608E5,6.90864E5,1.052208E6,6.00816E5,4.26912E5,1.357344E6,5.58658E5,7.91792E5,6.00224E5,6.7824E5,2.2328E5,2.28264E5,7.446016E6,3.70944E6,4.99896E5,1.23652E5,2.27368E5,1.05026E5,2.66056E5,1.61452E5,2.004E5,1.56484E5,3.00688E5,3.92024E5,1.31508E5,2.01716E5,1.24146E5,2.2476E5,2.61248E5,2.93184E5,5.45115E4,1.73854E5,1.814E5,7.02E4,1.61208E5,1.97976E5,1.14128E5,1.494E5,1.5652E4,2.4604E4,1.846E4,6.2148E4,1.281056E6,1.004264E6,2.00692E5,1.8312E5,0E0,0E0,0E0,0E0,0E0,0E0,0E0,0E0,0E0,0E0,0E0,0E0,0E0,0E0,0E0,0E0,0E0,0E0,0E0,0E0,0E0,0E0,0E0,0E0,0E0,0E0,0E0,0E0,0E0,0E0,0E0,0E0,0E0,0E0,0E0,0E0,0E0,0E0,0E0,0E0,0E0,0E0,0E0,0E0,0E0,0E0,0E0,0E0,0E0,0E0,0E0,0E0,0E0,0E0,0E0,0E0,0E0,0E0,0E0,0E0,0E0,0E0,0E0,0E0],"parents":[2147483647,0,0,1,1,2,2,3,3,4,4,5,5,6,6,7,7,8,8,9,9,10,10,11,11,12,12,13,13,14,14,15,15,16,16,17,17,18,18,19,19,20,20,21,21,22,22,23,23,24,24,25,25,26,26,27,27,28,28,29,29,30,30,31,31,32,32,33,33,34,34,35,35,36,36,37,37,38,38,39,39,40,40,41,41,42,42,43,43,44,44,45,45,46,46,47,47,48,48,49,49,50,50,51,51,52,52,53,53,54,54,55,55,56,56,57,57,58,58,59,59,60,60,61,61,62,62],"right_children":[2,4,6,8,10,12,14,16,18,20,22,24,26,28,30,32,34,36,38,40,42,44,46,48,50,52,54,56,58,60,62,64,66,68,70,72,74,76,78,80,82,84,86,88,90,92,94,96,98,100,102,104,106,108,110,112,114,116,118,120,122,124,126,-1,-1,-1,-1,-1,-1,-1,-1,-1,-1,-1,-1,-1,-1,-1,-1,-1,-1,-1,-1,-1,-1,-1,-1,-1,-1,-1,-1,-1,-1,-1,-1,-1,-1,-1,-1,-1,-1,-1,-1,-1,-1,-1,-1,-1,-1,-1,-1,-1,-1,-1,-1,-1,-1,-1,-1,-1,-1,-1,-1,-1,-1,-1,-1],"split_conditions":[1.245E2,9.25E1,2.405E2,6.25E1,1.455E2,2.345E2,3.265E2,5E-1,7.95E1,7.45E1,8.05E1,1.595E2,1.865E2,3.885E2,1.757E3,5.05E1,5.75E1,5.45E1,7.05E1,1.245E2,1.265E2,5.35E1,1.925E2,1.135E2,1.695E2,1.625E2,3.155E2,3.155E2,2.865E2,4.935E2,1.355E2,5.165E2,7.65E1,5.45E1,8.45E1,5.45E1,8.35E1,6.65E1,7.25E1,4.55E1,8.05E1,1.105E2,1.045E2,1.685E2,2.055E2,1.655E2,2.515E2,7.85E1,1.445E2,1.985E2,1.985E2,3.075E2,2.775E2,2.115E2,3.625E2,2.805E2,2.755E2,4.205E2,4.625E2,4.015E2,6.225E2,2.6E1,-3.2E1,6.595759E0,7.5789075E0,8.404738E0,1.0018528E1,8.169176E0,9.13205E0,9.73303E0,1.1368114E1,9.5954895E0,1.0870808E1,1.1368594E1,1.3160332E1,1.1867086E1,1.3701063E1,1.4590722E1,1.7922998E1,1.3156887E1,1.4939333E1,1.4898572E1,1.7289331E1,1.6559933E1,1.8768406E1,2.0077412E1,2.2839024E1,1.7454443E1,2.0652874E1,2.076513E1,2.4430983E1,2.2431803E1,2.4921564E1,2.7278528E1,3.1202572E1,1.5795615E1,2.0150316E1,2.4421076E1,2.8837925E1,2.8857975E1,3.1486938E1,3.5353363E1,3.9510162E1,3.476417E1,3.907498E1,3.7652145E1,4.1809383E1,4.1445797E1,4.5173927E1,4.688516E1,5.1126266E1,4.5709053E1,4.9861835E1,5.3003117E1,5.6429203E1,5.6696354E1,6.0826015E1,6.3047855E1,6.9006615E1,7.29827E1,8.802322E1,1.08784386E2,1.4032372E2,8.6959114E1,7.252879E1,5.2101387E1,6.1426075E1],"split_indices":[12,2,12,2,13,13,12,7,13,12,12,13,12,13,2,12,12,12,12,2,2,12,13,2,12,12,13,13,12,12,5,14,12,2,12,5,12,5,5,12,13,13,12,2,13,2,13,13,12,13,12,13,13,12,13,13,12,13,13,12,12,0,0,0,0,0,0,0,0,0,0,0,0,0,0,0,0,0,0,0,0,0,0,0,0,0,0,0,0,0,0,0,0,0,0,0,0,0,0,0,0,0,0,0,0,0,0,0,0,0,0,0,0,0,0,0,0,0,0,0,0,0,0,0,0,0,0],"split_type":[0,0,0,0,0,0,0,0,0,0,0,0,0,0,0,0,0,0,0,0,0,0,0,0,0,0,0,0,0,0,0,0,0,0,0,0,0,0,0,0,0,0,0,0,0,0,0,0,0,0,0,0,0,0,0,0,0,0,0,0,0,0,0,0,0,0,0,0,0,0,0,0,0,0,0,0,0,0,0,0,0,0,0,0,0,0,0,0,0,0,0,0,0,0,0,0,0,0,0,0,0,0,0,0,0,0,0,0,0,0,0,0,0,0,0,0,0,0,0,0,0,0,0,0,0,0,0],"sum_hessian":[6.75501E5,6.28831E5,4.667E4,4.97366E5,1.31465E5,3.5682E4,1.0988E4,3.52418E5,1.44948E5,8.594E4,4.5525E4,1.7087E4,1.8595E4,5.222E3,5.766E3,2.25011E5,1.27407E5,1.01882E5,4.3066E4,6.2314E4,2.3626E4,1.8234E4,2.7291E4,4.749E3,1.2338E4,1.1212E4,7.383E3,2.833E3,2.389E3,2.924E3,2.842E3,1.88051E5,3.696E4,1.02421E5,2.4986E4,7.2422E4,2.946E4,3.3247E4,9.819E3,3.4388E4,2.7926E4,9.963E3,1.3663E4,6.145E3,1.2089E4,1.555E4,1.1741E4,1.143E3,3.606E3,1.0005E4,2.333E3,6.678E3,4.534E3,3.764E3,3.619E3,8.65E2,1.968E3,1.209E3,1.18E3,2.418E3,5.06E2,8.07E2,2.035E3,8.5194E4,1.02857E5,3.1991E4,4.969E3,7.0026E4,3.2395E4,2.0667E4,4.319E3,5.1724E4,2.0698E4,2.3807E4,5.653E3,2.6452E4,6.795E3,8.294E3,1.525E3,1.7985E4,1.6403E4,9.351E3,1.8575E4,5.07E3,4.893E3,1.049E4,3.173E3,4.664E3,1.481E3,1.028E4,1.809E3,7.519E3,8.031E3,9.579E3,2.162E3,4.66E2,6.77E2,2.288E3,1.318E3,4.734E3,5.271E3,1.741E3,5.92E2,5.682E3,9.96E2,2.046E3,2.488E3,2.398E3,1.366E3,2.117E3,1.502E3,3.96E2,4.69E2,1.31E3,6.58E2,5.6E2,6.49E2,7.35E2,4.45E2,1.616E3,8.02E2,3.59E2,1.47E2,6.6E2,1.47E2,2.65E2,1.77E3],"tree_param":{"num_deleted":"0","num_feature":"15","num_nodes":"127","size_leaf_vector":"0"}},{"base_weights":[3.0616673E1,2.4742098E1,9.120546E1,2.0261415E1,4.0703205E1,7.47744E1,1.5004169E2,1.7823145E1,2.438114E1,3.5936962E1,5.093922E1,6.2635048E1,8.921894E1,1.2597858E2,1.7595282E2,1.6414127E1,1.9759682E1,2.2448544E1,2.7203764E1,3.2781345E1,4.1697983E1,4.4338703E1,5.6118004E1,5.5291546E1,6.893996E1,8.292088E1,1.01025215E2,1.14531166E2,1.366685E2,1.9182217E2,1.5673941E2,1.5464204E1,1.8224266E1,1.9125294E1,2.1956697E1,2.1645521E1,2.6562378E1,2.5381168E1,3.1046125E1,3.1794886E1,4.1389587E1,3.872064E1,4.624064E1,4.013177E1,4.7959793E1,5.2399727E1,6.3971397E1,4.8293156E1,5.8660736E1,6.621375E1,7.585473E1,7.8299576E1,8.942891E1,9.187202E1,1.056287E2,1.0252945E2,1.1729381E2,1.3115593E2,1.4613496E2,1.7563788E2,2.707456E2,1.9029546E2,1.3718983E2,1.4393578E1,1.680256E1,1.7750776E1,2.1322355E1,1.835905E1,2.053953E1,2.145419E1,2.6318954E1,2.054565E1,2.3214E1,2.5087881E1,2.9577505E1,2.4431723E1,2.8166367E1,2.9807785E1,3.8238514E1,2.8764591E1,3.368966E1,3.862124E1,4.577491E1,3.6163143E1,4.179526E1,4.243032E1,4.854832E1,3.849913E1,4.4593815E1,4.52481E1,5.3500126E1,4.610129E1,5.403403E1,6.160506E1,7.467595E1,4.6685944E1,5.8831303E1,5.6820168E1,6.51959E1,5.819706E1,6.731589E1,4.1108807E1,7.628247E1,7.383955E1,8.157596E1,8.6343575E1,9.475788E1,9.0168846E1,1.0110715E2,1.0501148E2,1.4035564E2,1.03739296E2,6.492818E1,1.146737E2,1.2574966E2,1.3295602E2,1.12032326E2,1.4230862E2,1.5837674E2,1.6239003E2,1.99984E2,2.603707E2,4.2086588E2,2.0846104E2,1.726899E2,1.3852666E2,8.438211E1],"categories":[],"categories_nodes":[],"categories_segments":[],"categories_sizes":[],"default_left":[1,1,1,1,1,1,1,1,1,1,1,1,1,1,1,1,1,1,1,1,1,1,1,1,1,1,1,1,1,1,1,1,1,1,1,1,1,1,1,1,1,1,1,1,1,1,1,1,1,1,1,1,1,1,1,1,1,1,1,1,1,1,1,0,0,0,0,0,0,0,0,0,0,0,0,0,0,0,0,0,0,0,0,0,0,0,0,0,0,0,0,0,0,0,0,0,0,0,0,0,0,0,0,0,0,0,0,0,0,0,0,0,0,0,0,0,0,0,0,0,0,0,0,0,0,0,0],"id":1,"left_children":[1,3,5,7,9,11,13,15,17,19,21,23,25,27,29,31,33,35,37,39,41,43,45,47,49,51,53,55,57,59,61,63,65,67,69,71,73,75,77,79,81,83,85,87,89,91,93,95,97,99,101,103,105,107,109,111,113,115,117,119,121,123,125,-1,-1,-1,-1,-1,-1,-1,-1,-1,-1,-1,-1,-1,-1,-1,-1,-1,-1,-1,-1,-1,-1,-1,-1,-1,-1,-1,-1,-1,-1,-1,-1,-1,-1,-1,-1,-1,-1,-1,-1,-1,-1,-1,-1,-1,-1,-1,-1,-1,-1,-1,-1,-1,-1,-1,-1,-1,-1,-1,-1,-1,-1,-1,-1],"loss_changes":[2.4043142E8,4.4038976E7,5.770909E7,4.829408E6,6.583328E6,8.17856E6,8.103936E6,8.23864E5,9.7456E5,1.672936E6,1.463264E6,1.170552E6,1.57624E6,8.11712E5,1.882592E6,3.00364E5,1.7688E5,3.49992E5,5.0798E5,5.04016E5,4.38992E5,2.85336E5,6.98176E5,2.73556E5,2.5216E5,4.11136E5,3.02488E5,9.6432E4,1.63008E5,4.334936E6,1.838928E6,1.64076E5,8.7886E4,1.06596E5,6.1897E4,1.52704E5,7.629E4,1.2963E5,2.06998E5,3.05612E5,7.2469E4,1.53338E5,1.11352E5,6.1873E4,1.49752E5,1.65396E5,1.90826E5,6.1869E4,9.1416E4,8.2612E4,5.41E4,1.12892E5,8.662E4,3E4,9.0784E4,2.14695E4,4.4332E4,6.1392E4,3.723E4,8.86744E5,7.96872E5,2.97888E5,1.1538E5,0E0,0E0,0E0,0E0,0E0,0E0,0E0,0E0,0E0,0E0,0E0,0E0,0E0,0E0,0E0,0E0,0E0,0E0,0E0,0E0,0E0,0E0,0E0,0E0,0E0,0E0,0E0,0E0,0E0,0E0,0E0,0E0,0E0,0E0,0E0,0E0,0E0,0E0,0E0,0E0,0E0,0E0,0E0,0E0,0E0,0E0,0E0,0E0,0E0,0E0,0E0,0E0,0E0,0E0,0E0,0E0,0E0,0E0,0E0,0E0,0E0,0E0,0E0,0E0],"parents":[2147483647,0,0,1,1,2,2,3,3,4,4,5,5,6,6,7,7,8,8,9,9,10,10,11,11,12,12,13,13,14,14,15,15,16,16,17,17,18,18,19,19,20,20,21,21,22,22,23,23,24,24,25,25,26,26,27,27,28,28,29,29,30,30,31,31,32,32,33,33,34,34,35,35,36,36,37,37,38,38,39,39,40,40,41,41,42,42,43,43,44,44,45,45,46,46,47,47,48,48,49,49,50,50,51,51,52,52,53,53,54,54,55,55,56,56,57,57,58,58,59,59,60,60,61,61,62,62],"right_children":[2,4,6,8,10,12,14,16,18,20,22,24,26,28,30,32,34,36,38,40,42,44,46,48,50,52,54,56,58,60,62,64,66,68,70,72,74,76,78,80,82,84,86,88,90,92,94,96,98,100,102,104,106,108,110,112,114,116,118,120,122,124,126,-1,-1,-1,-1,-1,-1,-1,-1,-1,-1,-1,-1,-1,-1,-1,-1,-1,-1,-1,-1,-1,-1,-1,-1,-1,-1,-1,-1,-1,-1,-1,-1,-1,-1,-1,-1,-1,-1,-1,-1,-1,-1,-1,-1,-1,-1,-1,-1,-1,-1,-1,-1,-1,-1,-1,-1,-1,-1,-1,-1,-1,-1,-1,-1],"split_conditions":[1.825E2,8.65E1,2.225E2,5.65E1,7.85E1,1.365E2,3.125E2,5.805E2,7.05E1,1.175E2,1.415E2,1.005E2,2.845E2,3.625E2,1.757E3,3.65E1,5.35E1,6.45E1,5.65E1,7.15E1,1.415E2,1.175E2,1.155E2,1.435E2,2.395E2,1.665E2,1.735E2,2.715E2,2.785E2,6.545E2,1.825E2,3.85E1,6.45E1,3.45E1,8.75E1,4.65E1,5.35E1,4.35E1,9.35E1,3.75E1,9.25E1,5.55E1,5.35E1,1.015E2,1.045E2,1.145E2,1.555E2,1.095E2,2.305E2,1.365E2,1.115E2,2.235E2,2.585E2,3.475E2,4.425E2,7.6E1,2.645E2,4.625E2,4.655E2,5.265E2,7.635E2,1.8E1,5.35E1,4.3180733E0,5.0407686E0,5.325233E0,6.396707E0,5.507715E0,6.161859E0,6.436257E0,7.8956866E0,6.1636953E0,6.9642005E0,7.526365E0,8.873252E0,7.329517E0,8.44991E0,8.942336E0,1.1471555E1,8.629377E0,1.0106898E1,1.1586372E1,1.3732473E1,1.0848944E1,1.2538579E1,1.2729096E1,1.4564497E1,1.154974E1,1.3378145E1,1.357443E1,1.605004E1,1.3830388E1,1.621021E1,1.848152E1,2.2402786E1,1.4005784E1,1.7649391E1,1.7046051E1,1.9558771E1,1.7459118E1,2.0194767E1,1.2332643E1,2.2884743E1,2.2151865E1,2.4472788E1,2.5903074E1,2.8427366E1,2.7050655E1,3.0332146E1,3.1503447E1,4.2106693E1,3.112179E1,1.9478455E1,3.440211E1,3.77249E1,3.988681E1,3.36097E1,4.269259E1,4.7513023E1,4.871701E1,5.99952E1,7.811121E1,1.26259766E2,6.2538315E1,5.1806973E1,4.1558E1,2.5314634E1],"split_indices":[13,2,12,2,12,12,12,14,2,13,2,12,13,13,2,12,12,12,12,8,2,13,12,2,13,12,12,13,12,13,5,2,12,5,12,5,5,8,12,12,8,12,12,12,12,13,12,5,13,2,2,13,13,13,13,0,12,2,13,13,12,10,3,0,0,0,0,0,0,0,0,0,0,0,0,0,0,0,0,0,0,0,0,0,0,0,0,0,0,0,0,0,0,0,0,0,0,0,0,0,0,0,0,0,0,0,0,0,0,0,0,0,0,0,0,0,0,0,0,0,0,0,0,0,0,0,0],"split_type":[0,0,0,0,0,0,0,0,0,0,0,0,0,0,0,0,0,0,0,0,0,0,0,0,0,0,0,0,0,0,0,0,0,0,0,0,0,0,0,0,0,0,0,0,0,0,0,0,0,0,0,0,0,0,0,0,0,0,0,0,0,0,0,0,0,0,0,0,0,0,0,0,0,0,0,0,0,0,0,0,0,0,0,0,0,0,0,0,0,0,0,0,0,0,0,0,0,0,0,0,0,0,0,0,0,0,0,0,0,0,0,0,0,0,0,0,0,0,0,0,0,0,0,0,0,0,0],"sum_hessian":[6.75501E5,6.15796E5,5.9705E4,4.8082E5,1.34976E5,4.6673E4,1.3032E4,3.02054E5,1.78766E5,9.2097E4,4.2879E4,2.5363E4,2.131E4,6.76E3,6.272E3,1.74846E5,1.27208E5,1.06118E5,7.2648E4,5.9508E4,3.2589E4,1.8856E4,2.4023E4,1.1721E4,1.3642E4,1.3902E4,7.408E3,3.27E3,3.49E3,3.43E3,2.842E3,1.14676E5,6.017E4,9.8714E4,2.8494E4,8.8792E4,1.7326E4,4.928E4,2.3368E4,5.3394E4,6.114E3,1.9692E4,1.2897E4,8.728E3,1.0128E4,1.6309E4,7.714E3,3.814E3,7.907E3,9.792E3,3.85E3,8.137E3,5.765E3,2.486E3,4.922E3,6.19E2,2.651E3,2.215E3,1.275E3,2.849E3,5.81E2,1.043E3,1.799E3,6.3717E4,5.0959E4,5.2199E4,7.971E3,6.4034E4,3.468E4,2.5556E4,2.938E3,5.2201E4,3.6591E4,1.1642E4,5.684E3,3.6759E4,1.2521E4,1.994E4,3.428E3,2.0548E4,3.2846E4,3.754E3,2.36E3,1.0757E4,8.935E3,4.872E3,8.025E3,6.397E3,2.331E3,6.806E3,3.322E3,3.366E3,1.2943E4,6.323E3,1.391E3,3.314E3,5E2,6.177E3,1.73E3,1.19E3,8.602E3,4.8E1,3.802E3,3.456E3,4.681E3,3.662E3,2.103E3,2.108E3,3.78E2,4.84E3,8.2E1,5.98E2,2.1E1,2.035E3,6.16E2,2.019E3,1.96E2,9.81E2,2.94E2,1.85E3,9.99E2,5.46E2,3.5E1,5.08E2,5.35E2,1.753E3,4.6E1],"tree_param":{"num_deleted":"0","num_feature":"15","num_nodes":"127","size_leaf_vector":"0"}},{"base_weights":[2.143387E1,1.8009754E1,7.261782E1,1.4711679E1,3.2471394E1,6.041681E1,1.1267995E2,1.3050076E1,1.9404886E1,2.8512999E1,4.1190517E1,5.3067223E1,7.191304E1,9.6219315E1,1.2691379E2,1.1721226E1,1.4670193E1,1.8145657E1,2.3236305E1,2.5136147E1,3.2390984E1,3.7000183E1,4.6040813E1,4.6657978E1,5.778508E1,6.517684E1,7.9696365E1,8.766331E1,1.058677E2,1.4668614E2,1.0978133E2,9.63377E0,1.2408882E1,1.3691361E1,1.6126282E1,1.6717855E1,1.9913887E1,2.1251368E1,2.6919195E1,2.2632433E1,2.6709358E1,3.074189E1,3.630482E1,3.270724E1,3.929224E1,4.306795E1,4.9932274E1,3.454495E1,4.8813206E1,5.5429276E1,6.566096E1,6.2078735E1,7.015118E1,7.583049E1,8.5205696E1,8.9179085E1,6.861034E1,1.1562238E2,1.0188039E2,1.3488922E2,2.1021594E2,1.396256E2,9.7883514E1,8.103389E0,1.0285798E1,1.1816213E1,1.3594595E1,1.2915461E1,1.4877927E1,1.5394052E1,1.7994997E1,1.5686274E1,1.8046719E1,1.854073E1,2.13769E1,2.0430853E1,2.6101389E1,2.574898E1,3.290603E1,2.1803835E1,2.5943768E1,2.463372E1,2.904753E1,2.7972218E1,3.2397293E1,3.3771355E1,3.8046383E1,3.1009401E1,3.820969E1,3.7474613E1,4.239483E1,4.193881E1,4.724191E1,4.8778683E1,5.877019E1,2.6097136E1,3.71569E1,4.6387432E1,5.3939575E1,5.2545692E1,5.805092E1,6.2890244E1,7.0236305E1,5.6768364E1,6.438927E1,6.947709E1,9.576595E1,8.5727325E1,7.450056E1,9.433568E1,8.1812546E1,8.8346664E1,1.12196945E2,7.064085E1,7.175926E0,1.0875758E2,1.24042114E2,9.854028E1,1.07477875E2,1.2620293E2,1.5271829E2,2.0193076E2,3.257348E2,9.309161E1,1.456952E2,2.3107234E2,9.7178154E1],"categories":[],"categories_nodes":[],"categories_segments":[],"categories_sizes":[],"default_left":[1,1,1,1,1,1,1,1,1,1,1,1,1,1,1,1,1,1,1,1,1,1,1,1,1,1,1,1,1,1,1,1,1,1,1,1,1,1,1,1,1,1,1,1,1,1,1,1,1,1,1,1,1,1,1,1,1,1,1,1,1,1,1,0,0,0,0,0,0,0,0,0,0,0,0,0,0,0,0,0,0,0,0,0,0,0,0,0,0,0,0,0,0,0,0,0,0,0,0,0,0,0,0,0,0,0,0,0,0,0,0,0,0,0,0,0,0,0,0,0,0,0,0,0,0,0,0],"id":2,"left_children":[1,3,5,7,9,11,13,15,17,19,21,23,25,27,29,31,33,35,37,39,41,43,45,47,49,51,53,55,57,59,61,63,65,67,69,71,73,75,77,79,81,83,85,87,89,91,93,95,97,99,101,103,105,107,109,111,113,115,117,119,121,123,125,-1,-1,-1,-1,-1,-1,-1,-1,-1,-1,-1,-1,-1,-1,-1,-1,-1,-1,-1,-1,-1,-1,-1,-1,-1,-1,-1,-1,-1,-1,-1,-1,-1,-1,-1,-1,-1,-1,-1,-1,-1,-1,-1,-1,-1,-1,-1,-1,-1,-1,-1,-1,-1,-1,-1,-1,-1,-1,-1,-1,-1,-1,-1,-1],"loss_changes":[1.1838698E8,3.019784E7,2.0696736E7,4.020288E6,4.05688E6,2.739664E6,2.304296E6,8.1958E5,6.4996E5,1.0582E6,7.444E5,5.96348E5,6.58568E5,3.69548E5,1.778928E6,3.00164E5,2.44316E5,2.55832E5,2.43166E5,1.6968E5,2.41808E5,1.92558E5,1.94648E5,2.17736E5,2.08004E5,1.00316E5,1.1854E5,6.4292E4,7.1922E4,1.81306E6,9.95828E5,5.1646E4,1.10418E5,9.4276E4,9.4094E4,7.6679E4,9.0654E4,8.5703E4,8.0933E4,4.5226E4,1.28108E5,1.20534E5,4.7921E4,6.2931E4,7.0808E4,4.3504E4,7.218E4,2.71195E4,8.62E4,6.3378E4,2.8809E4,4.7805E4,3.8223E4,3.9128E4,6.7004E4,3.3296E4,2.244575E4,2.2172E4,1.8125E4,3.0208E5,3.00792E5,2.14652E5,1.6882E5,0E0,0E0,0E0,0E0,0E0,0E0,0E0,0E0,0E0,0E0,0E0,0E0,0E0,0E0,0E0,0E0,0E0,0E0,0E0,0E0,0E0,0E0,0E0,0E0,0E0,0E0,0E0,0E0,0E0,0E0,0E0,0E0,0E0,0E0,0E0,0E0,0E0,0E0,0E0,0E0,0E0,0E0,0E0,0E0,0E0,0E0,0E0,0E0,0E0,0E0,0E0,0E0,0E0,0E0,0E0,0E0,0E0,0E0,0E0,0E0,0E0,0E0,0E0,0E0],"parents":[2147483647,0,0,1,1,2,2,3,3,4,4,5,5,6,6,7,7,8,8,9,9,10,10,11,11,12,12,13,13,14,14,15,15,16,16,17,17,18,18,19,19,20,20,21,21,22,22,23,23,24,24,25,25,26,26,27,27,28,28,29,29,30,30,31,31,32,32,33,33,34,34,35,35,36,36,37,37,38,38,39,39,40,40,41,41,42,42,43,43,44,44,45,45,46,46,47,47,48,48,49,49,50,50,51,51,52,52,53,53,54,54,55,55,56,56,57,57,58,58,59,59,60,60,61,61,62,62],"right_children":[2,4,6,8,10,12,14,16,18,20,22,24,26,28,30,32,34,36,38,40,42,44,46,48,50,52,54,56,58,60,62,64,66,68,70,72,74,76,78,80,82,84,86,88,90,92,94,96,98,100,102,104,106,108,110,112,114,116,118,120,122,124,126,-1,-1,-1,-1,-1,-1,-1,-1,-1,-1,-1,-1,-1,-1,-1,-1,-1,-1,-1,-1,-1,-1,-1,-1,-1,-1,-1,-1,-1,-1,-1,-1,-1,-1,-1,-1,-1,-1,-1,-1,-1,-1,-1,-1,-1,-1,-1,-1,-1,-1,-1,-1,-1,-1,-1,-1,-1,-1,-1,-1,-1,-1,-1,-1],"split_conditions":[1.305E2,1.055E2,2.515E2,6.65E1,1.585E2,2.695E2,3.415E2,4.65E1,8.95E1,6.35E1,9.75E1,2.025E2,1.965E2,4.015E2,1.757E3,4.725E2,4.25E1,4.55E1,6.55E1,3.65E1,9.55E1,6.75E1,2.075E2,1.185E2,1.805E2,3.115E2,3.465E2,5.605E2,3.435E2,5.215E2,1.355E2,3.985E2,6.245E2,6.095E2,2.45E1,7.65E1,7.65E1,7.35E1,7.65E1,4.45E1,1.325E2,1.285E2,1.225E2,9.55E1,1.835E2,1.065E2,2.815E2,6.65E1,1.565E2,1.495E2,2.035E2,1.525E2,4.245E2,2.285E2,2.705E2,3.245E2,9.67E2,2.935E2,4.645E2,4.195E2,8.11E2,-3.2E1,-1E2,2.4310167E0,3.0857396E0,3.544864E0,4.0783787E0,3.8746383E0,4.4633784E0,4.6182156E0,5.3984995E0,4.705882E0,5.414016E0,5.562219E0,6.41307E0,6.1292562E0,7.830417E0,7.7246943E0,9.871809E0,6.5411506E0,7.7831306E0,7.390116E0,8.714259E0,8.391665E0,9.719189E0,1.0131407E1,1.1413916E1,9.302821E0,1.1462908E1,1.1242384E1,1.271845E1,1.2581643E1,1.4172573E1,1.4633605E1,1.7631058E1,7.829141E0,1.114707E1,1.391623E1,1.6181873E1,1.5763708E1,1.7415276E1,1.8867073E1,2.1070892E1,1.703051E1,1.931678E1,2.0843128E1,2.8729788E1,2.5718199E1,2.2350168E1,2.8300705E1,2.4543764E1,2.6504E1,3.3659084E1,2.1192255E1,2.152778E0,3.2627277E1,3.7212635E1,2.9562086E1,3.2243362E1,3.7860878E1,4.581549E1,6.0579227E1,9.772044E1,2.7927485E1,4.3708565E1,6.932171E1,2.9153448E1],"split_indices":[12,2,12,2,13,13,12,2,13,12,12,13,12,13,2,14,12,12,12,12,12,12,13,13,12,13,13,2,2,12,5,14,14,14,11,2,2,5,5,11,2,2,13,5,2,5,13,13,12,12,12,12,13,2,2,5,2,12,13,12,12,0,9,0,0,0,0,0,0,0,0,0,0,0,0,0,0,0,0,0,0,0,0,0,0,0,0,0,0,0,0,0,0,0,0,0,0,0,0,0,0,0,0,0,0,0,0,0,0,0,0,0,0,0,0,0,0,0,0,0,0,0,0,0,0,0,0],"split_type":[0,0,0,0,0,0,0,0,0,0,0,0,0,0,0,0,0,0,0,0,0,0,0,0,0,0,0,0,0,0,0,0,0,0,0,0,0,0,0,0,0,0,0,0,0,0,0,0,0,0,0,0,0,0,0,0,0,0,0,0,0,0,0,0,0,0,0,0,0,0,0,0,0,0,0,0,0,0,0,0,0,0,0,0,0,0,0,0,0,0,0,0,0,0,0,0,0,0,0,0,0,0,0,0,0,0,0,0,0,0,0,0,0,0,0,0,0,0,0,0,0,0,0,0,0,0,0],"sum_hessian":[6.75501E5,6.33146E5,4.2355E4,5.15569E5,1.17577E5,3.2469E4,9.886E3,3.80765E5,1.34804E5,8.0868E4,3.6709E4,1.981E4,1.2659E4,4.588E3,5.298E3,2.09191E5,1.71574E5,1.01463E5,3.3341E4,4.3231E4,3.7637E4,1.9699E4,1.701E4,8.404E3,1.1406E4,6.791E3,5.868E3,2.437E3,2.151E3,2.456E3,2.842E3,5.184E4,1.57351E5,1.02608E5,6.8966E4,5.6141E4,4.5322E4,2.1669E4,1.1672E4,1.6688E4,2.6543E4,2.6486E4,1.1151E4,6.862E3,1.2837E4,9.65E3,7.36E3,1.272E3,7.132E3,8.786E3,2.62E3,4.193E3,2.598E3,3.457E3,2.411E3,2.254E3,1.83E2,6.16E2,1.535E3,2.074E3,3.82E2,8.07E2,2.035E3,1.5492E4,3.6348E4,1.04919E5,5.2432E4,6.2047E4,4.0561E4,4.9557E4,1.9409E4,3.1613E4,2.4528E4,2.3386E4,2.1936E4,1.8538E4,3.131E3,9.768E3,1.904E3,1.3354E4,3.334E3,1.4067E4,1.2476E4,9.915E3,1.6571E4,4.551E3,6.6E3,5.249E3,1.613E3,8.103E3,4.734E3,7.604E3,2.046E3,6.516E3,8.44E2,3.03E2,9.69E2,4.848E3,2.284E3,4.194E3,4.592E3,1.641E3,9.79E2,1.279E3,2.914E3,2.535E3,6.3E1,4.02E2,3.055E3,6.46E2,1.765E3,2.18E3,7.4E1,1.77E2,6E0,3.47E2,2.69E2,9.73E2,5.62E2,1.4E3,6.74E2,3.59E2,2.3E1,9.5E1,7.12E2,9E0,2.026E3],"tree_param":{"num_deleted":"0","num_feature":"15","num_nodes":"127","size_leaf_vector":"0"}},{"base_weights":[1.5005479E1,1.2353805E1,4.7655315E1,1.0308093E1,2.2270044E1,3.9273865E1,7.615786E1,9.045509E0,1.3384093E1,1.96578E1,2.7340603E1,3.2929974E1,4.6049698E1,6.374447E1,8.7855415E1,7.6353645E0,9.883781E0,1.2442453E1,1.594763E1,1.691141E1,2.1833475E1,2.3439676E1,2.9155409E1,2.5669971E1,3.5050198E1,4.161516E1,5.0648525E1,5.8888924E1,7.004842E1,9.78972E1,7.690677E1,7.1514564E0,9.037761E0,8.919221E0,1.0657407E1,1.157189E1,1.4165456E1,1.4348264E1,1.8001007E1,1.4045822E1,1.7970749E1,2.0646387E1,2.5435608E1,1.5859287E1,2.3980213E1,2.6370665E1,3.0942747E1,2.3895851E1,3.1952627E1,3.299042E1,4.007564E1,3.9598064E1,4.5006947E1,4.613138E1,5.436125E1,5.869648E1,1.1379315E2,7.028608E1,-1.690968E0,9.144738E1,1.5715913E2,9.087676E1,6.3778355E1,5.728399E0,7.594723E0,1.453968E1,8.862095E0,8.604354E0,1.0812146E1,1.0445615E1,1.486342E1,1.0348819E1,1.2547434E1,1.3714996E1,1.7740116E1,1.4004764E1,1.933999E1,1.9449636E1,1.5780184E1,1.3375342E1,2.256195E1,1.7270134E1,2.156669E1,1.6448515E1,2.124679E1,2.4144346E1,3.0302715E1,7.7777786E0,1.7178179E1,2.3281298E1,3.0537899E1,2.6041128E1,3.8001453E1,4.372233E1,3.05497E1,2.6006243E1,1.733934E1,2.7213442E1,3.839365E1,3.0917944E1,3.638098E1,3.8757477E1,4.8451027E1,3.6893364E1,4.1313786E1,4.7470142E1,3.7204636E1,4.7214104E1,3.566155E1,5.1134613E1,5.8771824E1,5.559451E1,6.1769115E1,1.26683876E2,4.1486847E1,6.642703E1,7.523177E1,-2.419376E1,2.1150019E1,8.42941E1,1.0798105E2,1.5158937E2,2.9072415E2,9.777842E1,6.2399956E1,6.0122147E1,9.2115204E1],"categories":[],"categories_nodes":[],"categories_segments":[],"categories_sizes":[],"default_left":[1,1,1,1,1,1,1,1,1,1,1,1,1,1,1,1,1,1,1,1,1,1,1,1,1,1,1,1,1,1,1,1,1,1,1,1,1,1,1,1,1,1,1,1,1,1,1,1,1,1,1,1,1,1,1,1,1,1,1,1,1,1,1,0,0,0,0,0,0,0,0,0,0,0,0,0,0,0,0,0,0,0,0,0,0,0,0,0,0,0,0,0,0,0,0,0,0,0,0,0,0,0,0,0,0,0,0,0,0,0,0,0,0,0,0,0,0,0,0,0,0,0,0,0,0,0,0],"id":3,"left_children":[1,3,5,7,9,11,13,15,17,19,21,23,25,27,29,31,33,35,37,39,41,43,45,47,49,51,53,55,57,59,61,63,65,67,69,71,73,75,77,79,81,83,85,87,89,91,93,95,97,99,101,103,105,107,109,111,113,115,117,119,121,123,125,-1,-1,-1,-1,-1,-1,-1,-1,-1,-1,-1,-1,-1,-1,-1,-1,-1,-1,-1,-1,-1,-1,-1,-1,-1,-1,-1,-1,-1,-1,-1,-1,-1,-1,-1,-1,-1,-1,-1,-1,-1,-1,-1,-1,-1,-1,-1,-1,-1,-1,-1,-1,-1,-1,-1,-1,-1,-1,-1,-1,-1,-1,-1,-1],"loss_changes":[5.848216E7,1.2673568E7,1.2118424E7,2.011328E6,1.41468E6,1.684016E6,1.668484E6,4.33986E5,3.63626E5,4.21006E5,2.56482E5,3.1088E5,3.84516E5,1.67194E5,6.44772E5,9.28445E4,1.71754E5,1.65186E5,1.32702E5,9.4386E4,1.67714E5,4.69005E4,1.22562E5,5.03085E4,1.60924E5,6.4287E4,1.53496E5,2.6793E4,4.1549E4,1.167098E6,5.1562E5,6.4165E4,3.381275E4,6.10015E4,1.13681E5,8.7255E4,5.93305E4,3.8762E4,5.67105E4,4.7769625E4,5.6964E4,7.425E4,6.0532E4,8.0842188E3,4.8646E4,3.6177E4,7.4472E4,4.9043375E4,2.96635E4,7.7034E4,4.83775E4,2.6615E4,6.73055E4,4.5962E4,6.9575E4,2.6676E4,4.0650781E3,4.1229E4,5.1375723E3,3.2087E5,1.805955E5,2.64137E5,1.46659E5,0E0,0E0,0E0,0E0,0E0,0E0,0E0,0E0,0E0,0E0,0E0,0E0,0E0,0E0,0E0,0E0,0E0,0E0,0E0,0E0,0E0,0E0,0E0,0E0,0E0,0E0,0E0,0E0,0E0,0E0,0E0,0E0,0E0,0E0,0E0,0E0,0E0,0E0,0E0,0E0,0E0,0E0,0E0,0E0,0E0,0E0,0E0,0E0,0E0,0E0,0E0,0E0,0E0,0E0,0E0,0E0,0E0,0E0,0E0,0E0,0E0,0E0,0E0,0E0],"parents":[2147483647,0,0,1,1,2,2,3,3,4,4,5,5,6,6,7,7,8,8,9,9,10,10,11,11,12,12,13,13,14,14,15,15,16,16,17,17,18,18,19,19,20,20,21,21,22,22,23,23,24,24,25,25,26,26,27,27,28,28,29,29,30,30,31,31,32,32,33,33,34,34,35,35,36,36,37,37,38,38,39,39,40,40,41,41,42,42,43,43,44,44,45,45,46,46,47,47,48,48,49,49,50,50,51,51,52,52,53,53,54,54,55,55,56,56,57,57,58,58,59,59,60,60,61,61,62,62],"right_children":[2,4,6,8,10,12,14,16,18,20,22,24,26,28,30,32,34,36,38,40,42,44,46,48,50,52,54,56,58,60,62,64,66,68,70,72,74,76,78,80,82,84,86,88,90,92,94,96,98,100,102,104,106,108,110,112,114,116,118,120,122,124,126,-1,-1,-1,-1,-1,-1,-1,-1,-1,-1,-1,-1,-1,-1,-1,-1,-1,-1,-1,-1,-1,-1,-1,-1,-1,-1,-1,-1,-1,-1,-1,-1,-1,-1,-1,-1,-1,-1,-1,-1,-1,-1,-1,-1,-1,-1,-1,-1,-1,-1,-1,-1,-1,-1,-1,-1,-1,-1,-1,-1,-1,-1,-1,-1],"split_conditions":[1.195E2,1.075E2,2.355E2,6.45E1,1.505E2,2.335E2,4.585E2,5E-1,8.75E1,5.45E1,7.45E1,1.445E2,1.735E2,3.815E2,1.757E3,4.15E1,3.25E1,3.85E1,5.75E1,7.05E1,1.645E2,2.75E1,1.775E2,5.05E1,1.135E2,1.105E2,2.995E2,4E2,9.07E2,7.445E2,2.525E2,4.405E2,-7.15E1,3.65E1,7.15E1,3.75E1,5.95E1,7.85E1,6.605E2,1.015E2,6.35E1,8.05E1,5.95E1,2.2E1,1.335E2,7.85E1,-5.35E1,7.505E2,1.195E2,1.445E2,1.845E2,1.425E2,2.935E2,7.995E2,2.105E2,3.385E2,9.7E1,2.935E2,9.8E1,5.745E2,8.9E2,1.02E2,8.27E2,1.7185197E0,2.278417E0,4.361904E0,2.6586285E0,2.5813062E0,3.243644E0,3.1336846E0,4.459026E0,3.1046457E0,3.7642303E0,4.114499E0,5.322035E0,4.2014294E0,5.801997E0,5.8348913E0,4.7340555E0,4.012603E0,6.7685857E0,5.1810403E0,6.4700074E0,4.9345546E0,6.3740373E0,7.2433043E0,9.090815E0,2.3333337E0,5.153454E0,6.98439E0,9.16137E0,7.812339E0,1.1400436E1,1.3116699E1,9.16491E0,7.801873E0,5.2018023E0,8.164033E0,1.1518095E1,9.275384E0,1.0914295E1,1.1627243E1,1.4535309E1,1.1068009E1,1.2394136E1,1.4241043E1,1.1161391E1,1.4164231E1,1.0698465E1,1.53403845E1,1.7631548E1,1.6678354E1,1.8530735E1,3.8005165E1,1.2446054E1,1.992811E1,2.2569532E1,-7.258128E0,6.345006E0,2.528823E1,3.2394318E1,4.5476814E1,8.721725E1,2.9333527E1,1.8719988E1,1.8036644E1,2.7634562E1],"split_indices":[12,2,12,2,13,13,13,4,13,12,12,13,12,13,2,12,12,8,12,13,2,12,13,11,5,5,13,12,2,13,5,14,0,8,0,12,8,5,14,8,8,13,11,1,5,11,0,14,13,12,12,12,2,14,12,13,10,12,4,13,12,8,14,0,0,0,0,0,0,0,0,0,0,0,0,0,0,0,0,0,0,0,0,0,0,0,0,0,0,0,0,0,0,0,0,0,0,0,0,0,0,0,0,0,0,0,0,0,0,0,0,0,0,0,0,0,0,0,0,0,0,0,0,0,0,0,0],"split_type":[0,0,0,0,0,0,0,0,0,0,0,0,0,0,0,0,0,0,0,0,0,0,0,0,0,0,0,0,0,0,0,0,0,0,0,0,0,0,0,0,0,0,0,0,0,0,0,0,0,0,0,0,0,0,0,0,0,0,0,0,0,0,0,0,0,0,0,0,0,0,0,0,0,0,0,0,0,0,0,0,0,0,0,0,0,0,0,0,0,0,0,0,0,0,0,0,0,0,0,0,0,0,0,0,0,0,0,0,0,0,0,0,0,0,0,0,0,0,0,0,0,0,0,0,0,0,0],"sum_hessian":[6.75501E5,6.24762E5,5.0739E4,5.17918E5,1.06844E5,3.9211E4,1.1528E4,3.672E5,1.50718E5,7.0519E4,3.6325E4,2.0254E4,1.8957E4,5.596E3,5.932E3,1.36906E5,2.30294E5,1.10233E5,4.0485E4,3.1175E4,3.9344E4,1.1538E4,2.4787E4,4.581E3,1.5673E4,9.656E3,9.301E3,3.167E3,2.429E3,3.09E3,2.842E3,1.01789E5,3.5117E4,1.02504E5,1.2779E5,7.3237E4,3.6996E4,2.2763E4,1.7722E4,8.418E3,2.2757E4,2.9597E4,9.747E3,7.7E2,1.0768E4,9.696E3,1.5091E4,3.576E3,1.005E3,1.1122E4,4.551E3,6.063E3,3.593E3,4.202E3,5.099E3,3.158E3,9E0,2.421E3,8E0,2.789E3,3.01E2,1.374E3,1.468E3,2.4179E4,7.761E4,1.084E3,3.4033E4,8.789E4,1.4614E4,1.21667E5,6.123E3,3.2501E4,4.0736E4,3.286E4,4.136E3,2.1301E4,1.462E3,1.0721E4,7.001E3,7.806E3,6.12E2,1.9051E4,3.706E3,3.707E3,2.589E4,7.708E3,2.039E3,1.09E2,6.61E2,9.735E3,1.033E3,9.432E3,2.64E2,4.47E2,1.4644E4,2.703E3,8.73E2,5.82E2,4.23E2,6.909E3,4.213E3,3.937E3,6.14E2,2.362E3,3.701E3,2.727E3,8.66E2,3.805E3,3.97E2,2.952E3,2.147E3,1.581E3,1.577E3,7E0,2E0,1.368E3,1.053E3,4E0,4E0,1.951E3,8.38E2,2.91E2,1E1,1.104E3,2.7E2,1.303E3,1.65E2],"tree_param":{"num_deleted":"0","num_feature":"15","num_nodes":"127","size_leaf_vector":"0"}},{"base_weights":[1.050498E1,8.4636345E0,3.1558876E1,6.675566E0,1.33033905E1,2.5639214E1,5.0988068E1,6.057902E0,8.409022E0,1.1181492E1,1.6758493E1,2.1460884E1,3.0189474E1,4.1916275E1,6.045814E1,5.3536963E0,6.7294793E0,8.041046E0,1.0505379E1,1.019472E1,1.2991715E1,1.5088486E1,1.9920431E1,1.5753329E1,2.2846373E1,2.7668459E1,3.3589417E1,3.8668705E1,4.498627E1,6.098311E1,-4.029838E0,4.671514E0,6.000247E0,9.706522E0,6.5487742E0,7.815198E0,1.0743913E1,8.933759E0,1.1374146E1,8.709568E0,1.1035233E1,1.2262049E1,1.6337223E1,1.4108168E1,1.9371315E1,2.8239449E1,1.9422632E1,1.7742464E1,1.1093629E1,2.1046764E1,2.5646181E1,2.6467787E1,3.1056408E1,3.1126127E1,3.6853313E1,3.9153046E1,2.025929E1,4.4797962E1,9.843665E1,5.2101425E1,6.41302E1,2.1803232E1,-4.4944733E1,3.410585E0,5.0053678E0,5.559328E0,7.01363E0,9.207249E0,1.3290149E1,6.3569336E0,9.723108E0,9.89217E0,7.583085E0,1.8254833E1,1.0305453E1,7.5547056E0,9.600319E0,1.0670657E1,1.3400549E1,8.367883E0,1.25192795E1,1.0606127E1,1.3104442E1,8.849364E0,1.3064093E1,1.5442903E1,2.0947031E1,1.1140678E1,1.4708178E1,1.6410397E1,2.1219131E1,2.7933887E1,7.146047E1,1.868724E1,2.4192406E1,1.2097784E1,1.890069E1,9.524341E0,1.9876669E1,1.8799158E1,2.3572874E1,2.4431986E1,2.9556297E1,8.265015E0,2.6694843E1,3.2476646E1,2.3488495E1,3.3171318E1,2.851026E1,3.988252E1,3.0987188E1,3.9427834E1,9.179798E0,2.9248373E1,-7.588798E0,4.572923E1,3.3529953E1,1.1383736E2,1.4288753E1,5.3881958E1,2.8371397E1,7.574904E1,5.4978474E1,8.939072E1,1.7138369E0,9.881622E0,-5.412161E1],"categories":[],"categories_nodes":[],"categories_segments":[],"categories_sizes":[],"default_left":[1,1,1,1,1,1,1,1,1,1,1,1,1,1,1,1,1,1,1,1,1,1,1,1,1,1,1,1,1,1,1,1,1,1,1,1,1,1,1,1,1,1,1,1,1,1,1,1,1,1,1,1,1,1,1,1,1,1,1,1,1,1,1,0,0,0,0,0,0,0,0,0,0,0,0,0,0,0,0,0,0,0,0,0,0,0,0,0,0,0,0,0,0,0,0,0,0,0,0,0,0,0,0,0,0,0,0,0,0,0,0,0,0,0,0,0,0,0,0,0,0,0,0,0,0,0,0],"id":4,"left_children":[1,3,5,7,9,11,13,15,17,19,21,23,25,27,29,31,33,35,37,39,41,43,45,47,49,51,53,55,57,59,61,63,65,67,69,71,73,75,77,79,81,83,85,87,89,91,93,95,97,99,101,103,105,107,109,111,113,115,117,119,121,123,125,-1,-1,-1,-1,-1,-1,-1,-1,-1,-1,-1,-1,-1,-1,-1,-1,-1,-1,-1,-1,-1,-1,-1,-1,-1,-1,-1,-1,-1,-1,-1,-1,-1,-1,-1,-1,-1,-1,-1,-1,-1,-1,-1,-1,-1,-1,-1,-1,-1,-1,-1,-1,-1,-1,-1,-1,-1,-1,-1,-1,-1,-1,-1,-1],"loss_changes":[2.903164E7,5.328904E6,6.865732E6,4.81406E5,1.217774E6,8.69458E5,1.195228E6,1.56759E5,9.1043E4,1.8372E5,3.33456E5,1.88327E5,1.86824E5,6.9287E4,2.31096E5,7.1355E4,9.1228E4,6.12615E4,2.3978125E4,8.30625E4,8.8431E4,1.734E5,8.9903E4,4.303275E4,9.6191E4,5.0368E4,7.3801E4,3.0138E4,3.2389E4,1.85722E5,6.016955E4,3.31365E4,3.708625E4,1.7249125E4,9.73655E4,4.46385E4,2.53245E4,5.7029062E3,1.604275E4,3.1242E4,3.7631E4,8.14805E4,2.64655E4,5.97755E4,4.179125E4,1.42613125E4,7.1848E4,2.1130438E4,1.90795E4,6.59405E4,3.49185E4,3.8208E4,3.4567E4,2.7511E4,6.9914E4,2.74685E4,2.3001879E4,3.6715E4,1.3924656E4,7.3469E4,5.26436E5,4.7369508E4,1.1603773E4,0E0,0E0,0E0,0E0,0E0,0E0,0E0,0E0,0E0,0E0,0E0,0E0,0E0,0E0,0E0,0E0,0E0,0E0,0E0,0E0,0E0,0E0,0E0,0E0,0E0,0E0,0E0,0E0,0E0,0E0,0E0,0E0,0E0,0E0,0E0,0E0,0E0,0E0,0E0,0E0,0E0,0E0,0E0,0E0,0E0,0E0,0E0,0E0,0E0,0E0,0E0,0E0,0E0,0E0,0E0,0E0,0E0,0E0,0E0,0E0,0E0,0E0,0E0,0E0],"parents":[2147483647,0,0,1,1,2,2,3,3,4,4,5,5,6,6,7,7,8,8,9,9,10,10,11,11,12,12,13,13,14,14,15,15,16,16,17,17,18,18,19,19,20,20,21,21,22,22,23,23,24,24,25,25,26,26,27,27,28,28,29,29,30,30,31,31,32,32,33,33,34,34,35,35,36,36,37,37,38,38,39,39,40,40,41,41,42,42,43,43,44,44,45,45,46,46,47,47,48,48,49,49,50,50,51,51,52,52,53,53,54,54,55,55,56,56,57,57,58,58,59,59,60,60,61,61,62,62],"right_children":[2,4,6,8,10,12,14,16,18,20,22,24,26,28,30,32,34,36,38,40,42,44,46,48,50,52,54,56,58,60,62,64,66,68,70,72,74,76,78,80,82,84,86,88,90,92,94,96,98,100,102,104,106,108,110,112,114,116,118,120,122,124,126,-1,-1,-1,-1,-1,-1,-1,-1,-1,-1,-1,-1,-1,-1,-1,-1,-1,-1,-1,-1,-1,-1,-1,-1,-1,-1,-1,-1,-1,-1,-1,-1,-1,-1,-1,-1,-1,-1,-1,-1,-1,-1,-1,-1,-1,-1,-1,-1,-1,-1,-1,-1,-1,-1,-1,-1,-1,-1,-1,-1,-1,-1,-1,-1],"split_conditions":[1.105E2,7.85E1,2.165E2,4.25E1,1.225E2,2.175E2,4.305E2,5.525E2,4.85E1,1.135E2,1.625E2,1.185E2,1.665E2,3.485E2,6.6E1,2.85E1,-5.7E1,7.75E1,3.65E1,3.75E1,5.05E1,8.25E1,-4.7E1,7.445E2,8.25E1,1.245E2,1.055E2,6.655E2,3.985E2,3.435E2,1.3E1,4.135E2,5.05E1,6.65E1,5.7E1,-5.7E1,-7.15E1,5.905E2,5.75E1,5.7E1,7.95E1,5.65E1,1.255E2,4.05E1,6.55E1,3.76E2,2.225E2,4.85E1,1.085E2,1.775E2,6.15E1,1.115E2,3.445E2,6.205E2,3.145E2,8E1,3.325E2,5.205E2,4.655E2,5.42E2,1.757E3,1.7E1,1.209E3,1.0231755E0,1.5016104E0,1.6677985E0,2.104089E0,2.7621746E0,3.9870448E0,1.9070802E0,2.9169326E0,2.9676511E0,2.2749257E0,5.47645E0,3.0916362E0,2.2664118E0,2.8800957E0,3.2011974E0,4.020165E0,2.510365E0,3.755784E0,3.1818383E0,3.9313326E0,2.6548095E0,3.9192278E0,4.632871E0,6.2841096E0,3.3422036E0,4.4124537E0,4.923119E0,6.36574E0,8.380167E0,2.1438143E1,5.6061726E0,7.257722E0,3.6293354E0,5.670207E0,2.8573022E0,5.963001E0,5.6397476E0,7.0718627E0,7.329596E0,8.86689E0,2.4795046E0,8.008453E0,9.742994E0,7.046549E0,9.951396E0,8.553079E0,1.1964756E1,9.296157E0,1.182835E1,2.7539396E0,8.774512E0,-2.2766395E0,1.3718769E1,1.0058987E1,3.4151207E1,4.286626E0,1.6164589E1,8.511419E0,2.2724712E1,1.6493544E1,2.6817217E1,5.141511E-1,2.9644868E0,-1.6236483E1],"split_indices":[12,2,12,5,13,13,13,14,8,2,2,13,12,13,0,12,0,12,12,12,11,5,0,14,5,5,5,2,12,12,6,14,2,12,0,0,3,14,8,0,12,13,8,12,12,5,13,13,13,2,11,2,2,14,2,0,13,2,12,2,2,4,2,0,0,0,0,0,0,0,0,0,0,0,0,0,0,0,0,0,0,0,0,0,0,0,0,0,0,0,0,0,0,0,0,0,0,0,0,0,0,0,0,0,0,0,0,0,0,0,0,0,0,0,0,0,0,0,0,0,0,0,0,0,0,0,0],"split_type":[0,0,0,0,0,0,0,0,0,0,0,0,0,0,0,0,0,0,0,0,0,0,0,0,0,0,0,0,0,0,0,0,0,0,0,0,0,0,0,0,0,0,0,0,0,0,0,0,0,0,0,0,0,0,0,0,0,0,0,0,0,0,0,0,0,0,0,0,0,0,0,0,0,0,0,0,0,0,0,0,0,0,0,0,0,0,0,0,0,0,0,0,0,0,0,0,0,0,0,0,0,0,0,0,0,0,0,0,0,0,0,0,0,0,0,0,0,0,0,0,0,0,0,0,0,0,0],"sum_hessian":[6.75501E5,6.15796E5,5.9705E4,4.49667E5,1.66129E5,4.5764E4,1.3941E4,3.31538E5,1.18129E5,1.02924E5,6.3205E4,2.386E4,2.1904E4,7.123E3,6.818E3,1.61842E5,1.69696E5,1.00494E5,1.7635E4,6.6617E4,3.6307E4,4.1364E4,2.1841E4,4.663E3,1.9197E4,1.2583E4,9.321E3,3.468E3,3.655E3,6.763E3,5.5E1,7.8755E4,8.3087E4,9.708E3,1.59988E5,9.2748E4,7.746E3,6.282E3,1.1353E4,2.408E4,4.2537E4,2.981E4,6.497E3,3.3663E4,7.701E3,1.23E3,2.0611E4,3.266E3,1.397E3,1.1691E4,7.506E3,9.297E3,3.286E3,5.318E3,4.003E3,3.378E3,9E1,3.644E3,1.1E1,1.774E3,4.989E3,3.4E1,2.1E1,1.6489E4,6.2266E4,5.7901E4,2.5186E4,8.524E3,1.184E3,1.50873E5,9.115E3,9.319E3,8.3429E4,4.25E2,7.321E3,2.051E3,4.231E3,8.432E3,2.921E3,2.2101E4,1.979E3,3.5236E4,7.301E3,5.675E3,2.4135E4,5.445E3,1.052E3,5.665E3,2.7998E4,2.963E3,4.738E3,1.223E3,7E0,1.7862E4,2.749E3,5.58E2,2.708E3,1.187E3,2.1E2,6.191E3,5.5E3,5.733E3,1.773E3,1.15E2,9.182E3,2.764E3,5.22E2,2.978E3,2.34E3,2.636E3,1.367E3,3.347E3,3.1E1,6.8E1,2.2E1,3.363E3,2.81E2,9E0,2E0,1.649E3,1.25E2,2.195E3,2.794E3,7E0,2.7E1,3E0,1.8E1],"tree_param":{"num_deleted":"0","num_feature":"15","num_nodes":"127","size_leaf_vector":"0"}},{"base_weights":[7.354096E0,5.8458114E0,2.1377434E1,4.950188E0,1.0238242E1,1.771356E1,3.6743183E1,4.401212E0,6.657368E0,8.466037E0,1.2319747E1,1.5510098E1,2.2591522E1,3.1377474E1,4.4438057E1,3.6816611E0,4.881393E0,6.3309917E0,9.825514E0,8.909092E0,4.9567065E0,1.1379474E1,1.4156372E1,1.2861672E1,1.7383684E1,2.0810251E1,2.6107206E1,2.8553959E1,3.5096878E1,5.258001E1,3.770954E1,3.3753338E0,4.619242E0,4.71267E0,7.1150517E0,5.8231964E0,7.459E0,9.319426E0,1.2988995E1,8.38467E0,1.2817506E1,5.7366486E0,1.6377931E0,1.1282446E1,3.0032528E1,2.4492172E1,1.3821045E1,1.4681797E1,1.099943E1,1.8044395E1,1.4085612E1,2.106326E1,4.6531253E0,2.5996073E1,7.958369E1,3.1679132E1,2.4398256E1,3.6822266E1,2.404275E1,4.7748116E1,9.493726E1,5.676925E1,3.269312E1,1.6796582E0,3.4992678E0,3.7608461E0,5.05116E0,6.881013E0,4.5271864E0,6.428778E0,8.370129E0,7.565737E0,5.635677E0,7.1483183E0,1.0343246E1,7.9966493E0,9.973332E0,3.3959156E-1,1.3777235E1,5.576796E0,8.787719E0,1.6712868E1,1.2034532E1,5.33392E0,1.1983887E1,5.9821887E0,-7.447232E-2,1.0948622E1,1.5640227E1,4.7964108E1,2.5423038E1,1.8972618E1,3.829348E1,1.3784113E1,4.8877697E1,1.4209768E1,1.9689117E1,8.836798E0,1.3547021E1,1.786867E1,3.0258715E1,8.065715E0,1.6919851E1,2.1458477E1,1.1506076E1,6.501525E0,-2.5571419E1,2.7566774E1,2.256654E1,1.4282082E2,2.3045202E1,3.0160097E1,4.1934566E1,2.4798115E1,-1.1928457E0,3.48989E1,4.5712376E1,2.5661798E1,-1.4980843E1,5.0794678E1,3.3028595E1,9.028352E1,2.0383452E2,1.7040197E1,6.463214E1,2.041683E2,3.2373745E1],"categories":[],"categories_nodes":[],"categories_segments":[],"categories_sizes":[],"default_left":[1,1,1,1,1,1,1,1,1,1,1,1,1,1,1,1,1,1,1,1,1,1,1,1,1,1,1,1,1,1,1,1,1,1,1,1,1,1,1,1,1,1,1,1,1,1,1,1,1,1,1,1,1,1,1,1,1,1,1,1,1,1,1,0,0,0,0,0,0,0,0,0,0,0,0,0,0,0,0,0,0,0,0,0,0,0,0,0,0,0,0,0,0,0,0,0,0,0,0,0,0,0,0,0,0,0,0,0,0,0,0,0,0,0,0,0,0,0,0,0,0,0,0,0,0,0,0],"id":5,"left_children":[1,3,5,7,9,11,13,15,17,19,21,23,25,27,29,31,33,35,37,39,41,43,45,47,49,51,53,55,57,59,61,63,65,67,69,71,73,75,77,79,81,83,85,87,89,91,93,95,97,99,101,103,105,107,109,111,113,115,117,119,121,123,125,-1,-1,-1,-1,-1,-1,-1,-1,-1,-1,-1,-1,-1,-1,-1,-1,-1,-1,-1,-1,-1,-1,-1,-1,-1,-1,-1,-1,-1,-1,-1,-1,-1,-1,-1,-1,-1,-1,-1,-1,-1,-1,-1,-1,-1,-1,-1,-1,-1,-1,-1,-1,-1,-1,-1,-1,-1,-1,-1,-1,-1,-1,-1,-1],"loss_changes":[1.4287544E7,2.399292E6,3.692396E6,4.74765E5,3.80944E5,5.68992E5,5.20036E5,1.324325E5,1.27398E5,8.671075E4,8.18695E4,1.80846E5,1.02661E5,7.7173E4,2.82124E5,4.4051625E4,8.66125E4,6.39715E4,1.8308125E4,1.0143425E5,1.6187234E4,5.65305E4,5.539275E4,5.109825E4,4.6311E4,4.4636E4,3.084375E4,5.425425E4,6.030025E4,4.752035E5,2.699675E5,2.42985E4,1.3988875E4,8.5944E4,1.38523125E4,2.514075E4,3.1010375E4,8.506875E3,1.5799E4,4.93875E4,1.7668625E4,1.2681828E4,8.867445E3,4.530525E4,1.2170781E4,3.766675E4,1.9494E4,1.779E4,4.1085875E4,3.7663E4,6.0791312E4,4.0448E4,9.663648E3,2.9156E4,3.6037312E4,3.6357E4,1.8684E4,4.581975E4,2.7931422E4,9.2763E4,1.0271725E5,1.835185E5,1.167755E5,0E0,0E0,0E0,0E0,0E0,0E0,0E0,0E0,0E0,0E0,0E0,0E0,0E0,0E0,0E0,0E0,0E0,0E0,0E0,0E0,0E0,0E0,0E0,0E0,0E0,0E0,0E0,0E0,0E0,0E0,0E0,0E0,0E0,0E0,0E0,0E0,0E0,0E0,0E0,0E0,0E0,0E0,0E0,0E0,0E0,0E0,0E0,0E0,0E0,0E0,0E0,0E0,0E0,0E0,0E0,0E0,0E0,0E0,0E0,0E0,0E0,0E0,0E0,0E0],"parents":[2147483647,0,0,1,1,2,2,3,3,4,4,5,5,6,6,7,7,8,8,9,9,10,10,11,11,12,12,13,13,14,14,15,15,16,16,17,17,18,18,19,19,20,20,21,21,22,22,23,23,24,24,25,25,26,26,27,27,28,28,29,29,30,30,31,31,32,32,33,33,34,34,35,35,36,36,37,37,38,38,39,39,40,40,41,41,42,42,43,43,44,44,45,45,46,46,47,47,48,48,49,49,50,50,51,51,52,52,53,53,54,54,55,55,56,56,57,57,58,58,59,59,60,60,61,61,62,62],"right_children":[2,4,6,8,10,12,14,16,18,20,22,24,26,28,30,32,34,36,38,40,42,44,46,48,50,52,54,56,58,60,62,64,66,68,70,72,74,76,78,80,82,84,86,88,90,92,94,96,98,100,102,104,106,108,110,112,114,116,118,120,122,124,126,-1,-1,-1,-1,-1,-1,-1,-1,-1,-1,-1,-1,-1,-1,-1,-1,-1,-1,-1,-1,-1,-1,-1,-1,-1,-1,-1,-1,-1,-1,-1,-1,-1,-1,-1,-1,-1,-1,-1,-1,-1,-1,-1,-1,-1,-1,-1,-1,-1,-1,-1,-1,-1,-1,-1,-1,-1,-1,-1,-1,-1,-1,-1,-1],"split_conditions":[1.055E2,9.55E1,3.435E2,4.65E1,1.295E2,1.565E2,4.905E2,4.05E1,4.75E1,7.845E2,8.45E1,1.705E2,1.995E2,2.635E2,1.757E3,4.25E1,5.7E1,5.45E1,6.95E1,7.85E1,1.525E2,2.725E2,-5.35E1,6.425E2,7.345E2,7.15E1,2.405E2,3.355E2,5.225E2,5.705E2,9.05E1,3.795E2,5.295E2,-5.7E1,4.65E1,-5.7E1,5.7E1,3.65E1,2.15E1,2.65E1,5.035E2,6.6E1,9.35E1,1.025E2,4.35E1,1.895E2,1.82E2,5.65E1,1.355E2,1.745E2,1.755E2,8.855E2,2.87E2,3.525E2,5.5E1,4.245E2,6.8E2,3.375E2,8.955E2,6.365E2,9.24E2,-2.8E1,-1.04E2,5.038975E-1,1.0497804E0,1.1282539E0,1.5153481E0,2.0643039E0,1.358156E0,1.9286336E0,2.5110388E0,2.269721E0,1.6907032E0,2.1444955E0,3.1029742E0,2.398995E0,2.9919999E0,1.0187747E-1,4.1331706E0,1.6730388E0,2.6363158E0,5.0138607E0,3.6103597E0,1.6001761E0,3.5951662E0,1.7946566E0,-2.2341698E-2,3.2845867E0,4.6920686E0,1.4389233E1,7.6269116E0,5.691786E0,1.1488045E1,4.135234E0,1.466331E1,4.262931E0,5.9067354E0,2.6510394E0,4.0641065E0,5.360601E0,9.077615E0,2.4197145E0,5.0759554E0,6.4375434E0,3.451823E0,1.9504576E0,-7.671426E0,8.270033E0,6.7699623E0,4.2846245E1,6.913561E0,9.04803E0,1.2580371E1,7.4394345E0,-3.578537E-1,1.046967E1,1.3713714E1,7.6985397E0,-4.494253E0,1.5238404E1,9.908579E0,2.7085058E1,6.1150356E1,5.1120596E0,1.9389643E1,6.1250492E1,9.712124E0],"split_indices":[12,13,13,5,2,12,13,2,11,14,12,13,12,12,2,12,0,12,11,5,13,13,0,14,14,0,11,2,2,12,5,14,14,0,12,0,0,12,13,12,14,0,2,8,8,2,11,11,2,8,2,14,2,2,1,13,2,12,2,2,12,0,9,0,0,0,0,0,0,0,0,0,0,0,0,0,0,0,0,0,0,0,0,0,0,0,0,0,0,0,0,0,0,0,0,0,0,0,0,0,0,0,0,0,0,0,0,0,0,0,0,0,0,0,0,0,0,0,0,0,0,0,0,0,0,0,0],"split_type":[0,0,0,0,0,0,0,0,0,0,0,0,0,0,0,0,0,0,0,0,0,0,0,0,0,0,0,0,0,0,0,0,0,0,0,0,0,0,0,0,0,0,0,0,0,0,0,0,0,0,0,0,0,0,0,0,0,0,0,0,0,0,0,0,0,0,0,0,0,0,0,0,0,0,0,0,0,0,0,0,0,0,0,0,0,0,0,0,0,0,0,0,0,0,0,0,0,0,0,0,0,0,0,0,0,0,0,0,0,0,0,0,0,0,0,0,0,0,0,0,0,0,0,0,0,0,0],"sum_hessian":[6.75501E5,6.09904E5,6.5597E4,5.06608E5,1.03296E5,5.2969E4,1.2628E4,3.83341E5,1.23267E5,5.5796E4,4.75E4,3.649E4,1.6479E4,7.443E3,5.185E3,1.53432E5,2.29909E5,1.11757E5,1.151E4,4.954E4,6.256E3,3.1421E4,1.6079E4,1.5122E4,2.1368E4,1.0942E4,5.537E3,4.236E3,3.207E3,2.343E3,2.842E3,1.15651E5,3.7781E4,2.13765E5,1.6144E4,7.7069E4,3.4688E4,9.926E3,1.584E3,4.3682E4,5.858E3,5.065E3,1.191E3,3.126E4,1.61E2,5.03E2,1.5576E4,7.644E3,7.478E3,1.7798E4,3.57E3,1.0773E4,1.69E2,5.527E3,1E1,2.414E3,1.822E3,2.772E3,4.35E2,2.105E3,2.38E2,5.9E2,2.252E3,7.878E3,1.07773E5,1.265E4,2.5131E4,1.6842E4,1.96923E5,1.0441E4,5.703E3,7.484E3,6.9585E4,3.1318E4,3.37E3,3.288E3,6.638E3,9.3E1,1.491E3,5.485E3,3.8197E4,9.77E2,4.881E3,4.76E3,3.05E2,3.36E2,8.55E2,2.9039E4,2.221E3,3.1E1,1.3E2,3.61E2,1.42E2,1.5561E4,1.5E1,6.989E3,6.55E2,4.047E3,3.431E3,1.7548E4,2.5E2,1.144E3,2.426E3,1.0344E4,4.29E2,1.6E2,9E0,3.786E3,1.741E3,4E0,6E0,2.106E3,3.08E2,1.794E3,2.8E1,2.283E3,4.89E2,4.18E2,1.7E1,1.742E3,3.63E2,2.3E2,8E0,9.8E1,4.92E2,3E0,2.249E3],"tree_param":{"num_deleted":"0","num_feature":"15","num_nodes":"127","size_leaf_vector":"0"}},{"base_weights":[5.1485915E0,4.263072E0,1.721095E1,3.244053E0,6.8486204E0,1.4762833E1,2.9091692E1,2.8909655E0,4.355381E0,6.007822E0,9.813156E0,1.2656177E1,1.815969E1,2.9525425E1,-1.309861E1,2.7804368E0,5.114627E0,6.8029366E0,4.195753E0,5.5669928E0,8.017865E0,1.09741745E1,8.284461E0,1.1499815E1,1.4921143E1,1.6559532E1,2.0584148E1,2.5007956E1,3.298296E1,7.096527E1,-1.7241648E1,2.2616665E0,3.1154163E0,4.6064577E0,7.6339827E0,6.760491E0,3.4361702E1,4.0187283E0,6.7640605E0,8.750711E0,5.3501496E0,7.692676E0,1.4346987E1,1.0950992E1,1.1232945E2,6.273692E0,1.0066319E1,1.1189212E1,1.7782341E1,1.4564277E1,2.4878597E1,1.740606E1,1.1417109E1,2.642302E1,1.8594627E1,2.6522318E1,1.0083705E1,4.290878E1,2.721775E1,8.101445E1,2.0408867E1,-2.2224848E1,5.995805E1,1.5124413E0,2.4991713E0,3.028795E0,5.1909204E0,8.212349E0,4.375043E0,8.50411E0,1.2153903E0,6.673804E0,1.8074911E1,4.6319146E0,4.6441338E1,3.8291807E0,5.921204E0,6.1238446E0,9.18415E0,7.3866887E0,1.4313535E1,4.6878524E0,6.3954215E0,6.881073E0,9.166571E0,1.533215E1,5.2968106E0,1.0541322E1,1.4492305E1,5.775107E0,1.2437763E1,1.026867E1,-1.101567E0,1.1008177E1,2.1560146E1,1.873257E1,-1.118835E1,1.46225E1,-2.7543066E1,3.588989E1,1.05676155E1,1.5500592E1,1.9966835E1,1.1812278E1,-3.0401438E1,1.9354942E1,2.9488338E1,1.9403793E1,1.1138237E1,4.0371437E1,2.5197908E1,2.1090357E1,3.2586687E0,3.8896076E1,7.653398E1,3.5882412E1,1.903294E1,-2.504635E1,5.289951E1,9.369468E1,6.2354026E0],"categories":[],"categories_nodes":[],"categories_segments":[],"categories_sizes":[],"default_left":[1,1,1,1,1,1,1,1,1,1,1,1,1,1,1,1,1,1,1,1,1,1,1,1,1,1,1,1,1,1,1,1,1,1,1,1,1,1,1,1,1,1,1,1,0,1,1,1,1,1,1,1,1,1,1,1,1,1,1,0,0,1,1,0,0,0,0,0,0,0,0,0,0,0,0,0,0,0,0,0,0,0,0,0,0,0,0,0,0,0,0,0,0,0,0,0,0,0,0,0,0,0,0,0,0,0,0,0,0,0,0,0,0,0,0,0,0,0,0,0,0],"id":6,"left_children":[1,3,5,7,9,11,13,15,17,19,21,23,25,27,29,31,33,35,37,39,41,43,45,47,49,51,53,55,57,59,61,63,65,67,69,71,73,75,77,79,81,83,85,87,-1,89,91,93,95,97,99,101,103,105,107,109,111,113,115,-1,-1,117,119,-1,-1,-1,-1,-1,-1,-1,-1,-1,-1,-1,-1,-1,-1,-1,-1,-1,-1,-1,-1,-1,-1,-1,-1,-1,-1,-1,-1,-1,-1,-1,-1,-1,-1,-1,-1,-1,-1,-1,-1,-1,-1,-1,-1,-1,-1,-1,-1,-1,-1,-1,-1,-1,-1,-1,-1,-1,-1],"loss_changes":[7.21527E6,1.658022E6,1.34326E6,1.77115E5,4.43384E5,2.73895E5,1.44805E5,8.4181E4,4.2493375E4,1.227655E5,6.967275E4,6.1763E4,5.65365E4,1.21193E5,2.9434223E4,5.670475E4,2.0730625E4,7.5605938E3,4.642725E4,7.84295E4,5.1193375E4,5.1256E4,6.074225E4,3.03575E4,2.8026375E4,3.827075E4,6.717525E4,7.63715E4,2.518785E5,3.787871E2,3.133928E4,2.2782E4,3.563475E4,1.1229281E4,1.5186453E4,6.4047188E3,3.3761377E3,3.4447625E4,1.0149531E4,5.4883188E4,7.36475E4,2.8300375E4,1.0769453E4,3.22475E4,0E0,2.4440938E4,2.034075E4,2.77825E4,2.0470797E4,1.93175E4,4.295586E4,3.670625E4,2.1048938E4,3.1451375E4,2.6017375E4,5.5439E4,2.3519203E4,2.1601125E5,1.9788925E5,0E0,0E0,1.7010246E4,8.477881E3,0E0,0E0,0E0,0E0,0E0,0E0,0E0,0E0,0E0,0E0,0E0,0E0,0E0,0E0,0E0,0E0,0E0,0E0,0E0,0E0,0E0,0E0,0E0,0E0,0E0,0E0,0E0,0E0,0E0,0E0,0E0,0E0,0E0,0E0,0E0,0E0,0E0,0E0,0E0,0E0,0E0,0E0,0E0,0E0,0E0,0E0,0E0,0E0,0E0,0E0,0E0,0E0,0E0,0E0,0E0,0E0,0E0,0E0],"parents":[2147483647,0,0,1,1,2,2,3,3,4,4,5,5,6,6,7,7,8,8,9,9,10,10,11,11,12,12,13,13,14,14,15,15,16,16,17,17,18,18,19,19,20,20,21,21,22,22,23,23,24,24,25,25,26,26,27,27,28,28,29,29,30,30,31,31,32,32,33,33,34,34,35,35,36,36,37,37,38,38,39,39,40,40,41,41,42,42,43,43,45,45,46,46,47,47,48,48,49,49,50,50,51,51,52,52,53,53,54,54,55,55,56,56,57,57,58,58,61,61,62,62],"right_children":[2,4,6,8,10,12,14,16,18,20,22,24,26,28,30,32,34,36,38,40,42,44,46,48,50,52,54,56,58,60,62,64,66,68,70,72,74,76,78,80,82,84,86,88,-1,90,92,94,96,98,100,102,104,106,108,110,112,114,116,-1,-1,118,120,-1,-1,-1,-1,-1,-1,-1,-1,-1,-1,-1,-1,-1,-1,-1,-1,-1,-1,-1,-1,-1,-1,-1,-1,-1,-1,-1,-1,-1,-1,-1,-1,-1,-1,-1,-1,-1,-1,-1,-1,-1,-1,-1,-1,-1,-1,-1,-1,-1,-1,-1,-1,-1,-1,-1,-1,-1,-1],"split_conditions":[2.055E2,7.85E1,2.795E2,5E-1,9.05E1,2.765E2,6.6E1,7.25E1,-5.7E1,1.545E2,6.405E2,1.495E2,2.105E2,3.795E2,5E0,2.65E1,9.45E1,1.1175E3,5.7E1,-5.7E1,5E1,2.875E2,1.515E2,5E1,5.35E1,3.325E2,2.895E2,5.705E2,1.291E3,7.15E1,8.285E2,4.585E2,7.15E1,-7.15E1,7.785E2,7.45E1,1.3E1,6.1E1,6.65E1,-6.6E1,1.095E2,6.15E1,7.15E1,1.445E2,3.3698837E1,1.035E2,6.6E1,1.695E2,9.495E2,7.74E2,6.6E1,1.145E2,7.925E2,1.175E2,4.755E2,2.895E2,-4E0,8.125E2,2.535E2,2.4304337E1,6.12266E0,1.79E2,7.8E1,4.537324E-1,7.497514E-1,9.0863854E-1,1.5572761E0,2.4637048E0,1.3125129E0,2.5512333E0,3.646171E-1,2.0021412E0,5.4224734E0,1.3895744E0,1.3932402E1,1.1487542E0,1.7763613E0,1.8371534E0,2.755245E0,2.2160068E0,4.2940607E0,1.4063557E0,1.9186265E0,2.064322E0,2.7499714E0,4.599645E0,1.5890433E0,3.1623967E0,4.3476915E0,1.7325321E0,3.7313292E0,3.0806012E0,-3.3047011E-1,3.3024533E0,6.4680443E0,5.6197715E0,-3.3565052E0,4.38675E0,-8.26292E0,1.0766967E1,3.1702847E0,4.650178E0,5.990051E0,3.5436835E0,-9.120432E0,5.806483E0,8.846502E0,5.8211384E0,3.3414712E0,1.2111432E1,7.559373E0,6.3271074E0,9.7760063E-1,1.1668823E1,2.2960196E1,1.0764724E1,5.7098823E0,-7.5139055E0,1.5869853E1,2.8108404E1,1.8706208E0],"split_indices":[13,2,12,10,12,13,0,12,3,2,14,12,12,12,4,12,12,14,3,0,0,12,2,0,0,2,2,2,2,0,14,14,0,0,14,5,4,0,12,0,13,8,0,12,0,5,0,8,14,2,0,5,2,5,2,2,6,13,5,0,0,11,0,0,0,0,0,0,0,0,0,0,0,0,0,0,0,0,0,0,0,0,0,0,0,0,0,0,0,0,0,0,0,0,0,0,0,0,0,0,0,0,0,0,0,0,0,0,0,0,0,0,0,0,0,0,0,0,0,0,0],"split_type":[0,0,0,0,0,0,0,0,0,0,0,0,0,0,0,0,0,0,0,0,0,0,0,0,0,0,0,0,0,0,0,0,0,0,0,0,0,0,0,0,0,0,0,0,0,0,0,0,0,0,0,0,0,0,0,0,0,0,0,0,0,0,0,0,0,0,0,0,0,0,0,0,0,0,0,0,0,0,0,0,0,0,0,0,0,0,0,0,0,0,0,0,0,0,0,0,0,0,0,0,0,0,0,0,0,0,0,0,0,0,0,0,0,0,0,0,0,0,0,0,0],"sum_hessian":[6.75501E5,6.29304E5,4.6197E4,4.514E5,1.77904E5,3.8306E4,7.891E3,3.42565E5,1.08835E5,1.38598E5,3.9306E4,2.3646E4,1.466E4,7.811E3,8E1,3.26346E5,1.6219E4,6.661E3,1.02174E5,1.13672E5,2.4926E4,2.2336E4,1.697E4,1.5658E4,7.988E3,8.836E3,5.824E3,3.39E3,4.421E3,3E0,7.7E1,1.28049E5,1.98297E5,1.3499E4,2.72E3,6.652E3,9E0,9.5588E4,6.586E3,7.246E3,1.06426E5,2.371E4,1.216E3,2.2332E4,4E0,7.975E3,8.995E3,1.4923E4,7.35E2,7.714E3,2.74E2,7.585E3,1.251E3,1.477E3,4.347E3,3.077E3,3.13E2,1.622E3,2.799E3,2E0,1E0,7.3E1,4E0,3.0823E4,9.7226E4,1.90355E5,7.942E3,8.12E2,1.2687E4,2.395E3,3.25E2,6.603E3,4.9E1,3E0,6E0,8.693E4,8.658E3,5.211E3,1.375E3,5.821E3,1.425E3,6.5151E4,4.1275E4,1.5294E4,8.416E3,1.096E3,1.2E2,2.002E4,2.312E3,7.38E3,5.95E2,8.835E3,1.6E2,1.4669E4,2.54E2,7.12E2,2.3E1,7.704E3,1E1,1.54E2,1.2E2,4.353E3,3.232E3,1.24E3,1.1E1,4.49E2,1.028E3,3.92E3,4.27E2,2.66E2,2.811E3,1.19E2,1.94E2,1.451E3,1.71E2,1.358E3,1.441E3,7.1E1,2E0,2E0,2E0],"tree_param":{"num_deleted":"0","num_feature":"15","num_nodes":"121","size_leaf_vector":"0"}},{"base_weights":[3.6044712E0,2.8664796E0,1.0775725E1,2.2526648E0,4.5751095E0,9.08881E0,1.898599E1,2.1068773E0,3.888926E0,4.124194E0,7.1049747E0,7.6325183E0,1.1145597E1,1.6349056E1,2.2678055E1,3.7255416E0,2.0053859E0,6.6164556E0,3.7710297E0,2.5602534E0,4.5476527E0,6.6472216E0,1.0448339E1,8.150083E0,5.0764313E0,1.13249655E1,-1.0129329E0,1.7485773E1,1.1942944E1,3.82785E1,2.0048977E1,2.9604547E0,4.585732E0,1.8973258E0,3.7066798E0,3.3138506E0,7.790705E0,3.4346998E0,4.6548123E0,4.9571757E0,2.3375463E0,4.779138E0,2.1068215E0,2.17488E0,6.842357E0,5.710887E0,1.1983049E1,1.4632209E1,7.9359336E0,1.8357979E0,8.643681E0,1.0299028E1,1.3618971E1,-4.567516E0,1.8928646E1,1.5826813E1,2.1179907E1,1.9930302E1,9.645521E0,2.8933708E1,6.113323E1,5.1651006E0,2.302227E1,2.8060908E0,7.979818E0,4.6625633E0,-4.2112384E0,3.8711638E0,1.8263026E0,3.2232308E0,4.288291E0,4.3055143E0,-1.1812658E1,7.4742694E0,2.3315926E1,5.4746294E0,3.190454E0,3.7683594E0,6.013613E0,4.100755E0,9.237647E0,2.0921106E0,4.8643103E0,4.3568482E0,6.203352E0,6.1601553E0,1.7958595E0,2.899252E0,-1.2016265E1,3.8404195E0,7.141243E0,3.8671882E0,1.7858002E1,1.1871275E1,5.923659E1,3.212141E0,1.9815546E1,7.178654E0,9.92523E0,3.5582497E0,-4.184388E0,1.8313342E0,9.945104E0,1.1160178E1,7.4080563E0,1.7964104E1,1.2252672E1,1.0365242E0,-1.962818E1,5.2889748E1,1.3749686E1,1.4333473E1,2.03145E1,1.5066257E1,2.3767523E1,1.3002667E1,3.4241684E1,1.4918722E1,5.379263E0,5.5452785E1,2.6199892E1,3.0243565E1,6.426282E1,1.6302494E0,7.216586E1,2.6512484E1,7.4557E0],"categories":[],"categories_nodes":[],"categories_segments":[],"categories_sizes":[],"default_left":[1,1,1,1,1,1,1,1,1,1,1,1,1,1,1,1,1,1,1,1,1,1,1,1,1,1,1,1,1,1,1,1,1,1,1,1,1,1,1,1,1,1,1,1,1,1,1,1,1,1,1,1,1,1,1,1,1,1,1,1,1,1,1,0,0,0,0,0,0,0,0,0,0,0,0,0,0,0,0,0,0,0,0,0,0,0,0,0,0,0,0,0,0,0,0,0,0,0,0,0,0,0,0,0,0,0,0,0,0,0,0,0,0,0,0,0,0,0,0,0,0,0,0,0,0,0,0],"id":7,"left_children":[1,3,5,7,9,11,13,15,17,19,21,23,25,27,29,31,33,35,37,39,41,43,45,47,49,51,53,55,57,59,61,63,65,67,69,71,73,75,77,79,81,83,85,87,89,91,93,95,97,99,101,103,105,107,109,111,113,115,117,119,121,123,125,-1,-1,-1,-1,-1,-1,-1,-1,-1,-1,-1,-1,-1,-1,-1,-1,-1,-1,-1,-1,-1,-1,-1,-1,-1,-1,-1,-1,-1,-1,-1,-1,-1,-1,-1,-1,-1,-1,-1,-1,-1,-1,-1,-1,-1,-1,-1,-1,-1,-1,-1,-1,-1,-1,-1,-1,-1,-1,-1,-1,-1,-1,-1,-1],"loss_changes":[3.574944E6,6.42342E5,8.72781E5,1.07481E5,1.8462925E5,1.565325E5,1.0421025E5,6.7961875E4,1.18285625E4,9.097625E4,3.7404875E4,4.046175E4,4.727725E4,3.1194625E4,1.8269175E5,1.6051125E4,7.156825E4,5.8921406E3,1.04876875E4,1.5616281E4,6.1076E4,1.8783375E4,2.1358062E4,3.52245E4,5.961136E4,5.0126E4,2.2485799E4,3.0196625E4,2.3461328E4,1.3577194E5,1.6937425E5,9.9896875E3,7.7848906E3,5.131325E4,6.5239062E3,6.081023E3,5.3525625E3,1.27375625E4,1.1706891E4,9.082828E3,1.660325E4,5.9363E4,1.179541E4,9.307098E3,1.8490625E4,1.6122971E4,1.1048656E4,4.8061125E4,3.705825E4,2.8053965E4,2.1747203E4,3.6668125E4,3.8944625E4,2.2724096E4,7.715176E3,2.2775938E4,2.4020125E4,2.8009094E4,2.2484078E4,3.1823812E4,1.60374375E4,1.5122167E5,1.7322575E5,0E0,0E0,0E0,0E0,0E0,0E0,0E0,0E0,0E0,0E0,0E0,0E0,0E0,0E0,0E0,0E0,0E0,0E0,0E0,0E0,0E0,0E0,0E0,0E0,0E0,0E0,0E0,0E0,0E0,0E0,0E0,0E0,0E0,0E0,0E0,0E0,0E0,0E0,0E0,0E0,0E0,0E0,0E0,0E0,0E0,0E0,0E0,0E0,0E0,0E0,0E0,0E0,0E0,0E0,0E0,0E0,0E0,0E0,0E0,0E0,0E0,0E0,0E0,0E0],"parents":[2147483647,0,0,1,1,2,2,3,3,4,4,5,5,6,6,7,7,8,8,9,9,10,10,11,11,12,12,13,13,14,14,15,15,16,16,17,17,18,18,19,19,20,20,21,21,22,22,23,23,24,24,25,25,26,26,27,27,28,28,29,29,30,30,31,31,32,32,33,33,34,34,35,35,36,36,37,37,38,38,39,39,40,40,41,41,42,42,43,43,44,44,45,45,46,46,47,47,48,48,49,49,50,50,51,51,52,52,53,53,54,54,55,55,56,56,57,57,58,58,59,59,60,60,61,61,62,62],"right_children":[2,4,6,8,10,12,14,16,18,20,22,24,26,28,30,32,34,36,38,40,42,44,46,48,50,52,54,56,58,60,62,64,66,68,70,72,74,76,78,80,82,84,86,88,90,92,94,96,98,100,102,104,106,108,110,112,114,116,118,120,122,124,126,-1,-1,-1,-1,-1,-1,-1,-1,-1,-1,-1,-1,-1,-1,-1,-1,-1,-1,-1,-1,-1,-1,-1,-1,-1,-1,-1,-1,-1,-1,-1,-1,-1,-1,-1,-1,-1,-1,-1,-1,-1,-1,-1,-1,-1,-1,-1,-1,-1,-1,-1,-1,-1,-1,-1,-1,-1,-1,-1,-1,-1,-1,-1,-1],"split_conditions":[1.775E2,7.35E1,2.425E2,3.45E1,8.35E1,1.425E2,3.795E2,-5.7E1,-7.15E1,3.35E1,7.25E1,7.425E2,5.375E2,4.795E2,5.285E2,3.85E1,5.7E1,3.8E1,5.45E1,-5.7E1,7.975E2,2.05E1,5.45E1,-5.35E1,1.845E2,1.295E2,2.545E2,2.995E2,3.2E1,4.465E2,-2.6E1,-6.6E1,9.85E1,-5.7E1,5.945E2,1.495E2,2.185E2,-5.7E1,5.75E1,9.75E1,5.7E1,8.55E1,-5.7E1,2.82E2,8.35E1,8.275E2,7.01E2,-6.6E1,2.2E1,8.875E2,7.585E2,7.045E2,2.165E2,6.85E2,1.515E2,8.8E1,-6E0,2.53E2,3E1,3.325E2,-3.8E1,5E1,3E1,8.418273E-1,2.3939455E0,1.398769E0,-1.2633716E0,1.1613492E0,5.4789084E-1,9.669693E-1,1.2864873E0,1.2916543E0,-3.5437977E0,2.242281E0,6.994778E0,1.6423889E0,9.571362E-1,1.1305078E0,1.8040841E0,1.2302266E0,2.771294E0,6.276332E-1,1.4592931E0,1.3070545E0,1.8610057E0,1.8480467E0,5.3875786E-1,8.697756E-1,-3.6048796E0,1.152126E0,2.142373E0,1.1601565E0,5.357401E0,3.5613825E0,1.7770979E1,9.6364236E-1,5.944664E0,2.1535964E0,2.977569E0,1.067475E0,-1.2553165E0,5.4940027E-1,2.9835312E0,3.3480537E0,2.2224169E0,5.389231E0,3.6758018E0,3.1095725E-1,-5.888454E0,1.5866925E1,4.124906E0,4.300042E0,6.0943503E0,4.5198774E0,7.130257E0,3.9008005E0,1.0272506E1,4.475617E0,1.613779E0,1.6635836E1,7.8599677E0,9.07307E0,1.9278847E1,4.8907483E-1,2.164976E1,7.9537454E0,2.23671E0],"split_indices":[13,13,12,11,5,12,12,0,9,12,11,14,2,2,2,12,0,1,8,0,14,12,12,0,2,5,8,12,4,12,0,0,5,3,14,5,5,0,13,2,0,12,0,2,13,14,5,0,0,14,14,14,2,2,12,10,9,5,10,2,3,3,0,0,0,0,0,0,0,0,0,0,0,0,0,0,0,0,0,0,0,0,0,0,0,0,0,0,0,0,0,0,0,0,0,0,0,0,0,0,0,0,0,0,0,0,0,0,0,0,0,0,0,0,0,0,0,0,0,0,0,0,0,0,0,0,0],"split_type":[0,0,0,0,0,0,0,0,0,0,0,0,0,0,0,0,0,0,0,0,0,0,0,0,0,0,0,0,0,0,0,0,0,0,0,0,0,0,0,0,0,0,0,0,0,0,0,0,0,0,0,0,0,0,0,0,0,0,0,0,0,0,0,0,0,0,0,0,0,0,0,0,0,0,0,0,0,0,0,0,0,0,0,0,0,0,0,0,0,0,0,0,0,0,0,0,0,0,0,0,0,0,0,0,0,0,0,0,0,0,0,0,0,0,0,0,0,0,0,0,0,0,0,0,0,0,0],"sum_hessian":[6.75501E5,6.12473E5,6.3028E4,4.506E5,1.61873E5,5.2287E4,1.0741E4,4.13739E5,3.6861E4,1.37388E5,2.4485E4,3.0615E4,2.1672E4,6.269E3,4.472E3,2.4409E4,3.8933E5,1.525E3,3.5336E4,2.9275E4,1.08113E5,2.1539E4,2.946E3,2.5458E4,5.157E3,2.1357E4,3.15E2,4.981E3,1.288E3,6.43E2,3.829E3,1.2921E4,1.1488E4,3.6608E5,2.325E4,4.01E2,1.124E3,2.5599E4,9.737E3,2.487E3,2.6788E4,9.8747E4,9.366E3,9.01E2,2.0638E4,7.22E2,2.224E3,8.12E2,2.4646E4,2.703E3,2.454E3,1.4761E4,6.596E3,2.68E2,4.7E1,3.441E3,1.54E3,2.86E2,1.002E3,4.58E2,1.85E2,6.38E2,3.191E3,1.2537E4,3.84E2,1.1389E4,9.9E1,1.2713E4,3.53367E5,1.27E4,1.055E4,3.77E2,2.4E1,1.103E3,2.1E1,2.735E3,2.2864E4,5.895E3,3.842E3,2.074E3,4.13E2,2.4418E4,2.37E3,7.6167E4,2.258E4,6.66E2,8.7E3,8.58E2,4.3E1,1.87E3,1.8768E4,6.28E2,9.4E1,2.22E3,4E0,2.54E2,5.58E2,1.7854E4,6.792E3,2.102E3,6.01E2,3.94E2,2.06E3,1.1371E4,3.39E3,1.575E3,5.021E3,1.96E2,7.2E1,5E0,4.2E1,2.585E3,8.56E2,4.6E2,1.08E3,1.94E2,9.2E1,4.47E2,5.55E2,4.1E1,4.17E2,1.8E1,1.67E2,6.07E2,3.1E1,2.606E3,5.85E2],"tree_param":{"num_deleted":"0","num_feature":"15","num_nodes":"127","size_leaf_vector":"0"}},{"base_weights":[2.5234728E0,1.9125031E0,6.915767E0,1.4905071E0,2.9341345E0,5.5945163E0,1.1983036E1,1.4148891E0,3.6645093E0,2.3293326E0,3.5672386E0,4.948604E0,7.043235E0,1.053669E1,1.5757413E1,1.3640088E0,3.7672062E0,3.4065485E0,5.660354E0,1.2880963E0,2.6086972E0,2.8897102E0,4.397607E0,5.9692883E0,4.1362095E0,1.5330774E1,6.801922E0,1.0281703E1,2.3399809E1,-1.9799825E0,1.6896664E1,3.6008096E0,1.3094013E0,3.508719E0,6.3939567E0,3.656042E0,1.5615256E0,1.1298136E1,5.1955624E0,1.2629178E0,1.8084747E1,2.4672613E0,4.677003E0,4.051018E0,2.039153E0,4.229046E0,9.015973E0,4.0473185E0,6.8178644E0,3.1751258E0,5.4165897E0,1.6288142E0,2.3624557E1,6.7231207E0,2.9680906E1,1.2049226E1,8.525586E0,2.4861542E1,-4.998162E1,-6.0049744E0,6.631706E1,1.6612376E0,1.8302084E1,3.4926789E0,9.864075E0,2.969033E0,1.2470499E0,3.3790317E0,7.9938574E0,7.140891E0,-2.5388837E0,1.48097E0,3.9030695E0,1.4564898E0,3.2465843E1,1.5930014E1,1.7588141E0,-3.791797E0,5.458501E0,1.2918745E0,-1.1967918E1,2.8617039E0,5.5784645E1,2.0562623E0,3.0393214E0,1.100435E1,3.5259485E0,3.234211E0,5.3559346E0,1.3345152E0,2.9406736E0,7.8085556E0,4.089862E0,1.1538566E1,1.570065E0,8.318286E0,3.70838E0,6.794028E0,8.799257E1,3.8708625E0,1.0683506E0,-5.381103E0,5.5855713E0,1.2128505E1,-5.4104314E0,4.2823895E1,1.8063646E1,6.490226E0,1.1695318E1,7.425054E0,3.9679775E1,1.2164886E1,-2.7238005E1,-1.3120007E1,8.707486E0,2.9558226E1,1.0979882E1,1.9153639E2,-7.446003E0,-2.9855852E1,2.8386865E2,6.810505E1,-1.4810013E0,2.4317266E1,1.3378499E1],"categories":[],"categories_nodes":[],"categories_segments":[],"categories_sizes":[],"default_left":[1,1,1,1,1,1,1,1,1,1,1,1,1,1,1,1,1,1,1,1,1,1,1,1,1,1,1,1,1,1,1,1,1,1,1,1,1,1,1,1,1,1,1,1,1,1,1,1,1,1,1,1,1,1,1,1,1,1,0,1,1,1,1,0,0,0,0,0,0,0,0,0,0,0,0,0,0,0,0,0,0,0,0,0,0,0,0,0,0,0,0,0,0,0,0,0,0,0,0,0,0,0,0,0,0,0,0,0,0,0,0,0,0,0,0,0,0,0,0,0,0,0,0,0,0],"id":8,"left_children":[1,3,5,7,9,11,13,15,17,19,21,23,25,27,29,31,33,35,37,39,41,43,45,47,49,51,53,55,57,59,61,63,65,67,69,71,73,75,77,79,81,83,85,87,89,91,93,95,97,99,101,103,105,107,109,111,113,115,-1,117,119,121,123,-1,-1,-1,-1,-1,-1,-1,-1,-1,-1,-1,-1,-1,-1,-1,-1,-1,-1,-1,-1,-1,-1,-1,-1,-1,-1,-1,-1,-1,-1,-1,-1,-1,-1,-1,-1,-1,-1,-1,-1,-1,-1,-1,-1,-1,-1,-1,-1,-1,-1,-1,-1,-1,-1,-1,-1,-1,-1,-1,-1,-1,-1],"loss_changes":[1.812736E6,2.5565875E5,5.5220125E5,6.898581E4,6.6366625E4,6.1190875E4,9.296E4,4.85355E4,7.2431875E3,2.5785875E4,4.7633875E4,3.7502375E4,4.0241562E4,4.02205E4,9.5493E4,4.8484688E4,5.8073047E3,5.745547E3,4.168E3,7.909783E3,2.0437062E4,4.606078E4,2.9583688E4,3.2680812E4,3.0996438E4,6.473692E4,3.5146062E4,3.744925E4,2.6878727E4,7.901823E4,9.5018125E4,6.372336E3,4.0097062E4,4.5210312E3,5.142412E3,5.9072188E3,4.789341E3,5.36255E3,3.5464766E3,7.191332E3,1.5909762E4,1.5377406E4,3.2538602E4,2.0998344E4,1.7099422E4,1.8258875E4,2.513232E4,8.864617E3,2.631875E4,2.110136E4,1.9745E4,1.6030159E4,3.7128297E4,2.255025E4,1.4615102E4,2.7718E4,2.4021688E4,1.49969375E4,0E0,7.85698E4,3.4323628E5,7.860302E4,1.2003525E5,0E0,0E0,0E0,0E0,0E0,0E0,0E0,0E0,0E0,0E0,0E0,0E0,0E0,0E0,0E0,0E0,0E0,0E0,0E0,0E0,0E0,0E0,0E0,0E0,0E0,0E0,0E0,0E0,0E0,0E0,0E0,0E0,0E0,0E0,0E0,0E0,0E0,0E0,0E0,0E0,0E0,0E0,0E0,0E0,0E0,0E0,0E0,0E0,0E0,0E0,0E0,0E0,0E0,0E0,0E0,0E0,0E0,0E0,0E0,0E0,0E0,0E0],"parents":[2147483647,0,0,1,1,2,2,3,3,4,4,5,5,6,6,7,7,8,8,9,9,10,10,11,11,12,12,13,13,14,14,15,15,16,16,17,17,18,18,19,19,20,20,21,21,22,22,23,23,24,24,25,25,26,26,27,27,28,28,29,29,30,30,31,31,32,32,33,33,34,34,35,35,36,36,37,37,38,38,39,39,40,40,41,41,42,42,43,43,44,44,45,45,46,46,47,47,48,48,49,49,50,50,51,51,52,52,53,53,54,54,55,55,56,56,57,57,59,59,60,60,61,61,62,62],"right_children":[2,4,6,8,10,12,14,16,18,20,22,24,26,28,30,32,34,36,38,40,42,44,46,48,50,52,54,56,58,60,62,64,66,68,70,72,74,76,78,80,82,84,86,88,90,92,94,96,98,100,102,104,106,108,110,112,114,116,-1,118,120,122,124,-1,-1,-1,-1,-1,-1,-1,-1,-1,-1,-1,-1,-1,-1,-1,-1,-1,-1,-1,-1,-1,-1,-1,-1,-1,-1,-1,-1,-1,-1,-1,-1,-1,-1,-1,-1,-1,-1,-1,-1,-1,-1,-1,-1,-1,-1,-1,-1,-1,-1,-1,-1,-1,-1,-1,-1,-1,-1,-1,-1,-1,-1],"split_conditions":[9.45E1,7.35E1,3.065E2,5.7E1,5.25E1,2.195E2,3.665E2,5.7E1,6.75E1,2.15E1,1.235E2,6.085E2,-5.35E1,5.35E1,-6.1E1,-5.7E1,7.25E1,6.85E1,-3.4E1,1.975E2,5.7E1,5.865E2,5.35E1,1.85E1,1.635E2,-6.6E1,2.685E2,6.185E2,2.5E2,1.4845E3,4.725E2,4.95E1,-5.7E1,8.825E2,7.6E1,1.35E1,1.04E2,9.1E1,4.335E2,1.575E2,2E1,2.45E1,6.6E1,3.55E1,2.95E1,-5.35E1,7.15E1,4.005E2,2.555E2,7.895E2,-6.6E1,-1E1,-6.1E1,5E1,4.6E1,8.185E2,-9.2E1,6.6E1,-1.4994487E1,3.39E2,2.9E1,-4.2E1,1.905E2,1.0478038E0,2.9592226E0,8.9070994E-1,3.74115E-1,1.0137095E0,2.3981574E0,2.1422675E0,-7.6166517E-1,4.4429103E-1,1.1709208E0,4.3694696E-1,9.739754E0,4.779004E0,5.276443E-1,-1.1375391E0,1.6375504E0,3.8756236E-1,-3.5903757E0,8.585112E-1,1.6735394E1,6.168787E-1,9.1179645E-1,3.301305E0,1.0577846E0,9.702633E-1,1.6067804E0,4.003546E-1,8.822021E-1,2.3425667E0,1.2269586E0,3.4615698E0,4.7101954E-1,2.4954858E0,1.112514E0,2.0382085E0,2.6397772E1,1.1612588E0,3.2050517E-1,-1.614331E0,1.6756715E0,3.6385515E0,-1.6231295E0,1.2847169E1,5.419094E0,1.9470679E0,3.5085957E0,2.2275164E0,1.1903933E1,3.649466E0,-8.171402E0,-3.936002E0,2.612246E0,8.867468E0,3.2939649E0,5.746092E1,-2.233801E0,-8.956756E0,8.51606E1,2.0431515E1,-4.4430038E-1,7.2951803E0,4.01355E0],"split_indices":[12,2,13,3,12,13,12,6,12,12,2,14,0,0,6,6,12,2,9,8,0,14,0,8,2,0,8,14,8,5,14,11,3,14,13,12,0,1,14,8,3,11,0,8,11,0,0,14,11,14,0,6,0,0,10,2,9,0,0,14,0,6,5,0,0,0,0,0,0,0,0,0,0,0,0,0,0,0,0,0,0,0,0,0,0,0,0,0,0,0,0,0,0,0,0,0,0,0,0,0,0,0,0,0,0,0,0,0,0,0,0,0,0,0,0,0,0,0,0,0,0,0,0,0,0],"split_type":[0,0,0,0,0,0,0,0,0,0,0,0,0,0,0,0,0,0,0,0,0,0,0,0,0,0,0,0,0,0,0,0,0,0,0,0,0,0,0,0,0,0,0,0,0,0,0,0,0,0,0,0,0,0,0,0,0,0,0,0,0,0,0,0,0,0,0,0,0,0,0,0,0,0,0,0,0,0,0,0,0,0,0,0,0,0,0,0,0,0,0,0,0,0,0,0,0,0,0,0,0,0,0,0,0,0,0,0,0,0,0,0,0,0,0,0,0,0,0,0,0,0,0,0,0],"sum_hessian":[6.75501E5,5.93014E5,8.2487E4,4.19668E5,1.73346E5,6.5429E4,1.7058E4,4.05563E5,1.4105E4,8.8657E4,8.4689E4,4.5256E4,2.0173E4,1.2335E4,4.723E3,3.96978E5,8.585E3,1.2493E4,1.612E3,1.8756E4,6.9901E4,4.6639E4,3.805E4,2.0054E4,2.5202E4,5.69E2,1.9604E4,1.2097E4,2.38E2,2.85E2,4.438E3,9.459E3,3.87519E5,7.818E3,7.67E2,1.1004E4,1.489E3,1.21E2,1.491E3,1.8729E4,2.7E1,6.5429E4,4.472E3,1.9716E4,2.6923E4,3.6712E4,1.338E3,6.144E3,1.391E4,1.4398E4,1.0804E4,2.15E2,3.54E2,1.9538E4,6.6E1,6.026E3,6.071E3,2.34E2,4E0,2.7E2,1.5E1,3.75E2,4.063E3,9.3E3,1.59E2,1.403E4,3.73489E5,7.6E3,2.18E2,7.08E2,5.9E1,1.123E3,9.881E3,1.485E3,4E0,8.1E1,4E1,4.2E1,1.449E3,1.8689E4,4E1,2E1,7E0,3.8077E4,2.7352E4,6.87E2,3.785E3,1.2128E4,7.588E3,1.5113E4,1.181E4,1.372E3,3.534E4,9.99E2,3.39E2,4.5E2,5.694E3,1.3907E4,3E0,1.0823E4,3.575E3,1.66E2,1.0638E4,8.6E1,1.29E2,7.8E1,2.76E2,1.8666E4,8.72E2,2.1E1,4.5E1,6.009E3,1.7E1,5E1,6.021E3,1.74E2,6E1,1E0,2.69E2,1.1E1,4E0,1.6E1,3.59E2,1.827E3,2.236E3],"tree_param":{"num_deleted":"0","num_feature":"15","num_nodes":"125","size_leaf_vector":"0"}},{"base_weights":[1.7668555E0,1.4828656E0,6.458981E0,1.168473E0,2.846523E0,5.3683E0,1.0220733E1,7.724258E-1,1.5125436E0,2.6354322E0,4.685579E0,5.546653E0,-3.0600584E0,1.0100721E1,7.87457E1,5.773177E-1,1.5720893E0,9.7742593E-1,1.7325628E0,3.2842753E0,2.0568695E0,4.940574E0,-2.9039574E0,5.325423E0,1.7024998E1,-2.449714E0,-3.6628242E1,-2.5860254E1,1.0304394E1,1.4674261E2,-4.7706768E1,-4.6397305E-1,6.346359E-1,1.4883002E0,4.1183887E0,7.5193256E-1,1.610922E0,1.6119521E0,3.0861833E0,3.3459551E0,-3.1995308E0,1.7009383E0,3.7918243E0,5.1030097E0,-2.734956E0,-6.086887E0,7.9709015E0,4.5126815E0,6.8336453E0,1.3699978E1,2.6829735E1,-3.9032571E0,1.8931732E1,2.43993E0,-5.15838E1,-1.4976407E0,-5.1175575E1,1.0463767E1,-2.3228638E1,-2.6667812E0,1.844283E2,-1.1384639E2,5.638164E1,2.415285E0,-5.588009E-1,2.2278686E0,5.9750783E-1,1.4382874E0,4.691633E0,2.3871105E0,5.449212E0,7.885092E-1,-2.8903167E0,3.9586346E0,1.3787462E0,2.3420384E0,1.4519333E0,2.903081E0,7.0167704E0,2.5409508E0,3.8627682E0,-5.204815E0,1.0274542E1,1.8555514E0,-1.0588299E0,1.1236894E1,3.55871E0,4.947383E0,1.3550745E1,-1.0083358E1,4.4018693E0,-7.341503E0,3.228575E1,1.830421E1,-1.0745346E1,4.6321573E0,-6.826978E0,6.029637E0,1.1151688E1,1.5876793E1,4.240654E0,3.3243797E1,1.06877365E1,-3.4861517E0,-4.2669155E1,1.377773E1,7.618719E1,-8.677704E0,9.038376E0,-6.27738E1,-1.2009201E1,5.281003E1,-3.3355236E1,-9.792875E0,-9.17422E1,1.0313756E1,5.27829E1,-2.2909793E-1,-1.18073105E2,-2.0608204E1,1.6608032E1,2.0768524E2,1.081488E1,6.3523026E0,7.822016E1],"categories":[],"categories_nodes":[],"categories_segments":[],"categories_sizes":[],"default_left":[1,1,1,1,1,1,1,1,1,1,1,1,1,1,1,1,1,1,1,1,1,1,1,1,1,1,1,1,1,1,1,1,1,1,1,1,1,1,1,1,1,1,1,1,1,1,1,1,1,1,1,1,1,1,1,1,1,1,1,1,1,0,1,0,0,0,0,0,0,0,0,0,0,0,0,0,0,0,0,0,0,0,0,0,0,0,0,0,0,0,0,0,0,0,0,0,0,0,0,0,0,0,0,0,0,0,0,0,0,0,0,0,0,0,0,0,0,0,0,0,0,0,0,0,0],"id":9,"left_children":[1,3,5,7,9,11,13,15,17,19,21,23,25,27,29,31,33,35,37,39,41,43,45,47,49,51,53,55,57,59,61,63,65,67,69,71,73,75,77,79,81,83,85,87,89,91,93,95,97,99,101,103,105,107,109,111,113,115,117,119,121,-1,123,-1,-1,-1,-1,-1,-1,-1,-1,-1,-1,-1,-1,-1,-1,-1,-1,-1,-1,-1,-1,-1,-1,-1,-1,-1,-1,-1,-1,-1,-1,-1,-1,-1,-1,-1,-1,-1,-1,-1,-1,-1,-1,-1,-1,-1,-1,-1,-1,-1,-1,-1,-1,-1,-1,-1,-1,-1,-1,-1,-1,-1,-1],"loss_changes":[9.001075E5,2.7307312E5,1.5811488E5,7.053356E4,4.6314812E4,4.4945312E4,7.045519E4,3.754314E4,3.2609188E4,4.0179812E4,2.3791375E4,7.423381E4,1.2612927E4,6.3621188E4,1.3597625E5,1.1545738E4,1.0063234E4,1.15274375E4,3.203975E4,2.0190312E4,3.494111E4,1.48344375E4,1.3894082E4,3.517025E4,1.7660766E4,1.9031998E4,6.55301E3,3.014398E4,4.6214375E4,5.679783E4,4.7725055E4,2.7570789E3,1.0844367E4,7.313789E3,3.4499453E3,7.9317344E3,1.1542102E4,2.1051625E4,1.1535875E4,2.0785375E4,1.2914686E4,2.0040031E4,1.6678562E4,1.5237375E4,1.2998119E4,1.5161335E4,1.7796156E4,2.5317938E4,3.4837656E4,8.478016E3,1.4036172E4,9.100179E3,1.0459008E4,3.718688E2,2.7888535E3,4.67444E4,3.939174E4,5.3809812E4,8.9409484E4,1.3797144E3,3.0055625E4,0E0,2.7808213E3,0E0,0E0,0E0,0E0,0E0,0E0,0E0,0E0,0E0,0E0,0E0,0E0,0E0,0E0,0E0,0E0,0E0,0E0,0E0,0E0,0E0,0E0,0E0,0E0,0E0,0E0,0E0,0E0,0E0,0E0,0E0,0E0,0E0,0E0,0E0,0E0,0E0,0E0,0E0,0E0,0E0,0E0,0E0,0E0,0E0,0E0,0E0,0E0,0E0,0E0,0E0,0E0,0E0,0E0,0E0,0E0,0E0,0E0,0E0,0E0,0E0,0E0],"parents":[2147483647,0,0,1,1,2,2,3,3,4,4,5,5,6,6,7,7,8,8,9,9,10,10,11,11,12,12,13,13,14,14,15,15,16,16,17,17,18,18,19,19,20,20,21,21,22,22,23,23,24,24,25,25,26,26,27,27,28,28,29,29,30,30,31,31,32,32,33,33,34,34,35,35,36,36,37,37,38,38,39,39,40,40,41,41,42,42,43,43,44,44,45,45,46,46,47,47,48,48,49,49,50,50,51,51,52,52,53,53,54,54,55,55,56,56,57,57,58,58,59,59,60,60,62,62],"right_children":[2,4,6,8,10,12,14,16,18,20,22,24,26,28,30,32,34,36,38,40,42,44,46,48,50,52,54,56,58,60,62,64,66,68,70,72,74,76,78,80,82,84,86,88,90,92,94,96,98,100,102,104,106,108,110,112,114,116,118,120,122,-1,124,-1,-1,-1,-1,-1,-1,-1,-1,-1,-1,-1,-1,-1,-1,-1,-1,-1,-1,-1,-1,-1,-1,-1,-1,-1,-1,-1,-1,-1,-1,-1,-1,-1,-1,-1,-1,-1,-1,-1,-1,-1,-1,-1,-1,-1,-1,-1,-1,-1,-1,-1,-1,-1,-1,-1,-1,-1,-1,-1,-1,-1,-1],"split_conditions":[1.365E2,6.85E1,3.935E2,5.15E1,6.95E1,6.6E1,3.835E2,6.505E2,2.75E1,6.075E2,9.375E2,5.35E1,3.125E2,-6.6E1,1E1,3.755E2,5.7E1,6.695E2,5.85E1,2.075E2,1.705E2,4.825E2,7.75E1,1.895E2,8.2E1,3.105E2,-1E1,9.45E1,1.0415E3,6.565E2,1.9E1,-2.8E1,-7.15E1,5.7E1,7.045E2,5.85E1,-5.7E1,-3.6E1,1.425E2,8.05E1,1.8E1,1.875E2,-5.35E1,2.135E2,1.615E2,1.585E2,2.665E2,5.29E2,2.125E2,1.14E2,6.35E1,3.085E2,1.35E2,7.3E1,2.2E1,-1E1,2.14E2,1.0185E3,6.945E2,-1.1E1,1.32E2,-3.415392E1,1E0,7.2458553E-1,-1.6764027E-1,6.683606E-1,1.7925236E-1,4.3148622E-1,1.40749E0,7.161332E-1,1.6347637E0,2.3655276E-1,-8.6709505E-1,1.1875905E0,4.1362387E-1,7.0261157E-1,4.3558E-1,8.709243E-1,2.1050313E0,7.622853E-1,1.1588305E0,-1.5614445E0,3.0823627E0,5.566654E-1,-3.1764898E-1,3.3710682E0,1.0676131E0,1.4842149E0,4.0652237E0,-3.0250075E0,1.3205608E0,-2.202451E0,9.685726E0,5.4912634E0,-3.223604E0,1.3896472E0,-2.0480936E0,1.8088912E0,3.3455064E0,4.763038E0,1.2721963E0,9.97314E0,3.206321E0,-1.0458455E0,-1.2800747E1,4.1333194E0,2.2856157E1,-2.6033113E0,2.7115128E0,-1.883214E1,-3.6027606E0,1.584301E1,-1.0006571E1,-2.9378626E0,-2.7522661E1,3.094127E0,1.5834871E1,-6.8729386E-2,-3.5421932E1,-6.1824613E0,4.98241E0,6.2305576E1,3.2444642E0,1.9056908E0,2.346605E1],"split_indices":[12,12,13,2,8,0,11,14,12,14,14,0,12,0,3,14,3,14,8,5,2,2,11,12,10,13,3,8,14,5,3,3,0,9,14,11,0,0,8,12,9,13,0,8,8,8,2,2,5,4,11,13,7,1,9,6,5,14,13,0,7,0,0,0,0,0,0,0,0,0,0,0,0,0,0,0,0,0,0,0,0,0,0,0,0,0,0,0,0,0,0,0,0,0,0,0,0,0,0,0,0,0,0,0,0,0,0,0,0,0,0,0,0,0,0,0,0,0,0,0,0,0,0,0,0],"split_type":[0,0,0,0,0,0,0,0,0,0,0,0,0,0,0,0,0,0,0,0,0,0,0,0,0,0,0,0,0,0,0,0,0,0,0,0,0,0,0,0,0,0,0,0,0,0,0,0,0,0,0,0,0,0,0,0,0,0,0,0,0,0,0,0,0,0,0,0,0,0,0,0,0,0,0,0,0,0,0,0,0,0,0,0,0,0,0,0,0,0,0,0,0,0,0,0,0,0,0,0,0,0,0,0,0,0,0,0,0,0,0,0,0,0,0,0,0,0,0,0,0,0,0,0,0],"sum_hessian":[6.75501E5,6.36951E5,3.855E4,5.17616E5,1.19335E5,2.9887E4,8.663E3,2.40634E5,2.76982E5,1.0705E5,1.2285E4,2.9268E4,6.19E2,8.649E3,1.4E1,1.93439E5,4.7195E4,8.0704E4,1.96278E5,5.0458E4,5.6592E4,1.1886E4,3.99E2,2.8716E4,5.52E2,6.09E2,1E1,4.8E1,8.601E3,9E0,5E0,1.0092E4,1.83347E5,4.5693E4,1.502E3,5.952E4,2.1184E4,1.80222E5,1.6056E4,4.9983E4,4.75E2,4.696E4,9.632E3,1.164E4,2.46E2,3.09E2,9E1,1.8663E4,1.0053E4,4.14E2,1.38E2,5.71E2,3.8E1,3E0,7E0,2.5E1,2.3E1,8.561E3,4E1,2E0,7E0,3E0,2E0,3.21E2,9.771E3,4.174E3,1.79173E5,4.4992E4,7.01E2,6.54E2,8.48E2,5.8929E4,5.91E2,1.905E3,1.9279E4,3.2397E4,1.47825E5,1.5343E4,7.13E2,1.9545E4,3.0438E4,4.14E2,6.1E1,4.4469E4,2.491E3,2.91E2,9.341E3,1.1431E4,2.09E2,1.21E2,1.25E2,3E2,9E0,5.8E1,3.2E1,1.8469E4,1.94E2,8.477E3,1.576E3,3.36E2,7.8E1,9.8E1,4E1,5.66E2,5E0,3.6E1,2E0,1E0,2E0,5E0,2E0,9E0,1.6E1,1.2E1,1.1E1,8.532E3,2.9E1,3.3E1,7E0,1E0,1E0,6E0,1E0,1E0,1E0],"tree_param":{"num_deleted":"0","num_feature":"15","num_nodes":"125","size_leaf_vector":"0"}}]},"name":"gbtree"},"learner_model_param":{"base_score":"5E-1","boost_from_average":"1","num_class":"0","num_feature":"15","num_target":"1"},"objective":{"name":"reg:squarederror","reg_loss_param":{"scale_pos_weight":"1"}}},"version":[1,7,5]}