{"learner":{"attributes":{"best_iteration":"9","best_ntree_limit":"10","scikit_learn":"{\"n_estimators\": 10, \"objective\": \"reg:linear\", \"max_depth\": 6, \"max_leaves\": null, \"max_bin\": null, \"grow_policy\": null, \"learning_rate\": null, \"verbosity\": null, \"booster\": null, \"tree_method\": null, \"gamma\": null, \"min_child_weight\": null, \"max_delta_step\": null, \"subsample\": null, \"sampling_method\": null, \"colsample_bytree\": null, \"colsample_bylevel\": null, \"colsample_bynode\": null, \"reg_alpha\": null, \"reg_lambda\": null, \"scale_pos_weight\": null, \"base_score\": null, \"missing\": NaN, \"num_parallel_tree\": null, \"random_state\": null, \"n_jobs\": null, \"monotone_constraints\": null, \"interaction_constraints\": null, \"importance_type\": null, \"gpu_id\": null, \"validate_parameters\": null, \"predictor\": null, \"enable_categorical\": false, \"feature_types\": null, \"max_cat_to_onehot\": null, \"max_cat_threshold\": null, \"eval_metric\": null, \"early_stopping_rounds\": null, \"callbacks\": null, \"kwargs\": {\"seed\": 1, \"multi_strategy\": \"multi_output_tree\"}, \"evals_result_\": {\"validation_0\": {\"rmse\": [80.38120957986516, 66.62478258683338, 58.634085770584896, 54.23323160335154, 51.869276633174046, 50.63466472360756, 49.96868811350717, 49.60923801512485, 49.38807336018364, 49.25710508469165]}, \"validation_1\": {\"rmse\": [80.1175697148708, 66.51452368028912, 58.65459288883805, 54.36695307207201, 52.128360069645176, 50.997799251133266, 50.40241046512411, 50.09140390533421, 49.93502798459646, 49.8454242427917]}}, \"_estimator_type\": \"regressor\"}"},"feature_names":["Jet_0_hwEta","Jet_0_hwPhi","Jet_0_hwPt","Jet_1_hwEta","Jet_1_hwPhi","Jet_1_hwPt","Jet_2_hwEta","Jet_2_hwPhi","Jet_2_hwPt","Jet_3_hwEta","Jet_3_hwPhi","Jet_3_hwPt","methf_0_hwPt","mhthf_0_hwPt","ntt_0_hwPt"],"feature_types":["int","int","int","int","int","int","int","int","int","int","int","int","int","int","int"],"gradient_booster":{"model":{"gbtree_model_param":{"num_parallel_tree":"1","num_trees":"20","size_leaf_vector":"0"},"tree_info":[0,1,0,1,0,1,0,1,0,1,0,1,0,1,0,1,0,1,0,1],"trees":[{"base_weights":[7.15714E1,6.907302E1,8.139436E1,7.155492E1,6.1559982E1,7.566382E1,9.375132E1,6.5547844E1,8.000638E1,6.716087E1,4.934229E1,7.368578E1,8.07053E1,8.899881E1,1.0283289E2,6.9704506E1,5.2090252E1,7.5518814E1,9.020808E1,6.89114E1,6.1303127E1,4.4494556E1,6.476781E1,7.248848E1,7.554736E1,8.335778E1,7.693822E1,9.3334595E1,8.0033714E1,1.1124077E2,9.464788E1,7.085277E1,6.494611E1,4.371468E1,5.5928463E1,7.4294106E1,7.97847E1,9.4325195E1,6.908373E1,7.066799E1,6.7879166E1,5.924669E1,6.818622E1,5.1023476E1,3.7287193E1,5.8435406E1,7.139591E1,7.202399E1,7.745511E1,7.499233E1,8.353867E1,8.455436E1,7.496643E1,7.833375E1,7.1632195E1,9.5789856E1,7.569957E1,7.875478E1,9.9394554E1,1.126581E2,8.557606E1,8.74897E1,1.1369848E2,7.167232E1,6.893017E1,5.9607693E1,6.570867E1,5.2112778E1,3.5831573E1,4.906142E1,6.041693E1,7.646359E1,7.347156E1,8.143461E1,6.762093E1,8.289318E1,9.79146E1,7.7253944E1,5.9798912E1,7.050479E1,8.513552E1,6.585821E1,6.950231E1,5.73883E1,6.7576416E1,7.201135E1,6.3440582E1,4.564058E1,5.9800934E1,2.6941769E1,4.4693436E1,5.719884E1,8.374751E1,6.92393E1,8.562335E1,7.982879E1,7.173037E1,2.1006561E1,7.781911E1,7.7815506E1,7.3250725E1,4.3780094E1,8.5051704E1,8.254777E1,8.7538635E1,7.6319565E1,5.293043E1,7.3529335E1,8.059001E1,6.753916E1,8.140647E1,8.563547E1,9.931207E1,9.237912E1,7.17695E1,7.888845E1,1.2334588E1,7.874647E1,1.05476006E2,1.02502266E2,1.15979256E2,6.1210842E1,9.787752E1,9.127935E1,7.0957344E1,9.5346985E1,1.1616122E2],"categories":[],"categories_nodes":[],"categories_segments":[],"categories_sizes":[],"default_left":[1,1,1,1,1,1,1,1,1,1,1,1,1,1,1,1,1,1,1,1,1,1,1,1,1,1,1,1,1,1,1,1,1,1,1,1,1,1,1,1,1,1,1,1,1,1,1,1,1,1,1,1,1,1,1,1,1,1,1,1,1,1,1,0,0,0,0,0,0,0,0,0,0,0,0,0,0,0,0,0,0,0,0,0,0,0,0,0,0,0,0,0,0,0,0,0,0,0,0,0,0,0,0,0,0,0,0,0,0,0,0,0,0,0,0,0,0,0,0,0,0,0,0,0,0,0,0],"id":0,"left_children":[1,3,5,7,9,11,13,15,17,19,21,23,25,27,29,31,33,35,37,39,41,43,45,47,49,51,53,55,57,59,61,63,65,67,69,71,73,75,77,79,81,83,85,87,89,91,93,95,97,99,101,103,105,107,109,111,113,115,117,119,121,123,125,-1,-1,-1,-1,-1,-1,-1,-1,-1,-1,-1,-1,-1,-1,-1,-1,-1,-1,-1,-1,-1,-1,-1,-1,-1,-1,-1,-1,-1,-1,-1,-1,-1,-1,-1,-1,-1,-1,-1,-1,-1,-1,-1,-1,-1,-1,-1,-1,-1,-1,-1,-1,-1,-1,-1,-1,-1,-1,-1,-1,-1,-1,-1,-1],"loss_changes":[6.427776E6,3.8928E6,3.756576E6,7.97024E6,3.548528E6,3.56224E5,7.1744E5,5.133408E6,2.981024E6,3.60688E5,1.217436E6,5.2688E4,9.5736E4,4.224E5,3.87036E5,3.7872E5,6.94344E5,2.30896E5,1.727072E6,4.4864E4,1.11988E5,5.82536E5,1.59518E5,3.1112E4,3.8928E4,5.3776E4,2.5762E4,3.15236E5,8.1608E4,9.3812E4,3.90154E5,8.4128E4,5.1656E4,4.49373E5,4.5506E5,5.7248E4,1.97148E5,6.76304E5,2.42301E5,1.788E4,5.2104E4,9.3936E4,2.9541E4,3.05046E5,4.513945E5,5.78095E4,5.24E4,2.764E4,2.60425E4,4.1196E4,3.5558E4,2.4104E4,1.85025E4,3.0324E4,3.02675E4,2.25192E5,5.335E4,2.9152E4,1.931975E4,7.8912E4,3.9867125E4,1.27411E5,2.4991E4,0E0,0E0,0E0,0E0,0E0,0E0,0E0,0E0,0E0,0E0,0E0,0E0,0E0,0E0,0E0,0E0,0E0,0E0,0E0,0E0,0E0,0E0,0E0,0E0,0E0,0E0,0E0,0E0,0E0,0E0,0E0,0E0,0E0,0E0,0E0,0E0,0E0,0E0,0E0,0E0,0E0,0E0,0E0,0E0,0E0,0E0,0E0,0E0,0E0,0E0,0E0,0E0,0E0,0E0,0E0,0E0,0E0,0E0,0E0,0E0,0E0,0E0,0E0,0E0],"parents":[2147483647,0,0,1,1,2,2,3,3,4,4,5,5,6,6,7,7,8,8,9,9,10,10,11,11,12,12,13,13,14,14,15,15,16,16,17,17,18,18,19,19,20,20,21,21,22,22,23,23,24,24,25,25,26,26,27,27,28,28,29,29,30,30,31,31,32,32,33,33,34,34,35,35,36,36,37,37,38,38,39,39,40,40,41,41,42,42,43,43,44,44,45,45,46,46,47,47,48,48,49,49,50,50,51,51,52,52,53,53,54,54,55,55,56,56,57,57,58,58,59,59,60,60,61,61,62,62],"right_children":[2,4,6,8,10,12,14,16,18,20,22,24,26,28,30,32,34,36,38,40,42,44,46,48,50,52,54,56,58,60,62,64,66,68,70,72,74,76,78,80,82,84,86,88,90,92,94,96,98,100,102,104,106,108,110,112,114,116,118,120,122,124,126,-1,-1,-1,-1,-1,-1,-1,-1,-1,-1,-1,-1,-1,-1,-1,-1,-1,-1,-1,-1,-1,-1,-1,-1,-1,-1,-1,-1,-1,-1,-1,-1,-1,-1,-1,-1,-1,-1,-1,-1,-1,-1,-1,-1,-1,-1,-1,-1,-1,-1,-1,-1,-1,-1,-1,-1,-1,-1,-1,-1,-1,-1,-1,-1],"split_conditions":[1.1E2,7.6E1,8.95E1,3.6E1,8.95E1,6.55E1,1.725E2,7.85E1,8.95E1,6.65E1,1.02E2,5.35E1,8.85E1,7.85E1,7.95E1,5.85E1,4.4E1,6.65E1,7E1,4.75E1,1.085E2,1.415E2,1.06E2,1.2E2,6.6E1,1.4E2,1.385E2,1.4E2,9.2E1,1.42E2,1.04E2,4.15E1,4.15E1,1.165E2,6.25E1,5.15E1,7.2E1,4.4E1,6.4E1,2.6E1,3.2E1,1.04E2,7.8E1,7.15E1,6.55E1,1.34E2,1.12E2,-7.6E1,-8.8E1,6.45E1,-7.15E1,3.95E1,7.05E1,3.8E1,1E1,1.18E2,4.85E1,2.075E2,-1.8E1,1.18E2,-2E0,1.38E2,7.95E1,2.1501696E1,2.067905E1,1.7882309E1,1.9712603E1,1.5633834E1,1.0749473E1,1.4718427E1,1.812508E1,2.293908E1,2.2041468E1,2.4430384E1,2.0286282E1,2.4867956E1,2.937438E1,2.3176184E1,1.7939674E1,2.1151438E1,2.5540657E1,1.9757463E1,2.0850695E1,1.7216492E1,2.0272926E1,2.1603407E1,1.9032175E1,1.3692174E1,1.794028E1,8.082531E0,1.3408031E1,1.7159653E1,2.5124254E1,2.0771791E1,2.5687006E1,2.3948637E1,2.1519112E1,6.3019686E0,2.3345734E1,2.3344652E1,2.1975218E1,1.3134028E1,2.5515512E1,2.4764332E1,2.6261591E1,2.289587E1,1.587913E1,2.2058802E1,2.4177004E1,2.026175E1,2.4421942E1,2.5690641E1,2.9793623E1,2.7713737E1,2.1530851E1,2.3666536E1,3.7003765E0,2.3623941E1,3.1642803E1,3.075068E1,3.4793777E1,1.8363253E1,2.9363256E1,2.7383806E1,2.1287205E1,2.8604097E1,3.4848366E1],"split_indices":[1,1,2,1,2,2,13,2,2,13,1,2,14,5,5,2,4,13,1,2,14,13,1,4,0,1,14,1,4,1,4,2,14,2,5,14,1,1,4,9,4,1,4,5,5,4,4,0,6,14,9,12,5,4,9,1,14,12,9,1,6,1,12,0,0,0,0,0,0,0,0,0,0,0,0,0,0,0,0,0,0,0,0,0,0,0,0,0,0,0,0,0,0,0,0,0,0,0,0,0,0,0,0,0,0,0,0,0,0,0,0,0,0,0,0,0,0,0,0,0,0,0,0,0,0,0,0],"split_type":[0,0,0,0,0,0,0,0,0,0,0,0,0,0,0,0,0,0,0,0,0,0,0,0,0,0,0,0,0,0,0,0,0,0,0,0,0,0,0,0,0,0,0,0,0,0,0,0,0,0,0,0,0,0,0,0,0,0,0,0,0,0,0,0,0,0,0,0,0,0,0,0,0,0,0,0,0,0,0,0,0,0,0,0,0,0,0,0,0,0,0,0,0,0,0,0,0,0,0,0,0,0,0,0,0,0,0,0,0,0,0,0,0,0,0,0,0,0,0,0,0,0,0,0,0,0,0],"sum_hessian":[2.62148E5,2.08999E5,5.3149E4,1.57095E5,5.1904E4,3.6315E4,1.6834E4,9.1832E4,6.5263E4,3.5586E4,1.6318E4,2.6093E4,1.0222E4,1.1058E4,5.776E3,7.0158E4,2.1674E4,4.5331E4,1.9932E4,2.739E4,8.196E3,1.2419E4,3.899E3,1.5904E4,1.0189E4,5.986E3,4.236E3,7.447E3,3.611E3,2.843E3,2.933E3,5.6508E4,1.365E4,6.815E3,1.4859E4,3.5234E4,1.0097E4,1.6678E4,3.254E3,1.0113E4,1.7277E4,6.318E3,1.878E3,6.513E3,5.906E3,1.999E3,1.9E3,1.4558E4,1.346E3,9.537E3,6.52E2,5.231E3,7.55E2,3.343E3,8.93E2,6.533E3,9.14E2,3.392E3,2.19E2,2.691E3,1.52E2,2.136E3,7.97E2,3.9594E4,1.6914E4,1.716E3,1.1934E4,3.297E3,3.518E3,5.878E3,8.981E3,9.661E3,2.5573E4,8.886E3,1.211E3,3.991E3,1.2687E4,1.727E3,1.527E3,1.0006E4,1.07E2,7.714E3,9.563E3,5.172E3,1.146E3,1.032E3,8.46E2,4.041E3,2.472E3,2.466E3,3.44E3,1.909E3,9E1,1.655E3,2.45E2,5.18E2,1.404E4,9E0,1.337E3,3.622E3,5.915E3,2.5E1,6.27E2,3.145E3,2.086E3,7.09E2,4.6E1,1.079E3,2.264E3,6.35E2,2.58E2,1.689E3,4.844E3,1.7E2,7.44E2,3.385E3,7E0,5.3E1,1.66E2,6.71E2,2.02E3,5.3E1,9.9E1,1.734E3,4.02E2,9.9E1,6.98E2],"tree_param":{"num_deleted":"0","num_feature":"15","num_nodes":"127","size_leaf_vector":"0"}},{"base_weights":[8.122071E1,6.7605774E1,2.6800296E2,5.4509068E1,1.1676094E2,2.2337425E2,4.366934E2,4.891806E1,6.9687546E1,1.0074021E2,1.437189E2,1.9565741E2,2.7396844E2,3.7209253E2,4.9362317E2,3.914983E1,5.519847E1,6.430035E1,8.142011E1,9.0722336E1,1.1282223E2,1.2926216E2,1.6279099E2,1.6576418E2,2.1071991E2,2.4443002E2,2.9843423E2,3.3674954E2,3.973789E2,5.484265E2,4.3475775E2,3.1942528E1,4.3169376E1,5.209519E1,6.1360466E1,6.053247E1,7.0255745E1,7.499156E1,8.895845E1,8.368351E1,9.755346E1,1.0659153E2,1.286222E2,1.1526885E2,1.3787471E2,1.5313663E2,1.7344882E2,1.1566453E2,1.7342085E2,2.0319646E2,2.4259969E2,2.3144421E2,2.5918488E2,2.862771E2,3.3041345E2,2.9629367E2,3.4747287E2,3.6983475E2,4.2408658E2,4.959904E2,7.0794586E2,5.2426154E2,3.9113055E2,2.9182117E1,3.928577E1,4.1335655E1,5.0437523E1,5.0789146E1,6.303267E1,5.9009346E1,6.612764E1,5.7425644E1,6.500795E1,6.844887E1,7.883551E1,7.170771E1,8.443142E1,8.492779E1,9.860781E1,8.045485E1,8.971462E1,9.1392914E1,1.0297724E2,1.00529E2,1.15633995E2,1.2225061E2,1.3734843E2,1.0631646E2,1.2220676E2,1.3276001E2,1.4816843E2,1.5165479E2,1.7969485E2,1.6217868E2,1.8347794E2,1.02168846E2,1.3202559E2,1.55251E2,1.8174742E2,1.9131798E2,2.1232634E2,2.3946747E2,2.7724927E2,2.3170749E2,4.801561E1,2.5287476E2,2.811007E2,2.7822064E2,3.036104E2,3.209498E2,3.540066E2,2.991921E2,4.391203E1,3.477468E2,9.498113E1,3.7087018E2,1.9170294E2,4.0934784E2,4.6063715E2,4.5353952E2,5.354585E2,6.690511E2,9.137708E2,5.870674E2,4.7772128E2,4.038708E2,3.1813272E2],"categories":[],"categories_nodes":[],"categories_segments":[],"categories_sizes":[],"default_left":[1,1,1,1,1,1,1,1,1,1,1,1,1,1,1,1,1,1,1,1,1,1,1,1,1,1,1,1,1,1,1,1,1,1,1,1,1,1,1,1,1,1,1,1,1,1,1,1,1,1,1,1,1,1,1,1,1,1,1,1,1,1,1,0,0,0,0,0,0,0,0,0,0,0,0,0,0,0,0,0,0,0,0,0,0,0,0,0,0,0,0,0,0,0,0,0,0,0,0,0,0,0,0,0,0,0,0,0,0,0,0,0,0,0,0,0,0,0,0,0,0,0,0,0,0,0,0],"id":1,"left_children":[1,3,5,7,9,11,13,15,17,19,21,23,25,27,29,31,33,35,37,39,41,43,45,47,49,51,53,55,57,59,61,63,65,67,69,71,73,75,77,79,81,83,85,87,89,91,93,95,97,99,101,103,105,107,109,111,113,115,117,119,121,123,125,-1,-1,-1,-1,-1,-1,-1,-1,-1,-1,-1,-1,-1,-1,-1,-1,-1,-1,-1,-1,-1,-1,-1,-1,-1,-1,-1,-1,-1,-1,-1,-1,-1,-1,-1,-1,-1,-1,-1,-1,-1,-1,-1,-1,-1,-1,-1,-1,-1,-1,-1,-1,-1,-1,-1,-1,-1,-1,-1,-1,-1,-1,-1,-1],"loss_changes":[6.666341E8,1.5729267E8,1.3398387E8,1.6369792E7,2.218624E7,1.9699328E7,1.351584E7,8.64816E6,3.27736E6,3.892672E6,5.261472E6,4.06432E6,3.52816E6,1.429232E6,6.139392E6,1.597272E6,1.63792E6,7.94528E5,7.85136E5,8.39744E5,1.424848E6,1.298112E6,8.23024E5,1.151824E6,1.40176E6,3.73616E5,9.6328E5,2.16328E5,5.89104E5,8.180736E6,3.535744E6,3.99416E5,4.7002E5,8.12208E5,3.18208E5,2.9952E5,2.08352E5,2.67512E5,2.83908E5,1.6204E5,2.894E5,5.63224E5,2.12728E5,2.45384E5,3.354E5,1.43592E5,4.12984E5,7.6599E4,3.72408E5,4.90896E5,5.8416E4,4.7456E4,7.4264E4,1.91888E5,5.228E4,1.04635E5,6.808E3,2.2424E4,8.5104E4,1.048928E6,1.390016E6,6.286E5,4.74152E5,0E0,0E0,0E0,0E0,0E0,0E0,0E0,0E0,0E0,0E0,0E0,0E0,0E0,0E0,0E0,0E0,0E0,0E0,0E0,0E0,0E0,0E0,0E0,0E0,0E0,0E0,0E0,0E0,0E0,0E0,0E0,0E0,0E0,0E0,0E0,0E0,0E0,0E0,0E0,0E0,0E0,0E0,0E0,0E0,0E0,0E0,0E0,0E0,0E0,0E0,0E0,0E0,0E0,0E0,0E0,0E0,0E0,0E0,0E0,0E0,0E0,0E0,0E0,0E0],"parents":[2147483647,0,0,1,1,2,2,3,3,4,4,5,5,6,6,7,7,8,8,9,9,10,10,11,11,12,12,13,13,14,14,15,15,16,16,17,17,18,18,19,19,20,20,21,21,22,22,23,23,24,24,25,25,26,26,27,27,28,28,29,29,30,30,31,31,32,32,33,33,34,34,35,35,36,36,37,37,38,38,39,39,40,40,41,41,42,42,43,43,44,44,45,45,46,46,47,47,48,48,49,49,50,50,51,51,52,52,53,53,54,54,55,55,56,56,57,57,58,58,59,59,60,60,61,61,62,62],"right_children":[2,4,6,8,10,12,14,16,18,20,22,24,26,28,30,32,34,36,38,40,42,44,46,48,50,52,54,56,58,60,62,64,66,68,70,72,74,76,78,80,82,84,86,88,90,92,94,96,98,100,102,104,106,108,110,112,114,116,118,120,122,124,126,-1,-1,-1,-1,-1,-1,-1,-1,-1,-1,-1,-1,-1,-1,-1,-1,-1,-1,-1,-1,-1,-1,-1,-1,-1,-1,-1,-1,-1,-1,-1,-1,-1,-1,-1,-1,-1,-1,-1,-1,-1,-1,-1,-1,-1,-1,-1,-1,-1,-1,-1,-1,-1,-1,-1,-1,-1,-1,-1,-1,-1,-1,-1,-1],"split_conditions":[1.135E2,9.15E1,2.365E2,6.35E1,6.95E1,2.685E2,4.725E2,5.35E1,4.75E1,1.225E2,1.635E2,1.865E2,1.745E2,3.755E2,1.727E3,2.95E1,9.15E1,7.55E1,7.75E1,4.15E1,1.425E2,1.285E2,9.45E1,1.035E2,1.655E2,1.525E2,3.605E2,2.935E2,2.805E2,4.495E2,1.615E2,1.95E1,3.25E1,5.05E1,4.35E1,8.35E1,6.75E1,6.95E1,7.25E1,1.035E2,1.035E2,5.05E1,1.635E2,1.085E2,9.15E1,2.545E2,1.985E2,6.35E1,1.395E2,1.305E2,2.155E2,6.455E2,3.315E2,2.085E2,4.075E2,9.8E1,3.665E2,7.28E2,3.315E2,3.475E2,6.065E2,3.95E1,4E1,8.754636E0,1.1785731E1,1.2400697E1,1.5131257E1,1.5236745E1,1.8909801E1,1.7702805E1,1.9838293E1,1.7227694E1,1.9502386E1,2.053466E1,2.3650654E1,2.1512314E1,2.5329428E1,2.5478338E1,2.9582344E1,2.4136456E1,2.6914389E1,2.7417875E1,3.0893173E1,3.01587E1,3.46902E1,3.6675186E1,4.1204533E1,3.189494E1,3.666203E1,3.9828003E1,4.445053E1,4.5496437E1,5.390846E1,4.8653606E1,5.5043385E1,3.0650656E1,3.9607677E1,4.6575302E1,5.4524227E1,5.7395397E1,6.3697903E1,7.184024E1,8.317478E1,6.951225E1,1.4404683E1,7.586243E1,8.4330215E1,8.3466194E1,9.108313E1,9.628494E1,1.0620198E2,8.975764E1,1.317361E1,1.0432404E2,2.849434E1,1.11261055E2,5.7510883E1,1.2280436E2,1.3819115E2,1.3606186E2,1.6063756E2,2.0071533E2,2.7413126E2,1.7612022E2,1.4331639E2,1.2116124E2,9.543982E1],"split_indices":[12,2,12,2,12,13,13,14,12,2,13,13,12,13,2,14,14,2,13,12,13,2,12,2,12,12,13,13,12,12,5,12,12,12,12,14,5,12,12,13,13,12,2,13,12,13,13,5,13,12,12,2,13,12,13,6,8,2,12,12,12,8,9,0,0,0,0,0,0,0,0,0,0,0,0,0,0,0,0,0,0,0,0,0,0,0,0,0,0,0,0,0,0,0,0,0,0,0,0,0,0,0,0,0,0,0,0,0,0,0,0,0,0,0,0,0,0,0,0,0,0,0,0,0,0,0,0],"split_type":[0,0,0,0,0,0,0,0,0,0,0,0,0,0,0,0,0,0,0,0,0,0,0,0,0,0,0,0,0,0,0,0,0,0,0,0,0,0,0,0,0,0,0,0,0,0,0,0,0,0,0,0,0,0,0,0,0,0,0,0,0,0,0,0,0,0,0,0,0,0,0,0,0,0,0,0,0,0,0,0,0,0,0,0,0,0,0,0,0,0,0,0,0,0,0,0,0,0,0,0,0,0,0,0,0,0,0,0,0,0,0,0,0,0,0,0,0,0,0,0,0,0,0,0,0,0,0],"sum_hessian":[2.62148E5,2.44339E5,1.7809E4,1.92936E5,5.1403E4,1.4085E4,3.724E3,1.41002E5,5.1934E4,3.2245E4,1.9158E4,9.103E3,4.982E3,1.748E3,1.976E3,5.5182E4,8.582E4,3.5596E4,1.6338E4,1.7633E4,1.4612E4,1.0902E4,8.256E3,3.054E3,6.049E3,2.262E3,2.72E3,7.35E2,1.013E3,1.019E3,9.57E2,1.976E4,3.5422E4,5.7082E4,2.8738E4,2.1809E4,1.3787E4,8.824E3,7.514E3,8.691E3,8.942E3,1.0485E4,4.127E3,4.159E3,6.743E3,4.34E3,3.916E3,4.07E2,2.647E3,4.9E3,1.149E3,1.212E3,1.05E3,1.978E3,7.42E2,1.6E2,5.75E2,5.06E2,5.07E2,7.7E2,2.49E2,3.1E2,6.47E2,1.4365E4,5.395E3,2.8291E4,7.131E3,5.0998E4,6.084E3,1.9255E4,9.483E3,1.2881E4,8.928E3,1.1396E4,2.391E3,6.553E3,2.271E3,5.307E3,2.207E3,5.67E3,3.021E3,4.195E3,4.747E3,6.284E3,4.201E3,2.394E3,1.733E3,1.823E3,2.336E3,4.514E3,2.229E3,4.117E3,2.23E2,1.852E3,2.064E3,2.27E2,1.8E2,8.38E2,1.809E3,2.139E3,2.761E3,1.061E3,8.8E1,1.21E3,2E0,8.25E2,2.25E2,1.362E3,6.16E2,5.4E2,2.02E2,1.58E2,2E0,5.74E2,1E0,5.02E2,4E0,3.7E2,1.37E2,3.77E2,3.93E2,2.13E2,3.6E1,1.27E2,1.83E2,5.47E2,1E2],"tree_param":{"num_deleted":"0","num_feature":"15","num_nodes":"127","size_leaf_vector":"0"}},{"base_weights":[5.0105263E1,4.841384E1,5.7349766E1,5.003915E1,4.349761E1,5.3744633E1,6.849469E1,4.6005375E1,5.5905743E1,4.7705578E1,3.6285145E1,5.1794384E1,5.8032658E1,7.489572E1,6.4366425E1,4.8590706E1,3.58743E1,5.2556618E1,6.286128E1,4.8713104E1,4.4613358E1,3.220567E1,4.9680504E1,5.128527E1,5.5027153E1,6.772389E1,5.668588E1,7.73985E1,5.811122E1,5.9840942E1,7.248787E1,4.9516308E1,4.4414444E1,3.2253204E1,4.6473034E1,5.3836197E1,5.0476116E1,6.7844215E1,4.8435696E1,4.7836452E1,5.0642254E1,4.3130615E1,5.0128426E1,3.7236618E1,2.6804104E1,5.6050877E1,4.6908558E1,5.6246082E1,5.0953884E1,5.2499725E1,5.8495857E1,6.8826965E1,5.0609238E1,5.818164E1,5.2309517E1,7.34758E1,8.360744E1,5.5218063E1,9.220827E1,6.2953564E1,4.7363533E1,5.9889404E1,7.7076675E1,4.9676613E1,4.2814648E1,4.8508076E1,4.3152367E1,4.2023937E1,2.8228712E1,4.8310905E1,3.4880558E1,5.2035683E1,5.6348545E1,5.0016483E1,5.5114193E1,6.299545E1,7.4084404E1,5.5025E1,3.935026E1,4.8394302E1,4.4611626E1,4.969929E1,5.6050682E1,3.3807434E1,4.394743E1,4.020632E1,5.14998E1,2.9652187E1,4.006152E1,2.420009E1,4.0859074E1,5.0616768E1,6.3816383E1,4.332902E1,5.5659866E1,5.4853336E1,6.457093E1,5.670339E1,5.0652737E1,5.4046707E1,4.570216E1,5.9518173E1,3.557679E1,6.119117E1,7.148852E1,6.634193E1,3.1049452E1,5.7494595E1,6.694157E1,4.892415E1,5.636783E1,8.088825E1,6.945831E1,7.60997E1,8.665905E1,5.6845924E1,2.5869694E1,9.686616E1,1.7919413E1,5.96016E1,7.3693344E1,3.7905285E1,6.6705574E1,7.572731E1,5.7067863E1,7.29027E1,8.266343E1],"categories":[],"categories_nodes":[],"categories_segments":[],"categories_sizes":[],"default_left":[1,1,1,1,1,1,1,1,1,1,1,1,1,1,1,1,1,1,1,1,1,1,1,1,1,1,1,1,1,1,1,1,1,1,1,1,1,1,1,1,1,1,1,1,1,1,1,1,1,1,1,1,1,1,1,1,1,1,1,1,1,1,1,0,0,0,0,0,0,0,0,0,0,0,0,0,0,0,0,0,0,0,0,0,0,0,0,0,0,0,0,0,0,0,0,0,0,0,0,0,0,0,0,0,0,0,0,0,0,0,0,0,0,0,0,0,0,0,0,0,0,0,0,0,0,0,0],"id":2,"left_children":[1,3,5,7,9,11,13,15,17,19,21,23,25,27,29,31,33,35,37,39,41,43,45,47,49,51,53,55,57,59,61,63,65,67,69,71,73,75,77,79,81,83,85,87,89,91,93,95,97,99,101,103,105,107,109,111,113,115,117,119,121,123,125,-1,-1,-1,-1,-1,-1,-1,-1,-1,-1,-1,-1,-1,-1,-1,-1,-1,-1,-1,-1,-1,-1,-1,-1,-1,-1,-1,-1,-1,-1,-1,-1,-1,-1,-1,-1,-1,-1,-1,-1,-1,-1,-1,-1,-1,-1,-1,-1,-1,-1,-1,-1,-1,-1,-1,-1,-1,-1,-1,-1,-1,-1,-1,-1],"loss_changes":[3.209472E6,1.696064E6,1.989792E6,3.777152E6,1.60116E6,3.10536E5,3.15528E5,2.477392E6,1.51256E6,1.01728E5,1.062032E6,3.9616E4,1.4904E5,1.94914E5,2.66792E5,2.8928E5,7.3718E5,1.14216E5,1.516576E6,4.01E4,6.4958E4,4.04534E5,7.7575E4,3.3772E4,2.7561E4,2.34E4,6.4314E4,9.4396E4,5.607025E4,1.81224E5,1.4772E5,6.416E4,6.8636E4,5.63049E5,1.02691E5,1.20048E5,3.294E4,4.70768E5,3.23031E5,2.8972E4,3.7192E4,4.7831E4,2.15105E4,1.64301E5,2.625255E5,5.4666E4,9.6922E4,1.2528E4,3.332E4,1.88875E4,3.21845E4,2.27565E4,2.563564E4,4.2252E4,3.33895E4,6.9963E4,2.9856E4,2.5952375E4,1.4527594E4,1.32153E5,1.7144925E5,2.7317E4,3.8933E4,0E0,0E0,0E0,0E0,0E0,0E0,0E0,0E0,0E0,0E0,0E0,0E0,0E0,0E0,0E0,0E0,0E0,0E0,0E0,0E0,0E0,0E0,0E0,0E0,0E0,0E0,0E0,0E0,0E0,0E0,0E0,0E0,0E0,0E0,0E0,0E0,0E0,0E0,0E0,0E0,0E0,0E0,0E0,0E0,0E0,0E0,0E0,0E0,0E0,0E0,0E0,0E0,0E0,0E0,0E0,0E0,0E0,0E0,0E0,0E0,0E0,0E0,0E0,0E0],"parents":[2147483647,0,0,1,1,2,2,3,3,4,4,5,5,6,6,7,7,8,8,9,9,10,10,11,11,12,12,13,13,14,14,15,15,16,16,17,17,18,18,19,19,20,20,21,21,22,22,23,23,24,24,25,25,26,26,27,27,28,28,29,29,30,30,31,31,32,32,33,33,34,34,35,35,36,36,37,37,38,38,39,39,40,40,41,41,42,42,43,43,44,44,45,45,46,46,47,47,48,48,49,49,50,50,51,51,52,52,53,53,54,54,55,55,56,56,57,57,58,58,59,59,60,60,61,61,62,62],"right_children":[2,4,6,8,10,12,14,16,18,20,22,24,26,28,30,32,34,36,38,40,42,44,46,48,50,52,54,56,58,60,62,64,66,68,70,72,74,76,78,80,82,84,86,88,90,92,94,96,98,100,102,104,106,108,110,112,114,116,118,120,122,124,126,-1,-1,-1,-1,-1,-1,-1,-1,-1,-1,-1,-1,-1,-1,-1,-1,-1,-1,-1,-1,-1,-1,-1,-1,-1,-1,-1,-1,-1,-1,-1,-1,-1,-1,-1,-1,-1,-1,-1,-1,-1,-1,-1,-1,-1,-1,-1,-1,-1,-1,-1,-1,-1,-1,-1,-1,-1,-1,-1,-1,-1,-1,-1,-1],"split_conditions":[1.12E2,7.8E1,1.065E2,3.8E1,7.95E1,6.85E1,6.05E1,8.75E1,8.05E1,6.25E1,1.04E2,1.1E2,4.25E1,1.4E2,9.2E1,6.05E1,2.8E1,6.4E1,6.8E1,1.02E2,1.095E2,1.265E2,2.8E1,2.65E1,4.45E1,3.2E1,1.36E2,8.95E1,2.895E2,1.38E2,8.85E1,6.1E1,8E0,8E0,1.2E2,5.85E1,5.35E1,7.75E1,7.4E1,5.95E1,5.95E1,3.15E1,1.85E1,5.85E1,7.75E1,5.85E1,9.8E1,2.75E1,-7.15E1,2.6E1,1.485E2,1.2E2,3.65E1,6.6E1,5.2E1,5.75E1,1.2E2,6.2E1,1.26E2,1.565E2,6.2E1,5.85E1,1.165E2,1.4902985E1,1.2844395E1,1.45524235E1,1.294571E1,1.2607182E1,8.468614E0,1.4493272E1,1.0464168E1,1.5610705E1,1.6904564E1,1.5004946E1,1.6534258E1,1.8898636E1,2.2225323E1,1.6507502E1,1.18050785E1,1.4518291E1,1.3383489E1,1.4909788E1,1.6815205E1,1.0142231E1,1.318423E1,1.2061897E1,1.5449941E1,8.895657E0,1.2018456E1,7.2600274E0,1.2257723E1,1.5185031E1,1.9144917E1,1.2998707E1,1.669796E1,1.6456001E1,1.937128E1,1.7011017E1,1.5195822E1,1.6214012E1,1.3710649E1,1.7855453E1,1.0673038E1,1.8357351E1,2.1446556E1,1.9902578E1,9.314836E0,1.7248379E1,2.008247E1,1.4677245E1,1.6910349E1,2.4266478E1,2.0837494E1,2.282991E1,2.5997717E1,1.7053778E1,7.7609086E0,2.9059849E1,5.375824E0,1.7880482E1,2.2108004E1,1.1371586E1,2.0011673E1,2.2718193E1,1.712036E1,2.1870811E1,2.479903E1],"split_indices":[1,1,13,1,2,2,5,2,13,13,1,4,14,1,4,13,1,1,1,1,14,13,4,14,5,10,1,12,2,1,2,0,1,1,4,2,3,12,4,2,2,14,12,14,8,5,4,12,0,3,14,1,14,0,7,14,1,3,4,12,4,14,12,0,0,0,0,0,0,0,0,0,0,0,0,0,0,0,0,0,0,0,0,0,0,0,0,0,0,0,0,0,0,0,0,0,0,0,0,0,0,0,0,0,0,0,0,0,0,0,0,0,0,0,0,0,0,0,0,0,0,0,0,0,0,0,0],"split_type":[0,0,0,0,0,0,0,0,0,0,0,0,0,0,0,0,0,0,0,0,0,0,0,0,0,0,0,0,0,0,0,0,0,0,0,0,0,0,0,0,0,0,0,0,0,0,0,0,0,0,0,0,0,0,0,0,0,0,0,0,0,0,0,0,0,0,0,0,0,0,0,0,0,0,0,0,0,0,0,0,0,0,0,0,0,0,0,0,0,0,0,0,0,0,0,0,0,0,0,0,0,0,0,0,0,0,0,0,0,0,0,0,0,0,0,0,0,0,0,0,0,0,0,0,0,0,0],"sum_hessian":[2.62148E5,2.12534E5,4.9614E4,1.59721E5,5.2813E4,3.7492E4,1.2122E4,9.465E4,6.5071E4,3.335E4,1.9463E4,2.578E4,1.1712E4,4.746E3,7.376E3,7.5404E4,1.9246E4,4.3928E4,2.1143E4,2.5143E4,8.207E3,1.4922E4,4.541E3,2.2287E4,3.493E3,1.423E3,1.0289E4,4.127E3,6.19E2,4.742E3,2.634E3,6.1715E4,1.3689E4,1.4348E4,4.898E3,2.7184E4,1.6744E4,1.5712E4,5.431E3,1.7305E4,7.838E3,6.475E3,1.732E3,7.723E3,7.199E3,1.371E3,3.17E3,1.385E3,2.0902E4,2.03E3,1.463E3,1.334E3,8.9E1,7.659E3,2.63E3,2.537E3,1.59E3,5.73E2,4.6E1,3.792E3,9.5E2,7.07E2,1.927E3,6.0267E4,1.448E3,3.217E3,1.0472E4,4.183E3,1.0165E4,4.225E3,6.73E2,1.5848E4,1.1336E4,1.5245E4,1.499E3,8.848E3,6.864E3,3.145E3,2.286E3,1.4741E4,2.564E3,6.683E3,1.155E3,5.25E2,5.95E3,2.14E2,1.518E3,2.099E3,5.624E3,6.076E3,1.123E3,8.11E2,5.6E2,2.254E3,9.16E2,1.193E3,1.92E2,1.031E3,1.9871E4,1.648E3,3.82E2,1.399E3,6.4E1,3.51E2,9.83E2,4.8E1,4.1E1,7.109E3,5.5E2,1.441E3,1.189E3,8.85E2,1.652E3,4.67E2,1.123E3,5.42E2,3.1E1,4.3E1,3E0,2.895E3,8.97E2,6.4E2,3.1E2,1.03E2,6.04E2,1.111E3,8.16E2],"tree_param":{"num_deleted":"0","num_feature":"15","num_nodes":"127","size_leaf_vector":"0"}},{"base_weights":[5.686957E1,4.8048145E1,1.9891455E2,3.839317E1,8.435397E1,1.6798665E2,3.1997345E2,3.313368E1,4.734755E1,7.311802E1,1.07774124E2,1.48288E2,2.0614409E2,2.765753E2,3.4913782E2,2.517329E1,3.7111084E1,4.323536E1,5.537511E1,6.6902084E1,8.505867E1,9.810989E1,1.2302369E2,1.2949385E2,1.620374E2,1.9160976E2,2.3184944E2,2.6795276E2,3.2138303E2,3.9564258E2,3.0488995E2,1.8236452E1,2.6851532E1,3.3751877E1,4.0594875E1,4.024662E1,4.774346E1,5.309405E1,7.147711E1,6.305857E1,7.4057434E1,7.762297E1,9.319966E1,8.3767075E1,1.01949066E2,1.192137E2,1.3710416E2,1.0443575E2,1.3589542E2,1.5577698E2,1.844961E2,1.709338E2,1.9966917E2,2.2421103E2,2.6082166E2,2.4174565E2,2.7960828E2,3.1441455E2,4.6660718E2,3.618175E2,5.306223E2,3.680102E2,2.7412564E2,1.6318657E1,2.287098E1,2.5694445E1,3.2956463E1,3.217113E1,3.765475E1,3.9527725E1,4.7088493E1,3.636134E1,4.2717884E1,4.4703182E1,5.12638E1,4.9617954E1,5.874969E1,6.354643E1,7.5921684E1,5.9415592E1,6.971801E1,6.959729E1,8.019165E1,7.574125E1,1.0186643E2,9.1996445E1,1.2811577E2,7.669885E1,8.902787E1,9.8158005E1,1.0867818E2,1.1200443E2,1.2379076E2,1.2942073E2,1.5517354E2,8.2812416E1,1.1376144E2,1.3287602E2,1.5453111E2,1.4866864E2,1.6103172E2,1.7587735E2,1.9624054E2,1.632754E2,1.82732E2,1.949792E2,2.2367915E2,2.2454518E2,6.89153E1,2.9582397E2,2.4690604E2,2.54464E2,2.0149469E2,3.2463214E2,2.4297453E2,3.4028137E2,4.1012134E2,5.0184604E2,7.03981E2,4.6749277E2,3.489774E2,2.9629312E2,2.3717693E2],"categories":[],"categories_nodes":[],"categories_segments":[],"categories_sizes":[],"default_left":[1,1,1,1,1,1,1,1,1,1,1,1,1,1,1,1,1,1,1,1,1,1,1,1,1,1,1,1,1,1,1,1,1,1,1,1,1,1,1,1,1,1,1,1,1,1,1,1,1,1,1,1,1,1,1,1,0,1,0,1,1,1,1,0,0,0,0,0,0,0,0,0,0,0,0,0,0,0,0,0,0,0,0,0,0,0,0,0,0,0,0,0,0,0,0,0,0,0,0,0,0,0,0,0,0,0,0,0,0,0,0,0,0,0,0,0,0,0,0,0,0,0,0],"id":3,"left_children":[1,3,5,7,9,11,13,15,17,19,21,23,25,27,29,31,33,35,37,39,41,43,45,47,49,51,53,55,57,59,61,63,65,67,69,71,73,75,77,79,81,83,85,87,89,91,93,95,97,99,101,103,105,107,109,111,-1,113,-1,115,117,119,121,-1,-1,-1,-1,-1,-1,-1,-1,-1,-1,-1,-1,-1,-1,-1,-1,-1,-1,-1,-1,-1,-1,-1,-1,-1,-1,-1,-1,-1,-1,-1,-1,-1,-1,-1,-1,-1,-1,-1,-1,-1,-1,-1,-1,-1,-1,-1,-1,-1,-1,-1,-1,-1,-1,-1,-1,-1,-1,-1,-1],"loss_changes":[3.2847347E8,8.651571E7,5.733581E7,9.180832E6,1.3636064E7,9.14784E6,3.849824E6,3.888128E6,2.37912E6,2.5952E6,2.465008E6,2.061008E6,1.50792E6,3.99928E5,3.708832E6,4.75982E5,9.57144E5,6.40896E5,8.93656E5,6.2924E5,7.18744E5,5.58232E5,3.33216E5,5.32648E5,6.2492E5,4.09128E5,2.72592E5,2.56496E5,5.3668E4,3.935408E6,1.759416E6,7.0518E4,2.3193E5,2.5608E5,2.7672E5,2.73972E5,2.01224E5,4.1792E5,1.01944E5,3.59812E5,2.14636E5,2.785E5,2.28524E5,7.4197E4,1.96352E5,1.55608E5,1.71648E5,1.313325E5,1.32064E5,1.12096E5,6.7516E4,3.8202E4,1.71232E5,4.6328E4,7.6006E4,1.1971E5,0E0,6.1272E4,0E0,6.1568E5,5.39676E5,4.25716E5,4.6048E5,0E0,0E0,0E0,0E0,0E0,0E0,0E0,0E0,0E0,0E0,0E0,0E0,0E0,0E0,0E0,0E0,0E0,0E0,0E0,0E0,0E0,0E0,0E0,0E0,0E0,0E0,0E0,0E0,0E0,0E0,0E0,0E0,0E0,0E0,0E0,0E0,0E0,0E0,0E0,0E0,0E0,0E0,0E0,0E0,0E0,0E0,0E0,0E0,0E0,0E0,0E0,0E0,0E0,0E0,0E0,0E0,0E0,0E0,0E0,0E0],"parents":[2147483647,0,0,1,1,2,2,3,3,4,4,5,5,6,6,7,7,8,8,9,9,10,10,11,11,12,12,13,13,14,14,15,15,16,16,17,17,18,18,19,19,20,20,21,21,22,22,23,23,24,24,25,25,26,26,27,27,28,28,29,29,30,30,31,31,32,32,33,33,34,34,35,35,36,36,37,37,38,38,39,39,40,40,41,41,42,42,43,43,44,44,45,45,46,46,47,47,48,48,49,49,50,50,51,51,52,52,53,53,54,54,55,55,57,57,59,59,60,60,61,61,62,62],"right_children":[2,4,6,8,10,12,14,16,18,20,22,24,26,28,30,32,34,36,38,40,42,44,46,48,50,52,54,56,58,60,62,64,66,68,70,72,74,76,78,80,82,84,86,88,90,92,94,96,98,100,102,104,106,108,110,112,-1,114,-1,116,118,120,122,-1,-1,-1,-1,-1,-1,-1,-1,-1,-1,-1,-1,-1,-1,-1,-1,-1,-1,-1,-1,-1,-1,-1,-1,-1,-1,-1,-1,-1,-1,-1,-1,-1,-1,-1,-1,-1,-1,-1,-1,-1,-1,-1,-1,-1,-1,-1,-1,-1,-1,-1,-1,-1,-1,-1,-1,-1,-1,-1,-1],"split_conditions":[1.225E2,9.35E1,2.555E2,5.85E1,7.75E1,2.885E2,4.825E2,4.65E1,4.45E1,1.245E2,1.815E2,2.165E2,2.085E2,3.305E2,1.727E3,2.05E1,7.55E1,7.15E1,6.75E1,5.15E1,1.435E2,1.185E2,2.385E2,1.545E2,1.775E2,1.575E2,4.025E2,3.715E2,4.43E2,6.655E2,1.615E2,1.55E1,3.05E1,3.35E1,1.245E2,6.45E1,2.95E1,7.45E1,5.75E1,4.95E1,1.205E2,1.005E2,5.7E1,1.085E2,9.75E1,9.65E1,2.6E1,1.19E2,1.695E2,2.445E2,1.985E2,1.215E2,3.685E2,8E1,2.855E2,5.165E2,8.3882484E1,6.365E2,1.3998216E2,4.005E2,6.635E2,1.6E1,4.865E2,4.8955975E0,6.8612943E0,7.7083335E0,9.886939E0,9.65134E0,1.1296426E1,1.1858318E1,1.4126549E1,1.0908402E1,1.2815366E1,1.3410955E1,1.5379141E1,1.4885386E1,1.7624908E1,1.9063929E1,2.2776506E1,1.7824678E1,2.0915403E1,2.0879189E1,2.4057497E1,2.2722376E1,3.055993E1,2.7598934E1,3.843473E1,2.3009657E1,2.6708363E1,2.9447403E1,3.2603455E1,3.360133E1,3.713723E1,3.882622E1,4.6552063E1,2.4843725E1,3.4128433E1,3.986281E1,4.6359337E1,4.4600594E1,4.830952E1,5.2763206E1,5.8872166E1,4.8982624E1,5.48196E1,5.8493763E1,6.710375E1,6.7363556E1,2.0674591E1,8.874719E1,7.4071815E1,7.63392E1,6.044841E1,9.738965E1,7.2892365E1,1.0208442E2,1.2303641E2,1.5055382E2,2.1119432E2,1.4024783E2,1.0469322E2,8.888794E1,7.115308E1],"split_indices":[12,2,12,2,12,13,13,14,12,13,13,13,12,12,2,14,14,2,5,12,2,2,13,2,12,12,13,13,12,13,5,12,12,12,14,14,12,2,12,8,2,5,0,13,12,12,0,13,12,13,12,5,13,0,2,2,0,2,0,12,12,1,5,0,0,0,0,0,0,0,0,0,0,0,0,0,0,0,0,0,0,0,0,0,0,0,0,0,0,0,0,0,0,0,0,0,0,0,0,0,0,0,0,0,0,0,0,0,0,0,0,0,0,0,0,0,0,0,0,0,0,0,0],"split_type":[0,0,0,0,0,0,0,0,0,0,0,0,0,0,0,0,0,0,0,0,0,0,0,0,0,0,0,0,0,0,0,0,0,0,0,0,0,0,0,0,0,0,0,0,0,0,0,0,0,0,0,0,0,0,0,0,0,0,0,0,0,0,0,0,0,0,0,0,0,0,0,0,0,0,0,0,0,0,0,0,0,0,0,0,0,0,0,0,0,0,0,0,0,0,0,0,0,0,0,0,0,0,0,0,0,0,0,0,0,0,0,0,0,0,0,0,0,0,0,0,0,0,0],"sum_hessian":[2.62148E5,2.46821E5,1.5327E4,1.94973E5,5.1848E4,1.221E4,3.117E3,1.22831E5,7.2142E4,3.5041E4,1.6807E4,8.056E3,4.154E3,1.257E3,1.86E3,4.0927E4,8.1904E4,4.7709E4,2.4433E4,2.3049E4,1.1992E4,1.0292E4,6.515E3,3.408E3,4.648E3,2.659E3,1.495E3,1.06E3,1.97E2,9.03E2,9.57E2,7.975E3,3.2952E4,4.1703E4,4.0201E4,2.8695E4,1.9014E4,2.1405E4,3.028E3,1.5001E4,8.048E3,6.273E3,5.719E3,2.178E3,8.114E3,5.135E3,1.38E3,6.97E2,2.711E3,3.641E3,1.007E3,7.52E2,1.907E3,1.19E3,3.05E2,3.33E2,7.27E2,1.91E2,6E0,7.25E2,1.78E2,3.1E2,6.47E2,5.644E3,2.331E3,2.7706E4,5.246E3,2.9688E4,1.2015E4,3.4533E4,5.668E3,1.1162E4,1.7533E4,1.021E4,8.804E3,1.3263E4,8.142E3,1.093E3,1.935E3,9.703E3,5.298E3,4.667E3,3.381E3,5.825E3,4.48E2,5.532E3,1.87E2,9.36E2,1.242E3,5.2E3,2.914E3,2.004E3,3.131E3,9.74E2,4.06E2,2.13E2,4.84E2,2.34E3,3.71E2,1.56E3,2.081E3,5.9E2,4.17E2,4.65E2,2.87E2,1.603E3,3.04E2,1.187E3,3E0,8.1E1,2.24E2,2.49E2,8.4E1,1.64E2,2.7E1,5.07E2,2.18E2,1.56E2,2.2E1,4.6E1,2.64E2,4E2,2.47E2],"tree_param":{"num_deleted":"0","num_feature":"15","num_nodes":"123","size_leaf_vector":"0"}},{"base_weights":[3.5077595E1,3.379625E1,3.9815086E1,3.5163666E1,2.994774E1,3.7473824E1,4.7436607E1,3.2277885E1,4.0435673E1,3.269482E1,2.1834364E1,3.5554295E1,3.96136E1,5.1646763E1,4.407975E1,3.3779087E1,2.3421349E1,3.821545E1,4.9891254E1,3.3896E1,2.933785E1,1.628391E1,2.5670752E1,3.9543823E1,3.525377E1,4.030695E1,3.4558445E1,4.645356E1,5.5120434E1,4.0880352E1,5.2924732E1,3.5559265E1,3.2444126E1,2.0477894E1,3.55461E1,3.69195E1,4.213291E1,6.0386543E1,4.4036633E1,3.351507E1,3.615031E1,2.4372778E1,3.1350794E1,1.2492682E1,2.4666624E1,3.1338959E1,2.1987192E1,3.793416E1,5.4629677E1,3.6657646E1,3.426638E1,3.807799E1,4.191069E1,3.5911236E1,2.3638933E1,4.775894E1,3.737026E1,5.6548893E1,4.3738007E1,5.293353E1,3.873829E1,4.883652E1,5.8429134E1,3.5461792E1,4.255942E1,3.0210093E1,3.3656895E1,1.1958699E1,2.524336E1,2.6302244E1,3.9323933E1,4.338417E1,3.666014E1,4.5179005E1,3.5869255E1,6.435957E1,4.7805153E1,5.027137E1,3.5804096E1,2.833398E1,3.3698017E1,3.6432674E1,2.0018406E1,2.1670528E1,2.951415E1,3.061355E1,3.8575882E1,1.5641841E1,4.006628E0,2.635448E1,1.4766197E1,4.0908558E1,2.7551847E1,1.7497011E1,3.0706556E1,3.0729427E1,3.9343094E1,6.0930573E1,3.152575E1,3.7630024E1,3.3333473E1,2.8953688E1,3.4613853E1,3.9394653E1,3.3365536E1,3.9827785E1,4.408881E1,3.4917297E1,4.7112255E1,7.231111E0,2.795528E1,5.1161503E1,4.3698273E1,7.9392357E0,4.0154327E1,4.8290516E1,5.9111282E1,3.6977192E1,5.6625782E1,5.772238E1,3.3659016E1,3.2498898E1,4.2780785E1,5.0856728E1,3.547389E1,3.266075E1,5.9131783E1],"categories":[],"categories_nodes":[],"categories_segments":[],"categories_sizes":[],"default_left":[1,1,1,1,1,1,1,1,1,1,1,1,1,1,1,1,1,1,1,1,1,1,1,1,1,1,1,1,1,1,1,1,1,1,1,1,1,1,1,1,1,1,1,1,1,1,1,1,1,1,1,1,1,1,1,1,1,1,1,1,1,1,1,0,0,0,0,0,0,0,0,0,0,0,0,0,0,0,0,0,0,0,0,0,0,0,0,0,0,0,0,0,0,0,0,0,0,0,0,0,0,0,0,0,0,0,0,0,0,0,0,0,0,0,0,0,0,0,0,0,0,0,0,0,0,0,0],"id":4,"left_children":[1,3,5,7,9,11,13,15,17,19,21,23,25,27,29,31,33,35,37,39,41,43,45,47,49,51,53,55,57,59,61,63,65,67,69,71,73,75,77,79,81,83,85,87,89,91,93,95,97,99,101,103,105,107,109,111,113,115,117,119,121,123,125,-1,-1,-1,-1,-1,-1,-1,-1,-1,-1,-1,-1,-1,-1,-1,-1,-1,-1,-1,-1,-1,-1,-1,-1,-1,-1,-1,-1,-1,-1,-1,-1,-1,-1,-1,-1,-1,-1,-1,-1,-1,-1,-1,-1,-1,-1,-1,-1,-1,-1,-1,-1,-1,-1,-1,-1,-1,-1,-1,-1,-1,-1,-1,-1],"loss_changes":[1.589984E6,1.084832E6,9.93968E5,2.314928E6,1.20514E6,1.73952E5,1.83006E5,1.307408E6,1.128632E6,1.61976E5,2.910505E5,2.56E4,6.9338E4,1.02249E5,2.04445E5,1.98784E5,5.083345E5,2.19876E5,6.26364E5,2.4344E4,1.05757E5,1.77569E5,1.68265E5,3.602775E4,2.778E4,6.1816E4,3.520875E4,2.5902E4,5.4044E4,1.36493E5,4.07125E4,2.3088E4,1.29276E5,4.657625E5,9.622275E4,5.3376E4,2.05108E5,1.80023E5,3.35681E5,2.3188E4,1.8807E4,4.2137875E4,3.91945E4,1.0298475E5,2.87205E4,1.1430075E5,1.9161825E5,1.32155E4,1.9769875E4,2.6656E4,2.1729E4,4.4812E4,4.5004E4,2.2514E4,1.9061406E4,2.59225E4,2.409875E4,6.2427E4,3.206175E4,7.25455E4,1.136255E5,2.834975E4,1.291575E4,0E0,0E0,0E0,0E0,0E0,0E0,0E0,0E0,0E0,0E0,0E0,0E0,0E0,0E0,0E0,0E0,0E0,0E0,0E0,0E0,0E0,0E0,0E0,0E0,0E0,0E0,0E0,0E0,0E0,0E0,0E0,0E0,0E0,0E0,0E0,0E0,0E0,0E0,0E0,0E0,0E0,0E0,0E0,0E0,0E0,0E0,0E0,0E0,0E0,0E0,0E0,0E0,0E0,0E0,0E0,0E0,0E0,0E0,0E0,0E0,0E0,0E0,0E0,0E0],"parents":[2147483647,0,0,1,1,2,2,3,3,4,4,5,5,6,6,7,7,8,8,9,9,10,10,11,11,12,12,13,13,14,14,15,15,16,16,17,17,18,18,19,19,20,20,21,21,22,22,23,23,24,24,25,25,26,26,27,27,28,28,29,29,30,30,31,31,32,32,33,33,34,34,35,35,36,36,37,37,38,38,39,39,40,40,41,41,42,42,43,43,44,44,45,45,46,46,47,47,48,48,49,49,50,50,51,51,52,52,53,53,54,54,55,55,56,56,57,57,58,58,59,59,60,60,61,61,62,62],"right_children":[2,4,6,8,10,12,14,16,18,20,22,24,26,28,30,32,34,36,38,40,42,44,46,48,50,52,54,56,58,60,62,64,66,68,70,72,74,76,78,80,82,84,86,88,90,92,94,96,98,100,102,104,106,108,110,112,114,116,118,120,122,124,126,-1,-1,-1,-1,-1,-1,-1,-1,-1,-1,-1,-1,-1,-1,-1,-1,-1,-1,-1,-1,-1,-1,-1,-1,-1,-1,-1,-1,-1,-1,-1,-1,-1,-1,-1,-1,-1,-1,-1,-1,-1,-1,-1,-1,-1,-1,-1,-1,-1,-1,-1,-1,-1,-1,-1,-1,-1,-1,-1,-1,-1,-1,-1,-1],"split_conditions":[1.08E2,7.4E1,1.095E2,4E1,1.005E2,5.95E1,6.35E1,1.135E2,1.255E2,7.05E1,6.05E1,-2E1,1.4E2,1.365E2,1.04E2,2E0,3.2E1,7.15E1,6.05E1,1.1E2,6.15E1,9.8E1,5.6E1,1.335E2,5.95E1,1.22E2,5.35E1,1.4E2,1.4E2,1.6E1,2.185E2,6.35E1,6.05E1,5.95E1,3E1,2.35E1,2.75E1,6.6E1,7.8E1,-7.6E1,1.695E2,9.6E1,1.485E2,1.005E2,2.335E2,1.675E2,1.12E2,-8E0,4.55E1,2.8E1,8.5E0,1.4E1,7.55E1,8.85E1,-3.6E1,7.95E1,-5.35E1,1.16E2,2.125E2,1.38E2,1.865E2,3.2E1,6.55E1,1.0638538E1,1.2767827E1,9.063028E0,1.0097069E1,3.58761E0,7.5730085E0,7.8906736E0,1.179718E1,1.3015252E1,1.0998043E1,1.3553702E1,1.07607765E1,1.9307873E1,1.4341546E1,1.5081411E1,1.0741229E1,8.500195E0,1.01094055E1,1.0929803E1,6.0055223E0,6.5011587E0,8.854245E0,9.184066E0,1.1572765E1,4.6925526E0,1.2019885E0,7.9063444E0,4.429859E0,1.2272568E1,8.265554E0,5.2491035E0,9.211967E0,9.218828E0,1.1802929E1,1.8279173E1,9.457726E0,1.1289007E1,1.0000042E1,8.686107E0,1.0384156E1,1.1818397E1,1.0009661E1,1.1948336E1,1.3226644E1,1.0475189E1,1.41336775E1,2.1693335E0,8.386584E0,1.5348452E1,1.3109483E1,2.3817708E0,1.2046299E1,1.4487155E1,1.7733385E1,1.1093158E1,1.6987736E1,1.7316715E1,1.0097705E1,9.74967E0,1.2834236E1,1.5257019E1,1.0642167E1,9.798225E0,1.7739536E1],"split_indices":[1,1,13,1,13,2,5,13,13,2,5,6,1,2,4,1,1,13,5,4,14,1,4,14,14,1,3,1,1,4,13,12,14,5,4,14,11,1,4,0,14,1,14,12,2,2,4,9,8,0,12,6,2,5,0,14,0,1,13,1,2,9,5,0,0,0,0,0,0,0,0,0,0,0,0,0,0,0,0,0,0,0,0,0,0,0,0,0,0,0,0,0,0,0,0,0,0,0,0,0,0,0,0,0,0,0,0,0,0,0,0,0,0,0,0,0,0,0,0,0,0,0,0,0,0,0,0],"split_type":[0,0,0,0,0,0,0,0,0,0,0,0,0,0,0,0,0,0,0,0,0,0,0,0,0,0,0,0,0,0,0,0,0,0,0,0,0,0,0,0,0,0,0,0,0,0,0,0,0,0,0,0,0,0,0,0,0,0,0,0,0,0,0,0,0,0,0,0,0,0,0,0,0,0,0,0,0,0,0,0,0,0,0,0,0,0,0,0,0,0,0,0,0,0,0,0,0,0,0,0,0,0,0,0,0,0,0,0,0,0,0,0,0,0,0,0,0,0,0,0,0,0,0,0,0,0,0],"sum_hessian":[2.62148E5,2.06346E5,5.5802E4,1.52244E5,5.4102E4,4.2693E4,1.3109E4,9.8393E4,5.3851E4,4.0415E4,1.3687E4,2.2514E4,2.0179E4,5.809E3,7.3E3,8.413E4,1.4263E4,4.3615E4,1.0236E4,2.9758E4,1.0657E4,5.596E3,8.091E3,1.568E3,2.0946E4,1.7739E4,2.44E3,2.334E3,3.475E3,5.365E3,1.935E3,3.6042E4,4.8088E4,1.1479E4,2.784E3,3.2781E4,1.0834E4,3.662E3,6.574E3,2.547E4,4.288E3,3.078E3,7.579E3,3.855E3,1.741E3,3.184E3,4.907E3,1.42E3,1.48E2,8.634E3,1.2312E4,7.433E3,1.0306E4,2.169E3,2.71E2,2.037E3,2.97E2,3.084E3,3.91E2,8.06E2,4.559E3,1.116E3,8.19E2,3.5553E4,4.89E2,1.6929E4,3.1159E4,4.119E3,7.36E3,8.1E2,1.974E3,1.258E3,3.1523E4,7.285E3,3.549E3,2.78E3,8.82E2,3.738E3,2.836E3,8.74E2,2.4596E4,4.213E3,7.5E1,2.021E3,1.057E3,6.882E3,6.97E2,2.811E3,1.044E3,1.486E3,2.55E2,9E2,2.284E3,3.241E3,1.666E3,2.36E2,1.184E3,1.15E2,3.3E1,6.672E3,1.962E3,7.61E2,1.1551E4,5.804E3,1.629E3,5.278E3,5.028E3,1.996E3,1.73E2,5.7E1,2.14E2,1.102E3,9.35E2,2.6E1,2.71E2,7.35E2,2.349E3,2.59E2,1.32E2,6.44E2,1.62E2,1.796E3,2.763E3,9.67E2,1.49E2,2.3E1,7.96E2],"tree_param":{"num_deleted":"0","num_feature":"15","num_nodes":"127","size_leaf_vector":"0"}},{"base_weights":[3.9820248E1,3.2507107E1,1.24471985E2,2.6187664E1,5.4451317E1,1.0297288E2,2.0857445E2,2.3179235E1,3.2379158E1,4.6395668E1,6.5609215E1,8.720088E1,1.2373836E2,1.7763795E2,2.4411153E2,1.7230518E1,2.5705992E1,3.0011015E1,3.8354866E1,4.1721596E1,5.2722374E1,5.691014E1,7.416744E1,6.825279E1,9.272272E1,1.1121106E2,1.3685376E2,1.6553825E2,2.000395E2,2.7243716E2,2.138457E2,1.5556364E1,2.270341E1,2.4314896E1,3.0652943E1,2.8734713E1,3.680731E1,3.640366E1,4.6683807E1,3.930771E1,4.633315E1,4.6119743E1,5.62448E1,5.0360603E1,6.03067E1,7.058062E1,8.3091965E1,6.07075E1,8.127281E1,8.714952E1,1.0553693E2,1.0738074E2,1.2059086E2,1.2790457E2,1.5222812E2,5.8242626E1,1.6659636E2,1.8767517E2,2.1349474E2,2.5227258E2,3.9875653E2,2.8768686E2,1.9945393E2,1.0722776E1,1.6494848E1,2.0870329E1,2.5877338E1,2.2939224E1,2.7166834E1,2.926918E1,3.5582306E1,2.74085E1,3.1950954E1,3.4818504E1,4.3916092E1,3.4619656E1,4.024751E1,5.018784E1,4.034108E1,3.6262306E1,4.1645393E1,4.1184246E1,4.8701424E1,4.4494774E1,5.9903973E1,5.4450798E1,6.726775E1,4.8844032E1,5.6882694E1,5.8253345E1,6.948287E1,6.5757164E1,7.934812E1,7.667727E1,8.824666E1,6.470699E1,4.4244236E1,5.273067E1,8.6029236E1,5.741749E1,8.767238E1,1.0393876E2,1.2842462E2,1.07693405E2,4.8803015E0,1.1896998E2,1.6447511E2,1.3045111E2,1.11011375E2,1.6436201E2,1.453452E2,-3.6383087E1,8.287803E1,1.6938286E2,1.3899438E2,1.902287E2,1.0587752E2,1.9538692E2,2.2729286E2,2.2813095E2,2.8719638E2,3.620361E2,4.74069E2,6.3950616E2,2.6402893E2,4.3880684E1,2.0255316E2],"categories":[],"categories_nodes":[],"categories_segments":[],"categories_sizes":[],"default_left":[1,1,1,1,1,1,1,1,1,1,1,1,1,1,1,1,1,1,1,1,1,1,1,1,1,1,1,1,1,1,1,1,1,1,1,1,1,1,1,1,1,1,1,1,1,1,1,1,1,1,1,1,1,1,1,1,1,1,1,1,1,1,1,0,0,0,0,0,0,0,0,0,0,0,0,0,0,0,0,0,0,0,0,0,0,0,0,0,0,0,0,0,0,0,0,0,0,0,0,0,0,0,0,0,0,0,0,0,0,0,0,0,0,0,0,0,0,0,0,0,0,0,0,0,0,0,0],"id":5,"left_children":[1,3,5,7,9,11,13,15,17,19,21,23,25,27,29,31,33,35,37,39,41,43,45,47,49,51,53,55,57,59,61,63,65,67,69,71,73,75,77,79,81,83,85,87,89,91,93,95,97,99,101,103,105,107,109,111,113,115,117,119,121,123,125,-1,-1,-1,-1,-1,-1,-1,-1,-1,-1,-1,-1,-1,-1,-1,-1,-1,-1,-1,-1,-1,-1,-1,-1,-1,-1,-1,-1,-1,-1,-1,-1,-1,-1,-1,-1,-1,-1,-1,-1,-1,-1,-1,-1,-1,-1,-1,-1,-1,-1,-1,-1,-1,-1,-1,-1,-1,-1,-1,-1,-1,-1,-1,-1],"loss_changes":[1.6228451E8,3.3461424E7,3.767075E7,3.489024E6,4.846384E6,5.427232E6,4.621376E6,1.894824E6,8.65804E5,9.24424E5,1.679672E6,9.8136E5,1.161992E6,5.82712E5,1.632336E6,3.44101E5,6.08268E5,3.79564E5,2.80814E5,1.9884E5,3.0696E5,2.46584E5,3.58992E5,2.0471E5,5.12636E5,1.18908E5,4.6154E5,1.58436E5,9.1692E4,2.484784E6,9.60692E5,1.30426E5,5.0682E4,2.70396E5,1.31424E5,1.5672E5,9.6504E4,9.5222E4,7.12295E4,8.2774E4,7.3451E4,1.01176E5,1.67888E5,3.5184E4,1.3508E5,3.38896E5,1.01094E5,8.63565E4,1.01355E5,7.4216E4,6.749E4,8.328E4,5.5546E4,8.0848E4,8.3094E4,4.031363E4,8.9212E4,6.7795E4,4.8536E4,6.74736E5,2.1001E5,1.112943E6,3.79248E5,0E0,0E0,0E0,0E0,0E0,0E0,0E0,0E0,0E0,0E0,0E0,0E0,0E0,0E0,0E0,0E0,0E0,0E0,0E0,0E0,0E0,0E0,0E0,0E0,0E0,0E0,0E0,0E0,0E0,0E0,0E0,0E0,0E0,0E0,0E0,0E0,0E0,0E0,0E0,0E0,0E0,0E0,0E0,0E0,0E0,0E0,0E0,0E0,0E0,0E0,0E0,0E0,0E0,0E0,0E0,0E0,0E0,0E0,0E0,0E0,0E0,0E0,0E0,0E0],"parents":[2147483647,0,0,1,1,2,2,3,3,4,4,5,5,6,6,7,7,8,8,9,9,10,10,11,11,12,12,13,13,14,14,15,15,16,16,17,17,18,18,19,19,20,20,21,21,22,22,23,23,24,24,25,25,26,26,27,27,28,28,29,29,30,30,31,31,32,32,33,33,34,34,35,35,36,36,37,37,38,38,39,39,40,40,41,41,42,42,43,43,44,44,45,45,46,46,47,47,48,48,49,49,50,50,51,51,52,52,53,53,54,54,55,55,56,56,57,57,58,58,59,59,60,60,61,61,62,62],"right_children":[2,4,6,8,10,12,14,16,18,20,22,24,26,28,30,32,34,36,38,40,42,44,46,48,50,52,54,56,58,60,62,64,66,68,70,72,74,76,78,80,82,84,86,88,90,92,94,96,98,100,102,104,106,108,110,112,114,116,118,120,122,124,126,-1,-1,-1,-1,-1,-1,-1,-1,-1,-1,-1,-1,-1,-1,-1,-1,-1,-1,-1,-1,-1,-1,-1,-1,-1,-1,-1,-1,-1,-1,-1,-1,-1,-1,-1,-1,-1,-1,-1,-1,-1,-1,-1,-1,-1,-1,-1,-1,-1,-1,-1,-1,-1,-1,-1,-1,-1,-1,-1,-1,-1,-1,-1,-1],"split_conditions":[1.045E2,8.65E1,2.235E2,3.55E1,6.15E1,2.375E2,3.195E2,4.15E1,6.85E1,1.175E2,1.415E2,1.435E2,1.625E2,4.095E2,1.727E3,5.25E1,4.75E1,6.25E1,6.85E1,1.025E2,3.65E1,1.115E2,8.55E1,1.655E2,1.375E2,2.885E2,3.245E2,2E2,2.805E2,5.075E2,7.05E1,1.75E1,2.45E1,8.05E1,4.95E1,9.55E1,8.05E1,5.95E1,1.155E2,3.25E1,3.45E1,6.15E1,1.615E2,8.55E1,6.95E1,1.745E2,1.795E2,1.525E2,8.35E1,-7.6E1,8.15E1,2.315E2,5.7E1,3.755E2,2.765E2,-2.6E1,5.48E2,3.515E2,9.15E1,5.505E2,8.33E2,8E0,-5.35E1,3.216833E0,4.948455E0,6.261099E0,7.7632017E0,6.8817677E0,8.15005E0,8.780754E0,1.0674692E1,8.22255E0,9.585287E0,1.0445552E1,1.3174829E1,1.0385897E1,1.2074253E1,1.5056353E1,1.21023245E1,1.0878693E1,1.2493619E1,1.2355274E1,1.4610428E1,1.3348433E1,1.7971193E1,1.633524E1,2.0180326E1,1.4653211E1,1.706481E1,1.7476004E1,2.0844862E1,1.972715E1,2.3804438E1,2.3003181E1,2.6473999E1,1.9412098E1,1.3273272E1,1.5819201E1,2.5808771E1,1.7225246E1,2.6301714E1,3.118163E1,3.852739E1,3.230802E1,1.4640905E0,3.5690994E1,4.9342537E1,3.9135334E1,3.3303413E1,4.9308605E1,4.360356E1,-1.0914927E1,2.4863409E1,5.081486E1,4.169832E1,5.706861E1,3.1763256E1,5.8616077E1,6.818786E1,6.8439285E1,8.615892E1,1.0861083E2,1.422207E2,1.9185185E2,7.920868E1,1.3164206E1,6.076595E1],"split_indices":[12,2,12,12,12,13,12,14,2,2,13,13,12,13,2,2,5,12,12,13,12,2,5,2,12,13,13,13,12,12,5,14,12,14,8,14,12,5,14,12,12,11,13,12,8,2,13,14,13,0,11,14,0,2,2,6,2,5,5,13,13,1,0,0,0,0,0,0,0,0,0,0,0,0,0,0,0,0,0,0,0,0,0,0,0,0,0,0,0,0,0,0,0,0,0,0,0,0,0,0,0,0,0,0,0,0,0,0,0,0,0,0,0,0,0,0,0,0,0,0,0,0,0,0,0,0,0],"split_type":[0,0,0,0,0,0,0,0,0,0,0,0,0,0,0,0,0,0,0,0,0,0,0,0,0,0,0,0,0,0,0,0,0,0,0,0,0,0,0,0,0,0,0,0,0,0,0,0,0,0,0,0,0,0,0,0,0,0,0,0,0,0,0,0,0,0,0,0,0,0,0,0,0,0,0,0,0,0,0,0,0,0,0,0,0,0,0,0,0,0,0,0,0,0,0,0,0,0,0,0,0,0,0,0,0,0,0,0,0,0,0,0,0,0,0,0,0,0,0,0,0,0,0,0,0,0,0],"sum_hessian":[2.62148E5,2.41303E5,2.0845E4,1.87352E5,5.3951E4,1.6603E4,4.242E3,1.2609E5,6.1262E4,3.1334E4,2.2617E4,9.439E3,7.164E3,2.271E3,1.971E3,3.7593E4,8.8497E4,4.3879E4,1.7383E4,1.8025E4,1.3309E4,1.122E4,1.1397E4,2.133E3,7.306E3,3.669E3,3.495E3,1.48E3,7.91E2,1.014E3,9.57E2,2.879E4,8.803E3,6.9078E4,1.9419E4,3.6946E4,6.933E3,1.4088E4,3.295E3,1.1838E4,6.187E3,4.635E3,8.674E3,3.837E3,7.383E3,8.136E3,3.261E3,1.354E3,7.79E2,5.097E3,2.209E3,2.614E3,1.055E3,2.215E3,1.28E3,1.5E1,1.465E3,4.2E2,3.71E2,8.77E2,1.37E2,1.53E2,8.04E2,4.683E3,2.4107E4,5.585E3,3.218E3,4.6606E4,2.2472E4,1.5168E4,4.251E3,2.6166E4,1.078E4,5.422E3,1.511E3,9.629E3,4.459E3,2.118E3,1.177E3,5.148E3,6.69E3,1.955E3,4.232E3,4.15E3,4.85E2,7.465E3,1.209E3,3.12E3,7.17E2,6.039E3,1.344E3,5.254E3,2.882E3,1.46E3,1.801E3,1.087E3,2.67E2,1.13E2,6.66E2,9E1,5.007E3,2.07E3,1.39E2,2.606E3,8E0,1.021E3,3.4E1,1.919E3,2.96E2,4.55E2,8.25E2,3E0,1.2E1,1.326E3,1.39E2,4.06E2,1.4E1,1.67E2,2.04E2,5.23E2,3.54E2,9.6E1,4.1E1,8E0,1.45E2,1.6E1,7.88E2],"tree_param":{"num_deleted":"0","num_feature":"15","num_nodes":"127","size_leaf_vector":"0"}},{"base_weights":[2.4556925E1,2.3731043E1,2.8324987E1,2.467725E1,2.1596714E1,2.6070293E1,3.3500477E1,2.2662773E1,2.8905334E1,2.3303114E1,1.7502262E1,2.6564722E1,2.3246826E1,3.5681675E1,2.885058E1,2.3449572E1,1.424101E1,2.7327108E1,3.7585194E1,2.404088E1,2.2034735E1,1.4454243E1,2.3679136E1,2.5021044E1,2.7829567E1,2.3945627E1,1.5851575E1,3.2785366E1,4.1325466E1,2.6385485E1,3.9992153E1,2.4395948E1,2.1039934E1,1.12891655E1,2.731273E1,2.5789604E1,3.001314E1,4.388462E1,3.1529587E1,2.4385168E1,2.2269306E1,2.0953056E1,2.5713558E1,1.7589243E1,9.756787E0,2.2406372E1,3.2734295E1,2.476897E1,3.4669346E1,3.5077354E1,2.7444702E1,2.5090317E1,1.8639713E1,1.335228E1,7.176048E1,3.9965675E1,3.0875841E1,4.2780758E1,2.0067265E1,4.2055145E1,2.5300528E1,4.1520016E1,2.146561E1,1.9320919E1,2.4548658E1,2.0259436E1,2.8272123E1,7.614855E0,2.0802868E1,2.9950914E1,5.1309853E0,2.6240572E1,2.2283901E1,3.3942688E1,2.6541044E1,2.0844835E1,4.51828E1,3.740098E1,2.336545E1,2.3884212E1,2.7251135E1,2.1654413E1,2.958286E1,1.592179E1,2.2029331E1,2.240152E1,2.7719439E1,1.5221185E1,2.560784E1,6.3455935E0,1.900428E1,2.7326763E1,1.7685135E1,2.476969E1,4.2108486E1,1.3673117E0,2.486268E1,2.4059267E1,4.364959E1,2.8948904E1,3.9730415E1,2.6983526E1,3.292825E1,3.077726E1,2.3913776E1,3.9121704E1,1.7159573E1,3.1982195E1,1.0549092E1,1.9847815E1,7.700908E1,4.2223186E1,2.9629929E1,3.2795883E1,2.5538012E1,4.0688557E1,4.9122208E1,-1.6093569E1,2.6314953E1,-8.763584E0,4.452371E1,2.3238583E1,3.375519E1,3.535194E1,4.6100147E1,4.949988E1,1.2065332E1],"categories":[],"categories_nodes":[],"categories_segments":[],"categories_sizes":[],"default_left":[1,1,1,1,1,1,1,1,1,1,1,1,1,1,1,1,1,1,1,1,1,1,1,1,1,1,1,1,1,1,1,1,1,1,1,1,1,1,1,1,1,1,1,1,1,1,1,1,1,1,1,1,1,1,1,1,1,1,1,1,1,1,1,0,0,0,0,0,0,0,0,0,0,0,0,0,0,0,0,0,0,0,0,0,0,0,0,0,0,0,0,0,0,0,0,0,0,0,0,0,0,0,0,0,0,0,0,0,0,0,0,0,0,0,0,0,0,0,0,0,0,0,0,0,0,0,0],"id":6,"left_children":[1,3,5,7,9,11,13,15,17,19,21,23,25,27,29,31,33,35,37,39,41,43,45,47,49,51,53,55,57,59,61,63,65,67,69,71,73,75,77,79,81,83,85,87,89,91,93,95,97,99,101,103,105,107,109,111,113,115,117,119,121,123,125,-1,-1,-1,-1,-1,-1,-1,-1,-1,-1,-1,-1,-1,-1,-1,-1,-1,-1,-1,-1,-1,-1,-1,-1,-1,-1,-1,-1,-1,-1,-1,-1,-1,-1,-1,-1,-1,-1,-1,-1,-1,-1,-1,-1,-1,-1,-1,-1,-1,-1,-1,-1,-1,-1,-1,-1,-1,-1,-1,-1,-1,-1,-1,-1],"loss_changes":[8.1512E5,4.3372E5,5.49016E5,1.268208E6,4.61104E5,4.5208E4,1.43965E5,6.6828E5,6.57472E5,4.3096E4,3.655655E5,5.3836E4,2.494275E4,1.57645E5,1.2446E5,2.09928E5,3.3245462E5,1.67218E5,2.80637E5,1.743E4,6.77345E4,1.9150875E5,7.32575E4,2.9757E4,4.1833E4,2.671175E4,5.856804E4,8.69685E4,1.010785E5,6.260425E4,2.2489625E4,5.0868E4,1.46359E5,2.4582906E5,9.2775375E4,4.0326E4,2.01055E5,1.073615E5,1.799845E5,3.4754E4,2.097225E4,7.1474E4,2.524925E4,1.4781525E5,1.6429194E5,1.3035E5,5.7865E4,2.68755E4,2.9249219E4,2.080725E4,3.5964E4,2.387325E4,2.3521031E4,2.1021883E4,3.3759688E3,3.020175E4,5.1288E4,3.89055E4,4.8544805E4,3.0623438E4,6.03185E4,1.989725E4,1.6532217E4,0E0,0E0,0E0,0E0,0E0,0E0,0E0,0E0,0E0,0E0,0E0,0E0,0E0,0E0,0E0,0E0,0E0,0E0,0E0,0E0,0E0,0E0,0E0,0E0,0E0,0E0,0E0,0E0,0E0,0E0,0E0,0E0,0E0,0E0,0E0,0E0,0E0,0E0,0E0,0E0,0E0,0E0,0E0,0E0,0E0,0E0,0E0,0E0,0E0,0E0,0E0,0E0,0E0,0E0,0E0,0E0,0E0,0E0,0E0,0E0,0E0,0E0,0E0,0E0],"parents":[2147483647,0,0,1,1,2,2,3,3,4,4,5,5,6,6,7,7,8,8,9,9,10,10,11,11,12,12,13,13,14,14,15,15,16,16,17,17,18,18,19,19,20,20,21,21,22,22,23,23,24,24,25,25,26,26,27,27,28,28,29,29,30,30,31,31,32,32,33,33,34,34,35,35,36,36,37,37,38,38,39,39,40,40,41,41,42,42,43,43,44,44,45,45,46,46,47,47,48,48,49,49,50,50,51,51,52,52,53,53,54,54,55,55,56,56,57,57,58,58,59,59,60,60,61,61,62,62],"right_children":[2,4,6,8,10,12,14,16,18,20,22,24,26,28,30,32,34,36,38,40,42,44,46,48,50,52,54,56,58,60,62,64,66,68,70,72,74,76,78,80,82,84,86,88,90,92,94,96,98,100,102,104,106,108,110,112,114,116,118,120,122,124,126,-1,-1,-1,-1,-1,-1,-1,-1,-1,-1,-1,-1,-1,-1,-1,-1,-1,-1,-1,-1,-1,-1,-1,-1,-1,-1,-1,-1,-1,-1,-1,-1,-1,-1,-1,-1,-1,-1,-1,-1,-1,-1,-1,-1,-1,-1,-1,-1,-1,-1,-1,-1,-1,-1,-1,-1,-1,-1,-1,-1,-1,-1,-1,-1],"split_conditions":[1.14E2,7.2E1,9.25E1,4.2E1,9.25E1,1.4E2,9.05E1,1.575E2,1.425E2,5.85E1,1E2,5.45E1,1.275E2,1.575E2,9.2E1,6.05E1,3.4E1,6.45E1,7.15E1,4.2E1,1.04E2,8.55E1,1.16E2,8E1,2.95E1,2.8E1,1.36E2,5.15E1,1.42E2,1.4E1,1.43E2,-6.6E1,8.55E1,6.55E1,1.24E2,1.155E2,7.75E1,9.45E1,8.6E1,2.6E1,6.8E1,4.85E1,-2E0,9.15E1,1.295E2,3.8E1,6.85E1,1.5E0,3.95E1,1.26E2,6.6E1,-3.6E1,-3E1,-4.7E1,2.95E1,4.25E1,1.36E2,2.665E2,1.56E2,1.37E2,1.08E2,1.725E2,-2.5E1,5.796276E0,7.364598E0,6.077831E0,8.481637E0,2.2844565E0,6.2408605E0,8.985274E0,1.5392957E0,7.872172E0,6.6851707E0,1.0182807E1,7.9623137E0,6.253451E0,1.3554841E1,1.1220295E1,7.0096354E0,7.165264E0,8.175341E0,6.496324E0,8.874859E0,4.7765374E0,6.6087995E0,6.720456E0,8.315832E0,4.5663557E0,7.682352E0,1.903678E0,5.7012844E0,8.1980295E0,5.3055406E0,7.4309072E0,1.2632546E1,4.1019353E-1,7.4588046E0,7.2177806E0,1.3094877E1,8.684671E0,1.1919125E1,8.095058E0,9.878475E0,9.233178E0,7.1741333E0,1.1736511E1,5.147872E0,9.594659E0,3.164728E0,5.9543447E0,2.3102724E1,1.2666957E1,8.888979E0,9.838765E0,7.6614037E0,1.2206568E1,1.4736663E1,-4.8280706E0,7.894486E0,-2.6290753E0,1.3357113E1,6.9715753E0,1.0126558E1,1.0605582E1,1.3830045E1,1.4849965E1,3.6195998E0],"split_indices":[1,1,2,1,2,1,5,13,13,13,1,2,14,2,4,13,1,13,5,0,1,12,4,0,14,3,13,14,1,4,8,0,5,8,4,14,14,2,4,0,10,14,3,5,5,4,5,12,2,1,0,0,9,3,12,8,1,2,13,13,7,2,3,0,0,0,0,0,0,0,0,0,0,0,0,0,0,0,0,0,0,0,0,0,0,0,0,0,0,0,0,0,0,0,0,0,0,0,0,0,0,0,0,0,0,0,0,0,0,0,0,0,0,0,0,0,0,0,0,0,0,0,0,0,0,0,0],"split_type":[0,0,0,0,0,0,0,0,0,0,0,0,0,0,0,0,0,0,0,0,0,0,0,0,0,0,0,0,0,0,0,0,0,0,0,0,0,0,0,0,0,0,0,0,0,0,0,0,0,0,0,0,0,0,0,0,0,0,0,0,0,0,0,0,0,0,0,0,0,0,0,0,0,0,0,0,0,0,0,0,0,0,0,0,0,0,0,0,0,0,0,0,0,0,0,0,0,0,0,0,0,0,0,0,0,0,0,0,0,0,0,0,0,0,0,0,0,0,0,0,0,0,0,0,0,0,0],"sum_hessian":[2.62148E5,2.15026E5,4.7122E4,1.48972E5,6.6054E4,3.2827E4,1.4295E4,1.00903E5,4.8069E4,4.662E4,1.9434E4,2.7928E4,4.899E3,9.726E3,4.569E3,9.228E4,8.623E3,4.0677E4,7.392E3,2.9464E4,1.7156E4,1.3015E4,6.419E3,1.2587E4,1.5341E4,4.474E3,4.25E2,6.432E3,3.294E3,3.744E3,8.25E2,6.6251E4,2.6029E4,7.036E3,1.587E3,2.5876E4,1.4801E4,3.62E3,3.772E3,2.4659E4,4.805E3,1.3263E4,3.893E3,7.804E3,5.211E3,5.631E3,7.88E2,1.227E4,3.17E2,7.69E2,1.4572E4,3.677E3,7.97E2,4.08E2,1.7E1,1.347E3,5.085E3,3.082E3,2.12E2,2.4E2,3.504E3,7.61E2,6.4E1,1.939E3,6.4312E4,2.3497E4,2.532E3,5.077E3,1.959E3,1.418E3,1.69E2,2.2921E4,2.955E3,6.939E3,7.862E3,1.94E2,3.426E3,2.192E3,1.58E3,2.0998E4,3.661E3,4.436E3,3.69E2,2.34E3,1.0923E4,1.473E3,2.42E3,6.027E3,1.777E3,3.808E3,1.403E3,2.755E3,2.876E3,4.28E2,3.6E2,4.9E1,1.2221E4,1.47E2,1.7E2,3.35E2,4.34E2,1.3447E4,1.125E3,6.26E2,3.051E3,5.2E1,7.45E2,5.2E1,3.56E2,2E0,1.5E1,1.103E3,2.44E2,3.736E3,1.349E3,2.323E3,7.59E2,3.1E1,1.81E2,1.1E1,2.29E2,2.82E3,6.84E2,3.28E2,4.33E2,1.5E1,4.9E1],"tree_param":{"num_deleted":"0","num_feature":"15","num_nodes":"127","size_leaf_vector":"0"}},{"base_weights":[2.7881699E1,2.3034418E1,9.114584E1,1.818741E1,3.8151875E1,7.662219E1,1.5408191E2,1.4755488E1,2.106331E1,3.389406E1,5.199829E1,6.423171E1,9.246437E1,1.3571664E2,1.7592218E2,1.0048032E1,1.6394463E1,1.9896997E1,2.715503E1,3.0870708E1,4.0925877E1,4.5618946E1,5.693725E1,5.4651028E1,6.86385E1,8.596799E1,1.08929375E2,1.22763916E2,1.4737697E2,2.1455263E2,1.5005211E2,9.348619E0,1.4357523E1,1.4307797E1,1.8330421E1,1.8005293E1,2.2597027E1,2.6050049E1,3.7929096E1,2.7881935E1,3.403277E1,3.3572437E1,4.408531E1,4.2874733E1,5.4977608E1,5.4656094E1,6.893764E1,5.278598E1,9.9110565E1,6.512877E1,7.807606E1,8.1196E1,9.379326E1,1.246961E2,1.0479342E2,1.4705933E2,1.1582545E2,1.4403906E2,2.0411191E2,2.016752E2,3.159787E2,1.7706816E2,1.2431828E2,6.7286563E0,1.0039756E1,1.3076697E1,1.6305265E1,1.3082541E1,1.5921726E1,1.6675297E1,2.0822977E1,1.5682125E1,1.9666052E1,2.1943993E1,2.6905157E1,2.465265E1,2.999612E1,3.7518265E1,1.5301688E2,2.5679749E1,3.0548267E1,3.1172697E1,3.6581745E1,3.1887293E1,4.869774E1,5.6550114E1,4.2757256E1,3.934303E1,4.660449E1,6.1577187E1,4.1076508E1,4.286265E1,5.646296E1,6.745275E1,1.02437E2,7.92955E1,5.144928E1,1.3107996E2,8.3722565E1,7.564315E1,6.0093563E1,7.9793945E1,4.920335E1,7.8736916E1,9.466667E1,9.858177E1,8.0624E1,1.0675866E2,1.341746E2,9.642164E1,1.15604034E2,4.770393E1,1.4938614E2,1.21958145E2,8.800126E1,1.4609637E2,1.0065592E2,2.3384875E2,1.4766295E2,1.9209146E2,2.4027014E2,3.273985E2,1.6642917E2,1.6544493E2,3.0332272E2,1.1649449E2,2.6643277E2],"categories":[],"categories_nodes":[],"categories_segments":[],"categories_sizes":[],"default_left":[1,1,1,1,1,1,1,1,1,1,1,1,1,1,1,1,1,1,1,1,1,1,1,1,1,1,1,1,1,1,1,1,1,1,1,1,1,1,1,1,1,1,1,1,1,1,1,1,1,1,1,1,1,1,1,1,1,1,1,1,1,1,1,0,0,0,0,0,0,0,0,0,0,0,0,0,0,0,0,0,0,0,0,0,0,0,0,0,0,0,0,0,0,0,0,0,0,0,0,0,0,0,0,0,0,0,0,0,0,0,0,0,0,0,0,0,0,0,0,0,0,0,0,0,0,0,0],"id":7,"left_children":[1,3,5,7,9,11,13,15,17,19,21,23,25,27,29,31,33,35,37,39,41,43,45,47,49,51,53,55,57,59,61,63,65,67,69,71,73,75,77,79,81,83,85,87,89,91,93,95,97,99,101,103,105,107,109,111,113,115,117,119,121,123,125,-1,-1,-1,-1,-1,-1,-1,-1,-1,-1,-1,-1,-1,-1,-1,-1,-1,-1,-1,-1,-1,-1,-1,-1,-1,-1,-1,-1,-1,-1,-1,-1,-1,-1,-1,-1,-1,-1,-1,-1,-1,-1,-1,-1,-1,-1,-1,-1,-1,-1,-1,-1,-1,-1,-1,-1,-1,-1,-1,-1,-1,-1,-1,-1],"loss_changes":[8.038826E7,1.7841192E7,1.7040928E7,1.819496E6,3.483392E6,2.969856E6,1.378776E6,6.48448E5,7.12176E5,9.59992E5,4.35384E5,3.5554E5,7.02044E5,2.69472E5,1.560812E6,6.531125E4,2.51633E5,4.2965E5,1.90887E5,2.9792E5,3.14298E5,1.5356E5,2.10604E5,2.17489E5,1.87858E5,1.70656E5,1.09398E5,1.3603E5,1.59408E5,7.68264E5,6.44014E5,3.37645E4,7.345875E3,5.9144E4,1.33079E5,1.90732E5,9.6986E4,7.9884E4,6.503925E4,9.4708E4,1.10852E5,1.026685E5,1.5491E5,6.0064E4,1.234315E5,1.37902E5,5.51195E4,8.7343E4,4.166375E4,2.20564E5,7.4144E4,9.1028E4,1.05689E5,5.11345E4,1.24065E5,3.86475E4,1.1059E5,6.9638E4,5.4436E4,1.6394E5,6.5059E4,6.32197E5,5.182275E5,0E0,0E0,0E0,0E0,0E0,0E0,0E0,0E0,0E0,0E0,0E0,0E0,0E0,0E0,0E0,0E0,0E0,0E0,0E0,0E0,0E0,0E0,0E0,0E0,0E0,0E0,0E0,0E0,0E0,0E0,0E0,0E0,0E0,0E0,0E0,0E0,0E0,0E0,0E0,0E0,0E0,0E0,0E0,0E0,0E0,0E0,0E0,0E0,0E0,0E0,0E0,0E0,0E0,0E0,0E0,0E0,0E0,0E0,0E0,0E0,0E0,0E0,0E0,0E0],"parents":[2147483647,0,0,1,1,2,2,3,3,4,4,5,5,6,6,7,7,8,8,9,9,10,10,11,11,12,12,13,13,14,14,15,15,16,16,17,17,18,18,19,19,20,20,21,21,22,22,23,23,24,24,25,25,26,26,27,27,28,28,29,29,30,30,31,31,32,32,33,33,34,34,35,35,36,36,37,37,38,38,39,39,40,40,41,41,42,42,43,43,44,44,45,45,46,46,47,47,48,48,49,49,50,50,51,51,52,52,53,53,54,54,55,55,56,56,57,57,58,58,59,59,60,60,61,61,62,62],"right_children":[2,4,6,8,10,12,14,16,18,20,22,24,26,28,30,32,34,36,38,40,42,44,46,48,50,52,54,56,58,60,62,64,66,68,70,72,74,76,78,80,82,84,86,88,90,92,94,96,98,100,102,104,106,108,110,112,114,116,118,120,122,124,126,-1,-1,-1,-1,-1,-1,-1,-1,-1,-1,-1,-1,-1,-1,-1,-1,-1,-1,-1,-1,-1,-1,-1,-1,-1,-1,-1,-1,-1,-1,-1,-1,-1,-1,-1,-1,-1,-1,-1,-1,-1,-1,-1,-1,-1,-1,-1,-1,-1,-1,-1,-1,-1,-1,-1,-1,-1,-1,-1,-1,-1,-1,-1,-1],"split_conditions":[1.975E2,8.35E1,2.425E2,2.45E1,8.05E1,1.445E2,3.615E2,3.35E1,5.75E1,1.335E2,1.545E2,9.65E1,3.275E2,2.785E2,1.727E3,2.75E1,4.75E1,5.75E1,9.05E1,4.45E1,9.35E1,7.95E1,1.315E2,5.7E1,2.4E1,1.795E2,-3E1,-2.6E1,5.725E2,5.615E2,2.595E2,1.65E1,4.35E1,6.35E1,7.95E1,6.35E1,6.15E1,7.15E1,7.35E1,3.95E1,1.035E2,1.125E2,-4.45E1,1.205E2,1.195E2,1.145E2,1.115E2,-5.7E1,3.2E1,-2.6E1,1.605E2,3.2E1,3.575E2,1.915E2,1.6E1,2.4E2,4.735E2,5.9E1,4.195E2,6.655E2,5.05E1,1.52E2,2.135E2,2.018597E0,3.011927E0,3.9230094E0,4.8915796E0,3.9247625E0,4.776518E0,5.002589E0,6.2468934E0,4.7046375E0,5.8998156E0,6.583198E0,8.0715475E0,7.3957953E0,8.9988365E0,1.125548E1,4.5905064E1,7.7039247E0,9.16448E0,9.3518095E0,1.0974524E1,9.566188E0,1.4609323E1,1.6965034E1,1.2827177E1,1.1802909E1,1.3981347E1,1.8473156E1,1.2322953E1,1.2858796E1,1.6938889E1,2.0235826E1,3.07311E1,2.378865E1,1.5434785E1,3.932399E1,2.511677E1,2.2692945E1,1.802807E1,2.3938185E1,1.4761005E1,2.3621075E1,2.8400003E1,2.9574533E1,2.41872E1,3.20276E1,4.0252384E1,2.8926493E1,3.4681213E1,1.4311179E1,4.481584E1,3.6587444E1,2.640038E1,4.3828915E1,3.0196777E1,7.015463E1,4.4298885E1,5.762744E1,7.208105E1,9.821955E1,4.9928753E1,4.963348E1,9.099682E1,3.494835E1,7.992983E1],"split_indices":[13,2,12,12,12,12,12,14,12,2,2,12,13,12,2,5,2,2,12,12,13,5,12,0,0,12,0,0,13,12,5,14,5,14,14,14,5,2,8,8,13,8,0,2,14,13,11,0,7,0,14,0,2,12,0,13,2,9,2,13,9,14,11,0,0,0,0,0,0,0,0,0,0,0,0,0,0,0,0,0,0,0,0,0,0,0,0,0,0,0,0,0,0,0,0,0,0,0,0,0,0,0,0,0,0,0,0,0,0,0,0,0,0,0,0,0,0,0,0,0,0,0,0,0,0,0,0],"split_type":[0,0,0,0,0,0,0,0,0,0,0,0,0,0,0,0,0,0,0,0,0,0,0,0,0,0,0,0,0,0,0,0,0,0,0,0,0,0,0,0,0,0,0,0,0,0,0,0,0,0,0,0,0,0,0,0,0,0,0,0,0,0,0,0,0,0,0,0,0,0,0,0,0,0,0,0,0,0,0,0,0,0,0,0,0,0,0,0,0,0,0,0,0,0,0,0,0,0,0,0,0,0,0,0,0,0,0,0,0,0,0,0,0,0,0,0,0,0,0,0,0,0,0,0,0,0,0],"sum_hessian":[2.62148E5,2.43493E5,1.8655E4,1.84379E5,5.9114E4,1.5159E4,3.496E3,8.4066E4,1.00313E5,4.5214E4,1.39E4,8.509E3,6.65E3,1.903E3,1.593E3,2.1712E4,6.2354E4,8.4197E4,1.6116E4,3.1623E4,1.3591E4,6.07E3,7.83E3,2.685E3,5.824E3,4.773E3,1.877E3,9.07E2,9.96E2,6.36E2,9.57E2,1.8683E4,3.029E3,3.0013E4,3.2341E4,4.9514E4,3.4683E4,1.462E4,1.496E3,1.6262E4,1.5361E4,4.088E3,9.503E3,4.698E3,1.372E3,6.584E3,1.246E3,2.579E3,1.06E2,4.251E3,1.573E3,2.972E3,1.801E3,3.84E2,1.493E3,1.97E2,7.1E2,9.44E2,5.2E1,5.67E2,6.9E1,4.64E2,4.93E2,3.902E3,1.4781E4,1.832E3,1.197E3,1.7066E4,1.2947E4,1.944E4,1.2901E4,2.0645E4,2.8869E4,3.0123E4,4.56E3,1.0802E4,3.818E3,1.492E3,4E0,8.912E3,7.35E3,7.245E3,8.116E3,3.681E3,4.07E2,9.11E2,8.592E3,2.419E3,2.279E3,9.28E2,4.44E2,8.78E2,5.706E3,1.196E3,5E1,1.21E2,2.458E3,3.2E1,7.4E1,1.372E3,2.879E3,1.483E3,9E1,2.519E3,4.53E2,1.316E3,4.85E2,1.37E2,2.47E2,8.47E2,6.46E2,5E0,1.92E2,5.79E2,1.31E2,8.99E2,4.5E1,3.2E1,2E1,4.59E2,1.08E2,6.3E1,6E0,4.27E2,3.7E1,4.69E2,2.4E1],"tree_param":{"num_deleted":"0","num_feature":"15","num_nodes":"127","size_leaf_vector":"0"}},{"base_weights":[1.7191792E1,1.6630316E1,1.9984236E1,1.7210445E1,1.4915387E1,1.86059E1,2.4924656E1,1.5425991E1,1.9172709E1,1.3068673E1,1.7219599E1,1.8085651E1,2.1560558E1,2.7095505E1,1.992558E1,1.656249E1,1.0031047E1,2.0320286E1,1.7073723E1,1.5901972E1,9.172724E0,1.669785E1,2.1169928E1,1.8370403E1,1.2517972E1,1.9169756E1,2.7682907E1,2.8870426E1,2.1038202E1,1.7988008E1,3.089793E1,1.7445099E1,1.4918539E1,5.0230722E0,1.4790001E1,1.8586613E1,2.3490038E1,1.8510426E1,1.43005495E1,1.5178143E1,1.9258966E1,1.0108455E1,-7.2739774E-1,1.7730066E1,1.3860736E1,1.7452951E1,2.691204E1,1.7779913E1,2.2477057E1,1.4026145E1,-6.162231E0,2.0208807E1,1.0028167E1,2.4250832E1,3.409954E1,3.275386E1,2.6606754E1,1.5152279E1,2.8301498E1,1.5924438E1,2.7107187E1,3.2258305E1,2.607821E0,1.733389E1,2.489306E1,1.0709206E1,1.5603607E1,1.6421734E1,3.3189855E0,1.0165726E1,2.049585E1,2.0604412E1,1.7883636E1,1.9607454E1,2.7342957E1,1.7156458E1,2.2725576E1,1.6320057E1,5.126185E0,1.5553087E1,9.942151E0,1.1150691E1,2.051973E1,8.985754E0,2.1151613E1,-4.4523773E0,1.0890076E1,1.3601245E1,1.8007772E1,1.5082371E1,3.7625676E-1,1.8412846E1,7.7985725E0,2.5065945E1,3.809941E1,1.8163486E1,1.3748232E1,2.4202847E1,1.8162539E1,1.2958313E1,3.1292225E1,1.2382323E1,-1.4239672E1,-8.967013E0,2.0424234E1,4.093525E0,1.9061098E1,3.5023434E1,2.1442604E1,-1.6127825E1,3.4950756E1,2.5007818E1,3.3965614E1,2.3915602E1,3.1528322E1,1.0751612E1,2.7485285E1,2.5628876E1,4.024967E1,2.0188393E1,1.1036366E1,4.263366E1,1.859416E1,3.2511646E1,-3.6186348E1,-3.8339134E1,1.44976425E1],"categories":[],"categories_nodes":[],"categories_segments":[],"categories_sizes":[],"default_left":[1,1,1,1,1,1,1,1,1,1,1,1,1,1,1,1,1,1,1,1,1,1,1,1,1,1,1,1,1,1,1,1,1,1,1,1,1,1,1,1,1,1,1,1,1,1,1,1,1,1,1,1,1,1,1,1,1,1,1,1,1,1,1,0,0,0,0,0,0,0,0,0,0,0,0,0,0,0,0,0,0,0,0,0,0,0,0,0,0,0,0,0,0,0,0,0,0,0,0,0,0,0,0,0,0,0,0,0,0,0,0,0,0,0,0,0,0,0,0,0,0,0,0,0,0,0,0],"id":8,"left_children":[1,3,5,7,9,11,13,15,17,19,21,23,25,27,29,31,33,35,37,39,41,43,45,47,49,51,53,55,57,59,61,63,65,67,69,71,73,75,77,79,81,83,85,87,89,91,93,95,97,99,101,103,105,107,109,111,113,115,117,119,121,123,125,-1,-1,-1,-1,-1,-1,-1,-1,-1,-1,-1,-1,-1,-1,-1,-1,-1,-1,-1,-1,-1,-1,-1,-1,-1,-1,-1,-1,-1,-1,-1,-1,-1,-1,-1,-1,-1,-1,-1,-1,-1,-1,-1,-1,-1,-1,-1,-1,-1,-1,-1,-1,-1,-1,-1,-1,-1,-1,-1,-1,-1,-1,-1,-1],"loss_changes":[4.10688E5,2.16896E5,2.98346E5,5.70776E5,2.34578E5,5.2355E4,1.033055E5,5.23576E5,1.86742E5,3.38015E5,5.02375E4,4.6036E4,7.458775E4,7.10925E4,6.1118625E4,1.02112E5,3.5422288E5,2.7549E5,1.09146E5,4.2802E4,1.19520375E5,6.3265E4,6.057225E4,6.6916E4,4.017658E4,3.4885E4,3.0863375E4,4.4445E4,6.433925E4,4.6011312E4,1.6618406E4,3.7588E4,7.0927E4,1.4067456E5,2.0090125E5,4.5679E4,2.64977E5,1.0283E5,1.7363212E5,2.84965E4,3.189075E4,1.4594712E5,4.8299953E4,1.7984E4,9.53735E4,1.5972E4,2.2217688E4,3.72905E4,2.5516875E4,2.3876406E4,1.6204121E4,2.1025125E4,2.0239105E4,2.7716062E4,2.1898062E4,1.692825E4,4.245E4,4.5239906E4,2.0587062E4,4.1774844E4,5.921575E4,8.35525E3,1.0779719E4,0E0,0E0,0E0,0E0,0E0,0E0,0E0,0E0,0E0,0E0,0E0,0E0,0E0,0E0,0E0,0E0,0E0,0E0,0E0,0E0,0E0,0E0,0E0,0E0,0E0,0E0,0E0,0E0,0E0,0E0,0E0,0E0,0E0,0E0,0E0,0E0,0E0,0E0,0E0,0E0,0E0,0E0,0E0,0E0,0E0,0E0,0E0,0E0,0E0,0E0,0E0,0E0,0E0,0E0,0E0,0E0,0E0,0E0,0E0,0E0,0E0,0E0,0E0,0E0],"parents":[2147483647,0,0,1,1,2,2,3,3,4,4,5,5,6,6,7,7,8,8,9,9,10,10,11,11,12,12,13,13,14,14,15,15,16,16,17,17,18,18,19,19,20,20,21,21,22,22,23,23,24,24,25,25,26,26,27,27,28,28,29,29,30,30,31,31,32,32,33,33,34,34,35,35,36,36,37,37,38,38,39,39,40,40,41,41,42,42,43,43,44,44,45,45,46,46,47,47,48,48,49,49,50,50,51,51,52,52,53,53,54,54,55,55,56,56,57,57,58,58,59,59,60,60,61,61,62,62],"right_children":[2,4,6,8,10,12,14,16,18,20,22,24,26,28,30,32,34,36,38,40,42,44,46,48,50,52,54,56,58,60,62,64,66,68,70,72,74,76,78,80,82,84,86,88,90,92,94,96,98,100,102,104,106,108,110,112,114,116,118,120,122,124,126,-1,-1,-1,-1,-1,-1,-1,-1,-1,-1,-1,-1,-1,-1,-1,-1,-1,-1,-1,-1,-1,-1,-1,-1,-1,-1,-1,-1,-1,-1,-1,-1,-1,-1,-1,-1,-1,-1,-1,-1,-1,-1,-1,-1,-1,-1,-1,-1,-1,-1,-1,-1,-1,-1,-1,-1,-1,-1,-1,-1,-1,-1,-1,-1],"split_conditions":[1.16E2,8E1,1.185E2,3.2E1,1E2,1.1E2,1.135E2,9.45E1,6.4E1,7.35E1,1.18E2,7.15E1,5.55E1,1.38E2,9.4E1,1E1,4.6E1,8.25E1,7.6E1,1.045E2,1.645E2,6.6E1,5.35E1,8.35E1,1.705E2,1.08E2,7.8E1,6.95E1,6.8E1,4.155E2,1.305E2,1.425E2,3.85E1,4E0,8.85E1,5.15E1,4.8E1,5.45E1,1.405E2,6.6E1,1.65E1,1.255E2,2.12E2,-2.2E1,8.35E1,3.45E1,4.7E1,1.225E2,1.36E2,6.2E1,-6E0,-8.8E1,1.3E2,6.45E1,3.35E1,1.285E2,1.925E2,8E1,9.25E1,1.3E2,2.435E2,9E1,1.72E2,5.2001677E0,7.4679184E0,3.2127619E0,4.6810822E0,4.9265203E0,9.9569565E-1,3.049718E0,6.148755E0,6.181324E0,5.3650913E0,5.8822365E0,8.202888E0,5.1469374E0,6.817673E0,4.896017E0,1.5378555E0,4.6659265E0,2.9826455E0,3.3452075E0,6.155919E0,2.6957264E0,6.3454843E0,-1.3357133E0,3.2670228E0,4.080374E0,5.402332E0,4.5247116E0,1.1287703E-1,5.523854E0,2.339572E0,7.5197835E0,1.1429824E1,5.449046E0,4.1244698E0,7.2608542E0,5.448762E0,3.887494E0,9.387668E0,3.7146971E0,-4.2719016E0,-2.690104E0,6.1272707E0,1.2280575E0,5.7183294E0,1.05070305E1,6.4327817E0,-4.8383474E0,1.0485228E1,7.5023456E0,1.0189685E1,7.1746807E0,9.458497E0,3.2254837E0,8.245585E0,7.688663E0,1.2074901E1,6.056518E0,3.31091E0,1.2790098E1,5.578248E0,9.753494E0,-1.0855905E1,-1.150174E1,4.3492928E0],"split_indices":[1,1,2,1,1,4,5,2,1,2,4,5,12,1,4,1,7,2,4,14,12,4,5,2,13,7,7,14,4,2,11,14,14,1,5,14,1,5,13,0,12,5,5,9,5,11,3,14,1,6,9,6,7,14,5,2,2,7,5,1,5,3,8,0,0,0,0,0,0,0,0,0,0,0,0,0,0,0,0,0,0,0,0,0,0,0,0,0,0,0,0,0,0,0,0,0,0,0,0,0,0,0,0,0,0,0,0,0,0,0,0,0,0,0,0,0,0,0,0,0,0,0,0,0,0,0,0],"split_type":[0,0,0,0,0,0,0,0,0,0,0,0,0,0,0,0,0,0,0,0,0,0,0,0,0,0,0,0,0,0,0,0,0,0,0,0,0,0,0,0,0,0,0,0,0,0,0,0,0,0,0,0,0,0,0,0,0,0,0,0,0,0,0,0,0,0,0,0,0,0,0,0,0,0,0,0,0,0,0,0,0,0,0,0,0,0,0,0,0,0,0,0,0,0,0,0,0,0,0,0,0,0,0,0,0,0,0,0,0,0,0,0,0,0,0,0,0,0,0,0,0,0,0,0,0,0,0],"sum_hessian":[2.62148E5,2.18268E5,4.388E4,1.63089E5,5.5179E4,3.4312E4,9.568E3,8.5419E4,7.767E4,3.0634E4,2.4545E4,2.9181E4,5.131E3,6.668E3,2.9E3,7.0554E4,1.4865E4,5.021E4,2.746E4,1.7734E4,1.29E4,2.1686E4,2.859E3,2.7759E4,1.422E3,3.693E3,1.438E3,5.154E3,1.514E3,2.467E3,4.33E2,4.5901E4,2.4653E4,7.244E3,7.621E3,3.2462E4,1.7748E4,1.8085E4,9.375E3,1.4593E4,3.141E3,1.1786E4,1.114E3,1.5897E4,5.789E3,1.738E3,1.121E3,2.4274E4,3.485E3,1.316E3,1.06E2,3.315E3,3.78E2,9.4E2,4.98E2,1.893E3,3.261E3,8.38E2,6.76E2,2.014E3,4.53E2,4.13E2,2E1,4.5229E4,6.72E2,3.453E3,2.12E4,9.41E2,6.303E3,4.211E3,3.41E3,8.38E3,2.4082E4,8.843E3,8.905E3,1.3692E4,4.393E3,7.683E3,1.692E3,1.3616E4,9.77E2,4.24E2,2.717E3,1.07E4,1.086E3,8.44E2,2.7E2,1.005E3,1.4892E4,5.308E3,4.81E2,1.58E3,1.58E2,9.65E2,1.56E2,2.2162E4,2.112E3,2.486E3,9.99E2,1.241E3,7.5E1,3.2E1,7.4E1,2.4E1,3.291E3,2.29E2,1.49E2,1.92E2,7.48E2,8E0,4.9E2,2.59E2,1.634E3,2.112E3,1.149E3,6.19E2,2.19E2,5.55E2,1.21E2,1.074E3,9.4E2,1.59E2,2.94E2,4.12E2,1E0,4E0,1.6E1],"tree_param":{"num_deleted":"0","num_feature":"15","num_nodes":"127","size_leaf_vector":"0"}},{"base_weights":[1.9523405E1,1.6656734E1,7.245405E1,1.3496683E1,3.1081594E1,6.1132706E1,1.1288644E2,1.1716325E1,1.8373446E1,2.7111769E1,3.9748116E1,5.4607693E1,7.473518E1,1.1132182E2,2.0499849E2,9.380932E0,1.3553234E1,1.703886E1,2.297024E1,2.330934E1,3.0822962E1,3.718284E1,4.6477833E1,4.7545345E1,5.872009E1,8.760984E1,7.076029E1,1.1482855E2,7.676435E1,3.124706E2,9.362533E1,8.02353E0,1.1263912E1,1.2855282E1,1.7293917E1,1.6509842E1,2.3889168E1,2.1736235E1,3.1555696E1,2.2155088E1,3.027879E1,2.9392881E1,3.7186592E1,3.5172855E1,4.6501198E1,4.5631855E1,9.110085E1,5.1076145E1,4.153117E1,6.72133E1,5.5802193E1,7.629713E1,9.895843E1,6.440048E1,7.8110855E1,1.0054037E2,1.3157855E2,2.7091545E1,1.1344359E2,2.955613E1,4.5208057E2,-7.576596E1,1.6370894E2,6.012132E0,9.03409E0,1.0796793E1,1.6513687E1,1.1802151E1,1.4406281E1,1.7022524E1,2.705585E1,1.5288235E1,1.8261929E1,2.2622133E1,3.3399605E1,3.0762655E1,2.1172222E1,5.0991585E1,2.782137E1,2.9492392E1,2.110394E1,2.9995667E1,1.2640182E2,2.9000088E1,5.0889E1,4.0150837E1,1.5544612E1,1.8966984E1,3.64424E1,4.5063908E1,1.0158607E2,4.9120502E1,3.512894E1,9.822915E1,-2.2638502E1,4.685496E1,5.9005882E1,4.5206764E1,2.5986736E1,7.147051E1,4.7364586E1,5.2676685E1,7.02446E1,5.9776398E1,8.609036E1,9.111073E1,1.23547035E2,5.7214504E1,7.420111E1,8.0054924E1,4.0948338E1,9.7404205E1,1.19676445E2,1.5341997E2,1.1591501E2,1.6117125E1,2.6750027E2,2.954593E2,7.94904E1,9.88754E1,-1.4204086E2,7.348823E2,2.5672687E2,-1.1823794E2,3.44333E1,2.0868507E2,5.033957E0],"categories":[],"categories_nodes":[],"categories_segments":[],"categories_sizes":[],"default_left":[1,1,1,1,1,1,1,1,1,1,1,1,1,1,1,1,1,1,1,1,1,1,1,1,1,1,1,1,1,1,1,1,1,1,1,1,1,1,1,1,1,1,1,1,1,1,1,1,1,1,1,1,1,1,1,1,1,1,1,1,1,1,1,0,0,0,0,0,0,0,0,0,0,0,0,0,0,0,0,0,0,0,0,0,0,0,0,0,0,0,0,0,0,0,0,0,0,0,0,0,0,0,0,0,0,0,0,0,0,0,0,0,0,0,0,0,0,0,0,0,0,0,0,0,0,0,0],"id":9,"left_children":[1,3,5,7,9,11,13,15,17,19,21,23,25,27,29,31,33,35,37,39,41,43,45,47,49,51,53,55,57,59,61,63,65,67,69,71,73,75,77,79,81,83,85,87,89,91,93,95,97,99,101,103,105,107,109,111,113,115,117,119,121,123,125,-1,-1,-1,-1,-1,-1,-1,-1,-1,-1,-1,-1,-1,-1,-1,-1,-1,-1,-1,-1,-1,-1,-1,-1,-1,-1,-1,-1,-1,-1,-1,-1,-1,-1,-1,-1,-1,-1,-1,-1,-1,-1,-1,-1,-1,-1,-1,-1,-1,-1,-1,-1,-1,-1,-1,-1,-1,-1,-1,-1,-1,-1,-1,-1],"loss_changes":[3.9775904E7,1.1335328E7,6.158064E6,1.770944E6,1.536392E6,9.29988E5,4.01616E5,6.40966E5,3.34286E5,4.31828E5,2.406E5,2.03878E5,1.68258E5,3.42376E5,5.452811E5,1.68084E5,2.18162E5,1.52837E5,1.293295E5,1.21155E5,1.40046E5,1.88809E5,1.41936E5,5.3599E4,1.07596E5,9.51565E4,1.16983E5,6.15964E5,4.88856E5,9.345825E5,3.0919244E5,7.766975E4,6.74065E4,1.1498E5,3.437825E4,8.374E4,3.5744125E4,5.3991E4,1.10354625E5,9.961E4,5.4692875E4,1.05487E5,1.8169625E5,1.71473E5,1.3801275E5,1.3751E5,5.9788312E4,5.2432E4,5.4589E4,9.32835E4,1.47519E5,6.03795E4,6.515725E4,9.47045E4,8.3851E4,7.3743E4,3.95148E5,3.017369E5,9.344156E5,1.2109915E5,6.95278E5,4.151436E4,1.2740806E5,0E0,0E0,0E0,0E0,0E0,0E0,0E0,0E0,0E0,0E0,0E0,0E0,0E0,0E0,0E0,0E0,0E0,0E0,0E0,0E0,0E0,0E0,0E0,0E0,0E0,0E0,0E0,0E0,0E0,0E0,0E0,0E0,0E0,0E0,0E0,0E0,0E0,0E0,0E0,0E0,0E0,0E0,0E0,0E0,0E0,0E0,0E0,0E0,0E0,0E0,0E0,0E0,0E0,0E0,0E0,0E0,0E0,0E0,0E0,0E0,0E0,0E0,0E0,0E0],"parents":[2147483647,0,0,1,1,2,2,3,3,4,4,5,5,6,6,7,7,8,8,9,9,10,10,11,11,12,12,13,13,14,14,15,15,16,16,17,17,18,18,19,19,20,20,21,21,22,22,23,23,24,24,25,25,26,26,27,27,28,28,29,29,30,30,31,31,32,32,33,33,34,34,35,35,36,36,37,37,38,38,39,39,40,40,41,41,42,42,43,43,44,44,45,45,46,46,47,47,48,48,49,49,50,50,51,51,52,52,53,53,54,54,55,55,56,56,57,57,58,58,59,59,60,60,61,61,62,62],"right_children":[2,4,6,8,10,12,14,16,18,20,22,24,26,28,30,32,34,36,38,40,42,44,46,48,50,52,54,56,58,60,62,64,66,68,70,72,74,76,78,80,82,84,86,88,90,92,94,96,98,100,102,104,106,108,110,112,114,116,118,120,122,124,126,-1,-1,-1,-1,-1,-1,-1,-1,-1,-1,-1,-1,-1,-1,-1,-1,-1,-1,-1,-1,-1,-1,-1,-1,-1,-1,-1,-1,-1,-1,-1,-1,-1,-1,-1,-1,-1,-1,-1,-1,-1,-1,-1,-1,-1,-1,-1,-1,-1,-1,-1,-1,-1,-1,-1,-1,-1,-1,-1,-1,-1,-1,-1,-1],"split_conditions":[1.305E2,1.045E2,2.625E2,6.65E1,1.615E2,3.045E2,2.135E2,5.85E1,5.75E1,5.65E1,9.55E1,2.225E2,-2.6E1,4.865E2,7.4E1,2.15E1,1.145E2,4.75E1,7.45E1,7.15E1,3.4E1,2.175E2,3.225E2,9E1,-2.2E1,1.015E2,1.4E1,5.475E2,7.2E1,-1.3E1,3.6E1,2.65E1,4.85E1,3.35E1,5.45E1,7.85E1,8.15E1,4.45E1,6.45E1,-4.2E1,2.75E2,9.35E1,7.6E1,4.85E1,5.7E1,2.545E2,1.24E2,1.2E1,1.405E2,3.2E1,3.6E1,3.235E2,2.285E2,2.165E2,4.735E2,3.615E2,1.0285E3,1.28E2,1E1,1.542E3,5.3E1,1.33E2,9.6E1,1.8036398E0,2.710227E0,3.239038E0,4.9541063E0,3.5406454E0,4.3218846E0,5.106757E0,8.1167555E0,4.5864706E0,5.4785786E0,6.78664E0,1.0019882E1,9.228797E0,6.351667E0,1.5297476E1,8.346411E0,8.847718E0,6.331182E0,8.9987E0,3.7920547E1,8.7000265E0,1.5266701E1,1.2045252E1,4.663384E0,5.6900954E0,1.0932721E1,1.3519173E1,3.047582E1,1.4736152E1,1.0538683E1,2.9468746E1,-6.791551E0,1.4056489E1,1.7701765E1,1.356203E1,7.796021E0,2.1441154E1,1.4209376E1,1.5803006E1,2.107338E1,1.793292E1,2.582711E1,2.7333221E1,3.7064114E1,1.7164352E1,2.2260334E1,2.4016478E1,1.2284502E1,2.9221262E1,3.5902935E1,4.6025993E1,3.4774506E1,4.8351374E0,8.0250084E1,8.863779E1,2.3847122E1,2.966262E1,-4.261226E1,2.204647E2,7.701807E1,-3.5471382E1,1.032999E1,6.2605526E1,1.5101871E0],"split_indices":[12,2,12,2,13,13,11,14,12,12,5,13,0,5,1,12,14,11,5,8,0,2,13,1,0,5,0,13,8,9,10,14,12,12,8,13,5,14,14,0,8,11,0,12,0,2,11,0,14,6,0,2,12,12,2,12,2,7,11,2,10,7,7,0,0,0,0,0,0,0,0,0,0,0,0,0,0,0,0,0,0,0,0,0,0,0,0,0,0,0,0,0,0,0,0,0,0,0,0,0,0,0,0,0,0,0,0,0,0,0,0,0,0,0,0,0,0,0,0,0,0,0,0,0,0,0,0],"split_type":[0,0,0,0,0,0,0,0,0,0,0,0,0,0,0,0,0,0,0,0,0,0,0,0,0,0,0,0,0,0,0,0,0,0,0,0,0,0,0,0,0,0,0,0,0,0,0,0,0,0,0,0,0,0,0,0,0,0,0,0,0,0,0,0,0,0,0,0,0,0,0,0,0,0,0,0,0,0,0,0,0,0,0,0,0,0,0,0,0,0,0,0,0,0,0,0,0,0,0,0,0,0,0,0,0,0,0,0,0,0,0,0,0,0,0,0,0,0,0,0,0,0,0,0,0,0,0],"sum_hessian":[2.62148E5,2.48681E5,1.3467E4,2.03994E5,4.4687E4,1.0523E4,2.944E3,1.49441E5,5.4553E4,3.0651E4,1.4036E4,7.115E3,3.408E3,2.897E3,4.7E1,6.5796E4,8.3645E4,4.2282E4,1.2271E4,1.5143E4,1.5508E4,1.0167E4,3.869E3,2.623E3,4.492E3,7.99E2,2.609E3,2.628E3,2.69E2,2.3E1,2.4E1,3.8237E4,2.7559E4,7.0496E4,1.3149E4,3.9254E4,3.028E3,1.0732E4,1.539E3,1.2995E4,2.148E3,1.2667E4,2.841E3,8.367E3,1.8E3,3.799E3,7E1,1.648E3,9.75E2,1.143E3,3.349E3,4.04E2,3.95E2,1.404E3,1.205E3,1.422E3,1.206E3,1.15E2,1.54E2,8E0,1.5E1,7E0,1.7E1,1.2789E4,2.5448E4,2.531E4,2.249E3,4.1992E4,2.8504E4,1.2796E4,3.53E2,2.3134E4,1.612E4,2.675E3,3.53E2,6.28E2,1.0104E4,2.46E2,1.293E3,1.625E3,1.137E4,2.143E3,5E0,1.2442E4,2.25E2,2.498E3,3.43E2,6.09E2,7.758E3,1.756E3,4.4E1,2.849E3,9.5E2,6.6E1,4E0,1.08E3,5.68E2,7.87E2,1.88E2,9.39E2,2.04E2,2.757E3,5.92E2,1.53E2,2.51E2,3.03E2,9.2E1,8.14E2,5.9E2,1.144E3,6.1E1,1.227E3,1.95E2,5E2,7.06E2,1.11E2,4E0,2.3E1,1.31E2,6E0,2E0,5E0,1E1,5E0,2E0,1.3E1,4E0],"tree_param":{"num_deleted":"0","num_feature":"15","num_nodes":"127","size_leaf_vector":"0"}},{"base_weights":[1.2035404E1,1.1569952E1,1.3756328E1,1.2047799E1,9.768117E0,1.2839285E1,1.7032455E1,1.0679519E1,1.3339171E1,1.1109302E1,6.272823E0,1.1896896E1,1.38189945E1,1.84865E1,1.15056505E1,1.1200119E1,9.8495716E-1,1.3016644E1,1.8584122E1,1.2281745E1,1.0196428E1,4.894583E0,1.0836791E1,1.2178161E1,3.4278264E0,1.5198361E1,1.2898554E1,1.7381474E1,2.4461184E1,3.3391697E1,1.0568472E1,1.2216899E1,9.280586E0,-6.2539644E0,5.8947387E0,1.337833E1,9.608976E0,2.210945E1,1.1847238E1,1.1990397E1,1.6676294E1,9.051491E0,1.2670417E1,3.4469845E0,1.1082399E1,9.502183E0,2.1929626E1,1.1456569E1,1.4561437E1,-5.903548E0,9.123795E0,1.9510704E1,1.4311745E1,1.2128915E1,1.7658077E1,1.9869034E1,1.553347E1,2.461292E1,-3.863086E1,-2.7283257E1,3.738489E1,8.952058E0,2.1370712E1,1.1839679E1,1.6129747E1,1.1206418E1,7.0531135E0,-8.737565E0,7.309053E-1,2.0812634E1,-3.0817885E-2,1.2814681E1,1.790414E1,2.3265455E0,1.0937542E1,1.5440409E1,2.6795547E1,1.5066286E1,-6.9504347E0,-3.601796E0,1.2115604E1,2.2724323E1,1.238004E1,7.3696423E0,1.0301259E1,1.205282E1,1.924145E1,4.604565E0,-9.4571644E-1,5.171658E0,1.5811755E1,1.4716313E1,5.3300395E0,3.4302547E1,1.4294843E1,1.1608163E1,-8.4772676E-1,1.575775E1,7.829531E0,-5.3867626E-1,-2.8590723E1,2.1354864E1,4.9950414E0,2.7275454E1,1.7554436E1,1.390702E1,2.4373022E1,1.1352489E1,1.6130789E1,2.11517E1,1.2829089E1,9.408258E0,2.0618633E1,1.3614985E1,2.0120169E1,2.5024143E1,1.2211249E0,-6.443549E1,1.9391521E1,2.77925E1,-4.109463E1,3.907705E1,-1.215009E1,6.6778E0,1.5835525E1,2.42249E1,8.741523E0],"categories":[],"categories_nodes":[],"categories_segments":[],"categories_sizes":[],"default_left":[1,1,1,1,1,1,1,1,1,1,1,1,1,1,1,1,1,1,1,1,1,1,1,1,1,1,1,1,1,1,1,1,1,1,1,1,1,1,1,1,1,1,1,1,1,1,1,1,1,1,1,1,1,1,1,1,1,1,1,1,1,1,1,0,0,0,0,0,0,0,0,0,0,0,0,0,0,0,0,0,0,0,0,0,0,0,0,0,0,0,0,0,0,0,0,0,0,0,0,0,0,0,0,0,0,0,0,0,0,0,0,0,0,0,0,0,0,0,0,0,0,0,0,0,0,0,0],"id":10,"left_children":[1,3,5,7,9,11,13,15,17,19,21,23,25,27,29,31,33,35,37,39,41,43,45,47,49,51,53,55,57,59,61,63,65,67,69,71,73,75,77,79,81,83,85,87,89,91,93,95,97,99,101,103,105,107,109,111,113,115,117,119,121,123,125,-1,-1,-1,-1,-1,-1,-1,-1,-1,-1,-1,-1,-1,-1,-1,-1,-1,-1,-1,-1,-1,-1,-1,-1,-1,-1,-1,-1,-1,-1,-1,-1,-1,-1,-1,-1,-1,-1,-1,-1,-1,-1,-1,-1,-1,-1,-1,-1,-1,-1,-1,-1,-1,-1,-1,-1,-1,-1,-1,-1,-1,-1,-1,-1],"loss_changes":[2.09824E5,1.7755E5,1.67433E5,2.88032E5,2.0271675E5,4.00925E4,9.783725E4,3.9967E5,1.41685E5,3.3333E4,7.541728E4,5.2916E4,2.693825E4,6.333875E4,5.182747E4,1.46571E5,1.43518E5,9.7291E4,1.1511425E5,1.7315125E4,4.96875E4,8.252283E4,4.0978E4,3.6837E4,3.811013E4,3.2403125E4,4.67655E4,3.717525E4,1.5358625E4,2.6217797E4,4.2430688E4,7.2322E4,1.1157875E5,2.831771E4,2.126834E5,1.82049E5,7.338981E4,9.9217E4,1.0121797E5,2.509675E4,2.1752984E4,2.51955E4,2.2332E4,3.799368E4,4.8753844E4,5.39805E4,2.7660094E4,3.082575E4,4.011975E4,3.309075E4,2.2365418E4,2.1622562E4,2.8548375E4,3.4129125E4,2.9809E4,2.7031375E4,4.093425E4,1.44175625E4,7.238487E3,6.466825E3,8.68925E3,3.316067E4,1.1214859E4,0E0,0E0,0E0,0E0,0E0,0E0,0E0,0E0,0E0,0E0,0E0,0E0,0E0,0E0,0E0,0E0,0E0,0E0,0E0,0E0,0E0,0E0,0E0,0E0,0E0,0E0,0E0,0E0,0E0,0E0,0E0,0E0,0E0,0E0,0E0,0E0,0E0,0E0,0E0,0E0,0E0,0E0,0E0,0E0,0E0,0E0,0E0,0E0,0E0,0E0,0E0,0E0,0E0,0E0,0E0,0E0,0E0,0E0,0E0,0E0,0E0,0E0,0E0,0E0],"parents":[2147483647,0,0,1,1,2,2,3,3,4,4,5,5,6,6,7,7,8,8,9,9,10,10,11,11,12,12,13,13,14,14,15,15,16,16,17,17,18,18,19,19,20,20,21,21,22,22,23,23,24,24,25,25,26,26,27,27,28,28,29,29,30,30,31,31,32,32,33,33,34,34,35,35,36,36,37,37,38,38,39,39,40,40,41,41,42,42,43,43,44,44,45,45,46,46,47,47,48,48,49,49,50,50,51,51,52,52,53,53,54,54,55,55,56,56,57,57,58,58,59,59,60,60,61,61,62,62],"right_children":[2,4,6,8,10,12,14,16,18,20,22,24,26,28,30,32,34,36,38,40,42,44,46,48,50,52,54,56,58,60,62,64,66,68,70,72,74,76,78,80,82,84,86,88,90,92,94,96,98,100,102,104,106,108,110,112,114,116,118,120,122,124,126,-1,-1,-1,-1,-1,-1,-1,-1,-1,-1,-1,-1,-1,-1,-1,-1,-1,-1,-1,-1,-1,-1,-1,-1,-1,-1,-1,-1,-1,-1,-1,-1,-1,-1,-1,-1,-1,-1,-1,-1,-1,-1,-1,-1,-1,-1,-1,-1,-1,-1,-1,-1,-1,-1,-1,-1,-1,-1,-1,-1,-1,-1,-1,-1],"split_conditions":[1.08E2,8E1,1.185E2,2.8E1,9.45E1,4.4E1,1.375E2,1.065E2,2.275E2,5.45E1,2E0,5.55E1,7.8E1,2.585E2,1.4E1,1E1,5.6E1,7.75E1,8.8E1,2.85E1,9.55E1,1.1E2,1.28E2,6.75E1,5.4E1,1.45E1,6.65E1,2.4E1,1.02E2,6.85E1,9.6E1,8.6E1,6.15E1,1.145E2,8E0,1.135E2,1.8E1,3.2E1,7.2E1,-1.4E1,3.45E1,2.6E1,6.15E1,1.275E2,9.2E1,5E1,-8E0,8E1,1.2E1,4E1,-3.2E1,1.18E2,7.6E1,8.15E1,1.045E2,3.55E1,1.02E2,8.05E1,7E0,-2.3E1,2.26E2,4.19E2,9.75E1,3.5519037E0,4.8389244E0,3.3619256E0,2.1159341E0,-2.6212697E0,2.192716E-1,6.24379E0,-9.245366E-3,3.8444045E0,5.3712425E0,6.9796365E-1,3.2812626E0,4.632123E0,8.038665E0,4.519886E0,-2.0851305E0,-1.0805389E0,3.6346815E0,6.8172975E0,3.7140121E0,2.2108927E0,3.0903778E0,3.6158462E0,5.772435E0,1.3813696E0,-2.8371495E-1,1.5514975E0,4.743527E0,4.414894E0,1.5990119E0,1.0290765E1,4.288453E0,3.482449E0,-2.5431803E-1,4.727325E0,2.3488595E0,-1.6160288E-1,-8.577217E0,6.4064593E0,1.4985125E0,8.182636E0,5.2663307E0,4.1721063E0,7.311907E0,3.405747E0,4.8392367E0,6.34551E0,3.848727E0,2.8224776E0,6.1855903E0,4.084496E0,6.036051E0,7.507243E0,3.6633748E-1,-1.9330648E1,5.8174567E0,8.33775E0,-1.232839E1,1.1723115E1,-3.6450272E0,2.0033402E0,4.7506576E0,7.26747E0,2.622457E0],"split_indices":[1,1,2,1,13,4,5,12,13,2,9,8,4,2,4,1,4,5,4,11,14,4,7,13,7,12,12,7,9,12,4,4,13,14,1,2,4,4,1,9,11,4,8,12,1,7,6,3,6,9,0,1,0,2,14,12,7,11,0,0,8,2,11,0,0,0,0,0,0,0,0,0,0,0,0,0,0,0,0,0,0,0,0,0,0,0,0,0,0,0,0,0,0,0,0,0,0,0,0,0,0,0,0,0,0,0,0,0,0,0,0,0,0,0,0,0,0,0,0,0,0,0,0,0,0,0,0],"split_type":[0,0,0,0,0,0,0,0,0,0,0,0,0,0,0,0,0,0,0,0,0,0,0,0,0,0,0,0,0,0,0,0,0,0,0,0,0,0,0,0,0,0,0,0,0,0,0,0,0,0,0,0,0,0,0,0,0,0,0,0,0,0,0,0,0,0,0,0,0,0,0,0,0,0,0,0,0,0,0,0,0,0,0,0,0,0,0,0,0,0,0,0,0,0,0,0,0,0,0,0,0,0,0,0,0,0,0,0,0,0,0,0,0,0,0,0,0,0,0,0,0,0,0,0,0,0,0],"sum_hessian":[2.62148E5,2.06346E5,5.5802E4,1.63089E5,4.3257E4,4.3602E4,1.22E4,7.9191E4,8.3898E4,3.126E4,1.1997E4,2.2231E4,2.1371E4,9.657E3,2.543E3,7.5155E4,4.036E3,7.9041E4,4.857E3,1.3679E4,1.7581E4,9.216E3,2.781E3,2.1516E4,7.15E2,8.547E3,1.2824E4,8.153E3,1.504E3,1.03E2,2.44E3,4.9127E4,2.6028E4,1.631E3,2.405E3,7.1454E4,7.587E3,3.187E3,1.67E3,1.2832E4,8.47E2,1.2022E4,5.559E3,7.47E3,1.746E3,2.484E3,2.97E2,1.652E4,4.996E3,2.71E2,4.44E2,1.454E3,7.093E3,1.1042E4,1.782E3,3.471E3,4.682E3,1.501E3,3E0,6E0,9.7E1,2.124E3,3.16E2,4.4811E4,4.316E3,1.3957E4,1.2071E4,1.203E3,4.28E2,6.83E2,1.722E3,6.3544E4,7.91E3,1.171E3,6.416E3,1.317E3,1.87E3,1.426E3,2.44E2,1.02E2,1.273E4,3.5E2,4.97E2,5.128E3,6.894E3,5.084E3,4.75E2,5.912E3,1.558E3,7.77E2,9.69E2,1.103E3,1.381E3,1.12E2,1.85E2,1.6319E4,2.01E2,4.241E3,7.55E2,2.2E2,5.1E1,1.11E2,3.33E2,2.9E2,1.164E3,6.821E3,2.72E2,9.251E3,1.791E3,1.032E3,7.5E2,2.33E2,3.238E3,3.304E3,1.378E3,1.475E3,2.6E1,2E0,1E0,1E0,5E0,9.4E1,3E0,1.598E3,5.26E2,2.57E2,5.9E1],"tree_param":{"num_deleted":"0","num_feature":"15","num_nodes":"127","size_leaf_vector":"0"}},{"base_weights":[1.3671296E1,1.0914019E1,4.1342854E1,8.868906E0,1.8102575E1,3.4933445E1,7.5297844E1,6.7579513E0,1.0508371E1,1.5249419E1,2.2968962E1,2.91875E1,4.294892E1,6.2590782E1,8.3850555E1,4.9645166E0,7.7602234E0,1.0164952E1,1.7964972E1,1.4374776E1,2.3502993E1,2.2024075E1,3.3512253E1,2.8405777E1,4.4268017E1,3.975368E1,5.3034588E1,7.664857E1,5.8601017E1,8.70305E1,4.655518E1,3.401172E0,5.8083653E0,1.2705487E1,7.515466E0,9.841722E0,1.5081192E1,1.5231647E1,2.133106E1,1.1934632E1,1.557689E1,2.927481E1,1.9350292E1,3.1305792E1,2.090248E1,2.5207958E1,4.1692547E1,2.984042E1,1.9716885E1,4.144766E1,8.392867E1,4.097257E1,2.1456272E1,5.5210365E1,3.3459282E1,5.9738865E1,8.731903E1,4.234233E1,6.247723E1,8.562187E1,1.8685278E2,3.866286E2,3.8561718E1,3.364387E0,4.054855E1,5.5663166E0,1.13399935E1,7.347952E0,1.3818241E1,7.2631245E0,1.1316065E1,1.4720158E1,9.4655285E0,1.0595541E1,1.6457678E1,9.221406E0,1.7738592E1,2.0651602E1,4.287214E1,1.0668746E1,1.5250005E1,1.5069124E1,1.9699106E1,2.8366522E1,7.75947E1,2.0044985E1,-2.5427623E0,1.1398761E1,3.3322952E1,2.0172384E1,3.286185E1,2.3986807E0,2.7227337E1,3.5526382E1,5.2840076E1,2.8975515E1,4.0223423E1,1.1562728E1,2.598477E1,4.3385174E1,-2.8741148E1,1.0877905E2,-5.4701953E0,4.7488808E1,3.821441E1,-4.2148113E1,2.4580027E1,3.2984455E1,5.7019352E1,4.2156094E1,-2.240137E1,6.702605E1,-3.5867355E1,7.84881E1,1.2864572E2,-8.940104E0,4.59284E1,6.511686E1,3.8375843E1,8.518731E1,3.5316052E2,5.7962482E1,3.311137E2,7.8102386E2,-5.1777954E0,9.704488E0,9.562259E1],"categories":[],"categories_nodes":[],"categories_segments":[],"categories_sizes":[],"default_left":[1,1,1,1,1,1,1,1,1,1,1,1,1,1,1,1,1,1,1,1,1,1,1,1,1,1,1,1,1,1,1,1,1,1,1,1,1,1,1,1,1,1,1,1,1,1,1,1,1,1,1,1,1,1,1,1,1,1,1,1,1,1,1,0,0,0,0,0,0,0,0,0,0,0,0,0,0,0,0,0,0,0,0,0,0,0,0,0,0,0,0,0,0,0,0,0,0,0,0,0,0,0,0,0,0,0,0,0,0,0,0,0,0,0,0,0,0,0,0,0,0,0,0,0,0,0,0],"id":11,"left_children":[1,3,5,7,9,11,13,15,17,19,21,23,25,27,29,31,33,35,37,39,41,43,45,47,49,51,53,55,57,59,61,63,65,67,69,71,73,75,77,79,81,83,85,87,89,91,93,95,97,99,101,103,105,107,109,111,113,115,117,119,121,123,125,-1,-1,-1,-1,-1,-1,-1,-1,-1,-1,-1,-1,-1,-1,-1,-1,-1,-1,-1,-1,-1,-1,-1,-1,-1,-1,-1,-1,-1,-1,-1,-1,-1,-1,-1,-1,-1,-1,-1,-1,-1,-1,-1,-1,-1,-1,-1,-1,-1,-1,-1,-1,-1,-1,-1,-1,-1,-1,-1,-1,-1,-1,-1,-1],"loss_changes":[2.0001032E7,3.504596E6,5.166992E6,6.4225E5,7.32756E5,9.19136E5,4.04582E5,1.458025E5,2.6732E5,2.399655E5,1.93654E5,1.36E5,2.66721E5,8.0817E4,2.62911E5,3.8356562E4,6.290025E4,1.58547E5,4.1979625E4,8.81105E4,7.5845375E4,1.85805E5,1.0784325E5,1.3743E5,6.050375E4,1.40497E5,8.3506E4,5.4868375E4,7.2288E4,2.75491E5,4.716779E5,1.38015E4,2.52305E4,1.45223125E4,4.7481E4,1.71837E5,3.7854E4,3.8122562E4,2.9236E4,4.1550125E4,4.1907E4,5.6258375E4,2.8294E4,7.70805E4,1.388925E5,3.6691E4,5.3525E4,8.4156E4,8.0043375E4,7.413869E4,8.279409E4,1.04979E5,8.011244E4,7.05715E4,9.95637E4,9.436844E4,6.362325E4,4.3075906E4,5.8448E4,2.07786E5,5.014352E5,6.2215025E5,2.888769E5,0E0,0E0,0E0,0E0,0E0,0E0,0E0,0E0,0E0,0E0,0E0,0E0,0E0,0E0,0E0,0E0,0E0,0E0,0E0,0E0,0E0,0E0,0E0,0E0,0E0,0E0,0E0,0E0,0E0,0E0,0E0,0E0,0E0,0E0,0E0,0E0,0E0,0E0,0E0,0E0,0E0,0E0,0E0,0E0,0E0,0E0,0E0,0E0,0E0,0E0,0E0,0E0,0E0,0E0,0E0,0E0,0E0,0E0,0E0,0E0,0E0,0E0,0E0,0E0],"parents":[2147483647,0,0,1,1,2,2,3,3,4,4,5,5,6,6,7,7,8,8,9,9,10,10,11,11,12,12,13,13,14,14,15,15,16,16,17,17,18,18,19,19,20,20,21,21,22,22,23,23,24,24,25,25,26,26,27,27,28,28,29,29,30,30,31,31,32,32,33,33,34,34,35,35,36,36,37,37,38,38,39,39,40,40,41,41,42,42,43,43,44,44,45,45,46,46,47,47,48,48,49,49,50,50,51,51,52,52,53,53,54,54,55,55,56,56,57,57,58,58,59,59,60,60,61,61,62,62],"right_children":[2,4,6,8,10,12,14,16,18,20,22,24,26,28,30,32,34,36,38,40,42,44,46,48,50,52,54,56,58,60,62,64,66,68,70,72,74,76,78,80,82,84,86,88,90,92,94,96,98,100,102,104,106,108,110,112,114,116,118,120,122,124,126,-1,-1,-1,-1,-1,-1,-1,-1,-1,-1,-1,-1,-1,-1,-1,-1,-1,-1,-1,-1,-1,-1,-1,-1,-1,-1,-1,-1,-1,-1,-1,-1,-1,-1,-1,-1,-1,-1,-1,-1,-1,-1,-1,-1,-1,-1,-1,-1,-1,-1,-1,-1,-1,-1,-1,-1,-1,-1,-1,-1,-1,-1,-1,-1],"split_conditions":[9.75E1,8.05E1,3.685E2,5E-1,1.255E2,2.325E2,2.925E2,3.95E1,5.85E1,7.85E1,4.7E1,1.695E2,1.955E2,2.76E2,6.02E2,1.15E1,-6.1E1,5.7E1,5.15E1,3.65E1,8.55E1,-4.45E1,1.585E2,1.395E2,1.115E2,1.555E2,1.3E2,7.4E1,2.155E2,2.195E2,-8.4E1,7.65E1,4.05E1,1.55E1,5.35E1,-5.7E1,5.05E1,2.55E1,1.115E2,1.005E2,8.05E1,7.35E1,1.965E2,-7.15E1,1.065E2,2.85E1,5.7E1,9.85E1,1.435E2,9.45E1,2.155E2,-2E1,1.255E2,-5.35E1,2.365E2,1.32E2,3.8E1,-6.6E1,1.485E2,6E2,2E0,-1.8E1,9.8E1,1.0093162E0,1.2164565E1,1.669895E0,3.4019983E0,2.2043858E0,4.1454725E0,2.1789374E0,3.3948195E0,4.4160476E0,2.8396587E0,3.1786625E0,4.9373035E0,2.7664218E0,5.321578E0,6.195481E0,1.2861642E1,3.200624E0,4.5750017E0,4.5207376E0,5.909732E0,8.509957E0,2.3278412E1,6.013496E0,-7.628287E-1,3.4196284E0,9.996886E0,6.0517154E0,9.858556E0,7.1960425E-1,8.168201E0,1.0657915E1,1.5852023E1,8.692655E0,1.2067027E1,3.4688184E0,7.795431E0,1.30155525E1,-8.622345E0,3.2633717E1,-1.6410587E0,1.4246643E1,1.1464323E1,-1.2644435E1,7.374008E0,9.895337E0,1.7105806E1,1.2646829E1,-6.720411E0,2.0107815E1,-1.0760207E1,2.354643E1,3.859372E1,-2.6820312E0,1.377852E1,1.9535059E1,1.15127535E1,2.5556194E1,1.0594816E2,1.7388746E1,9.9334114E1,2.3430717E2,-1.5533386E0,2.9113464E0,2.8686777E1],"split_indices":[12,13,13,4,2,13,12,14,8,5,0,12,12,2,5,12,0,0,11,12,14,0,2,14,11,14,1,8,12,11,6,2,12,12,12,0,2,12,11,14,12,11,14,0,8,12,0,8,2,11,13,0,2,3,5,10,6,3,14,5,6,0,7,0,0,0,0,0,0,0,0,0,0,0,0,0,0,0,0,0,0,0,0,0,0,0,0,0,0,0,0,0,0,0,0,0,0,0,0,0,0,0,0,0,0,0,0,0,0,0,0,0,0,0,0,0,0,0,0,0,0,0,0,0,0,0,0],"split_type":[0,0,0,0,0,0,0,0,0,0,0,0,0,0,0,0,0,0,0,0,0,0,0,0,0,0,0,0,0,0,0,0,0,0,0,0,0,0,0,0,0,0,0,0,0,0,0,0,0,0,0,0,0,0,0,0,0,0,0,0,0,0,0,0,0,0,0,0,0,0,0,0,0,0,0,0,0,0,0,0,0,0,0,0,0,0,0,0,0,0,0,0,0,0,0,0,0,0,0,0,0,0,0,0,0,0,0,0,0,0,0,0,0,0,0,0,0,0,0,0,0,0,0,0,0,0,0],"sum_hessian":[2.62148E5,2.38395E5,2.3753E4,1.85596E5,5.2799E4,1.9983E4,3.77E3,8.1134E4,1.04462E5,3.3287E4,1.9512E4,1.1642E4,8.341E3,1.52E3,2.25E3,2.9089E4,5.2045E4,9.9865E4,4.597E3,3.01E4,3.187E3,1.791E4,1.602E3,1.1071E4,5.71E2,6.338E3,2.003E3,3.32E2,1.188E3,2.072E3,1.78E2,1.0199E4,1.889E4,2.452E3,4.9593E4,9.3707E4,6.158E3,2.54E3,2.057E3,9.938E3,2.0162E4,1.331E3,1.856E3,1.928E3,1.5982E4,7.97E2,8.05E2,9.5E3,1.571E3,5.35E2,3.6E1,5.941E3,3.97E2,1.801E3,2.02E2,1.31E2,2.01E2,2.31E2,9.57E2,2.045E3,2.7E1,3E0,1.75E2,1.019E4,9E0,1.81E4,7.9E2,4.23E2,2.029E3,4.6508E4,3.085E3,6.706E3,8.7001E4,1.448E3,4.71E3,7.49E2,1.791E3,1.996E3,6.1E1,7.195E3,2.743E3,1.7955E4,2.207E3,1.308E3,2.3E1,1.799E3,5.7E1,1.78E2,1.75E3,1.5065E4,9.17E2,6.5E1,7.32E2,5.21E2,2.84E2,8.773E3,7.27E2,6.84E2,8.87E2,5.21E2,1.4E1,2.8E1,8E0,1.762E3,4.179E3,1.8E1,3.79E2,1.37E2,1.664E3,1.75E2,2.7E1,1.22E2,9E0,1.68E2,3.3E1,1.5E1,2.16E2,8.61E2,9.6E1,2.043E3,2E0,1.5E1,1.2E1,1E0,2E0,1.17E2,5.8E1],"tree_param":{"num_deleted":"0","num_feature":"15","num_nodes":"127","size_leaf_vector":"0"}},{"base_weights":[8.425503E0,8.137846E0,9.967566E0,8.518802E0,7.3491693E0,9.444074E0,1.3665514E1,7.7280083E0,1.0541323E1,7.863989E0,4.610638E0,1.01295185E1,7.4114604E0,1.530931E1,6.156082E0,8.134858E0,4.3640847E0,9.42586E0,1.5973426E1,7.441756E0,9.579981E0,2.7164655E0,9.963292E0,1.1993647E1,9.215058E0,6.763413E0,1.2943342E1,1.4074172E1,2.202664E1,2.8926108E0,1.5976618E1,8.05515E0,1.3938893E1,-2.5184518E-1,6.327409E0,9.717312E0,2.8554106E0,1.9195812E1,1.01437645E1,7.9899025E0,5.70095E0,9.690227E0,-1.0432797E1,5.656835E-1,7.973897E0,1.5460524E1,6.4154E0,1.0664202E1,1.57509365E1,1.200702E1,8.668073E0,6.9894576E0,-7.9329658E0,2.3314865E1,9.521058E0,2.660545E0,1.489924E1,2.261269E1,-8.384114E0,4.7783895E0,-2.0865753E1,-1.7801853E1,2.1355076E1,8.848873E0,7.561853E0,-1.1508754E0,1.6239697E1,3.4439225E0,-1.21475725E1,8.165091E0,-1.808106E0,8.552283E0,1.1410931E1,7.7739177E0,-1.7077105E0,1.5811175E1,2.5932714E1,1.7834349E1,3.3134809E0,7.958654E0,2.617217E1,4.8897915E0,1.0700667E1,9.994605E0,4.994233E0,-2.1769922E1,2.100898E1,3.9231544E0,-2.1513753E0,1.4526926E1,4.738547E0,-7.116739E0,1.7560024E1,1.1949078E0,1.509655E1,1.8975193E1,1.02533245E1,1.6636402E1,-1.5217435E0,5.443992E0,1.3502788E1,8.219691E0,1.3537249E1,7.2701674E0,-1.777562E0,-3.099419E1,5.595507E0,2.6465897E1,-1.4066188E1,5.3079635E-1,1.3457731E1,-1.777329E1,1.0192016E1,2.283129E1,1.370093E1,1.8322767E1,2.6167732E1,3.2577137E1,-3.0208796E1,-2.781619E-1,1.8567928E1,-6.844834E0,-5.1108715E1,2.6658346E1,-3.1317041E1,3.3605247E1,9.730106E0],"categories":[],"categories_nodes":[],"categories_segments":[],"categories_sizes":[],"default_left":[1,1,1,1,1,1,1,1,1,1,1,1,1,1,1,1,1,1,1,1,1,1,1,1,1,1,1,1,1,1,1,1,1,1,1,1,1,1,1,1,1,1,1,1,1,1,1,1,1,1,1,1,1,1,1,1,1,1,1,1,1,1,1,0,0,0,0,0,0,0,0,0,0,0,0,0,0,0,0,0,0,0,0,0,0,0,0,0,0,0,0,0,0,0,0,0,0,0,0,0,0,0,0,0,0,0,0,0,0,0,0,0,0,0,0,0,0,0,0,0,0,0,0,0,0,0,0],"id":12,"left_children":[1,3,5,7,9,11,13,15,17,19,21,23,25,27,29,31,33,35,37,39,41,43,45,47,49,51,53,55,57,59,61,63,65,67,69,71,73,75,77,79,81,83,85,87,89,91,93,95,97,99,101,103,105,107,109,111,113,115,117,119,121,123,125,-1,-1,-1,-1,-1,-1,-1,-1,-1,-1,-1,-1,-1,-1,-1,-1,-1,-1,-1,-1,-1,-1,-1,-1,-1,-1,-1,-1,-1,-1,-1,-1,-1,-1,-1,-1,-1,-1,-1,-1,-1,-1,-1,-1,-1,-1,-1,-1,-1,-1,-1,-1,-1,-1,-1,-1,-1,-1,-1,-1,-1,-1,-1,-1],"loss_changes":[1.16204E5,6.6319E4,7.9645E4,2.38186E5,1.014295E5,5.022425E4,6.295875E4,1.46546E5,2.535645E5,4.3821E4,1.1546458E5,4.590675E4,3.2563906E4,3.4453812E4,2.9406852E4,4.4089E4,1.04746734E5,6.650025E4,1.3378288E5,4.63495E4,2.64865E4,9.514886E4,5.7963E4,4.4193625E4,2.75605E4,2.7146625E4,3.363958E4,3.3315312E4,1.17561875E4,3.1058588E4,4.1983977E4,3.68375E4,4.490983E4,1.517171E5,1.2124828E5,6.553775E4,3.3162684E4,1.0429675E5,1.334168E5,2.079975E4,4.7182844E4,1.6950875E4,2.3983686E4,5.4496805E4,5.1726047E4,5.5441844E4,8.205627E4,2.2216812E4,3.5492938E4,2.9033219E4,3.2967E4,1.9779594E4,3.8859336E4,2.817046E4,2.5439508E4,3.7116387E4,3.1082375E4,9.2353125E3,1.2605679E4,4.47005E4,2.1275912E4,2.0063277E4,2.7869781E4,0E0,0E0,0E0,0E0,0E0,0E0,0E0,0E0,0E0,0E0,0E0,0E0,0E0,0E0,0E0,0E0,0E0,0E0,0E0,0E0,0E0,0E0,0E0,0E0,0E0,0E0,0E0,0E0,0E0,0E0,0E0,0E0,0E0,0E0,0E0,0E0,0E0,0E0,0E0,0E0,0E0,0E0,0E0,0E0,0E0,0E0,0E0,0E0,0E0,0E0,0E0,0E0,0E0,0E0,0E0,0E0,0E0,0E0,0E0,0E0,0E0,0E0,0E0,0E0],"parents":[2147483647,0,0,1,1,2,2,3,3,4,4,5,5,6,6,7,7,8,8,9,9,10,10,11,11,12,12,13,13,14,14,15,15,16,16,17,17,18,18,19,19,20,20,21,21,22,22,23,23,24,24,25,25,26,26,27,27,28,28,29,29,30,30,31,31,32,32,33,33,34,34,35,35,36,36,37,37,38,38,39,39,40,40,41,41,42,42,43,43,44,44,45,45,46,46,47,47,48,48,49,49,50,50,51,51,52,52,53,53,54,54,55,55,56,56,57,57,58,58,59,59,60,60,61,61,62,62],"right_children":[2,4,6,8,10,12,14,16,18,20,22,24,26,28,30,32,34,36,38,40,42,44,46,48,50,52,54,56,58,60,62,64,66,68,70,72,74,76,78,80,82,84,86,88,90,92,94,96,98,100,102,104,106,108,110,112,114,116,118,120,122,124,126,-1,-1,-1,-1,-1,-1,-1,-1,-1,-1,-1,-1,-1,-1,-1,-1,-1,-1,-1,-1,-1,-1,-1,-1,-1,-1,-1,-1,-1,-1,-1,-1,-1,-1,-1,-1,-1,-1,-1,-1,-1,-1,-1,-1,-1,-1,-1,-1,-1,-1,-1,-1,-1,-1,-1,-1,-1,-1,-1,-1,-1,-1,-1,-1],"split_conditions":[1.18E2,7.2E1,1.685E2,4.6E1,7.75E1,1.38E2,1.905E2,7.95E1,7.45E1,1.045E2,1.06E2,5.95E1,5.15E1,3.285E2,2.2E1,7.35E1,3.4E1,4.95E1,8.55E1,7.95E1,9.6E1,1.065E2,4.4E1,3.95E1,-4E1,1.635E2,6.15E1,-5.7E1,1.06E2,4.775E2,7.2E1,2E0,3.6E1,7.95E1,1.22E2,6.45E1,8.55E1,1.985E2,8.6E1,7.45E1,5.85E1,6.1E1,1.37E2,1.575E2,2.325E2,9.65E1,1.06E2,1.85E1,9.05E1,2.85E1,6.6E1,1.475E2,2.8E1,1.51E2,5.2E1,4.1E1,1.115E2,7.55E1,1.22E2,4.68E2,1.2E1,-2.4E1,1.485E2,2.6546621E0,2.2685559E0,-3.4526265E-1,4.871909E0,1.0331768E0,-3.6442719E0,2.4495273E0,-5.4243183E-1,2.565685E0,3.4232793E0,2.3321755E0,-5.123132E-1,4.743353E0,7.7798147E0,5.3503046E0,9.940443E-1,2.3875964E0,7.8516517E0,1.4669375E0,3.2102003E0,2.9983816E0,1.49827E0,-6.530977E0,6.3026943E0,1.1769464E0,-6.454126E-1,4.358078E0,1.4215641E0,-2.1350217E0,5.2680073E0,3.5847235E-1,4.528965E0,5.6925583E0,3.0759976E0,4.990921E0,-4.565231E-1,1.6331977E0,4.0508366E0,2.4659076E0,4.061175E0,2.1810503E0,-5.3326863E-1,-9.298258E0,1.6786522E0,7.9397693E0,-4.2198567E0,1.592389E-1,4.0373197E0,-5.3319874E0,3.0576048E0,6.849387E0,4.110279E0,5.4968305E0,7.85032E0,9.773142E0,-9.062639E0,-8.3448574E-2,5.570379E0,-2.0534503E0,-1.5332615E1,7.997504E0,-9.395113E0,1.0081574E1,2.919032E0],"split_indices":[1,1,2,1,12,1,5,12,12,14,1,14,8,2,9,8,4,11,5,2,0,5,4,12,0,13,5,3,11,5,14,1,7,5,4,2,13,2,4,5,8,6,14,2,2,2,4,14,5,5,0,14,7,14,4,4,13,5,1,2,6,0,12,0,0,0,0,0,0,0,0,0,0,0,0,0,0,0,0,0,0,0,0,0,0,0,0,0,0,0,0,0,0,0,0,0,0,0,0,0,0,0,0,0,0,0,0,0,0,0,0,0,0,0,0,0,0,0,0,0,0,0,0,0,0,0,0],"split_type":[0,0,0,0,0,0,0,0,0,0,0,0,0,0,0,0,0,0,0,0,0,0,0,0,0,0,0,0,0,0,0,0,0,0,0,0,0,0,0,0,0,0,0,0,0,0,0,0,0,0,0,0,0,0,0,0,0,0,0,0,0,0,0,0,0,0,0,0,0,0,0,0,0,0,0,0,0,0,0,0,0,0,0,0,0,0,0,0,0,0,0,0,0,0,0,0,0,0,0,0,0,0,0,0,0,0,0,0,0,0,0,0,0,0,0,0,0,0,0,0,0,0,0,0,0,0,0],"sum_hessian":[2.62148E5,2.2094E5,4.1208E4,1.48972E5,7.1968E4,3.6101E4,5.107E3,1.07101E5,4.1871E4,6.0578E4,1.139E4,2.6994E4,9.107E3,4.189E3,9.18E2,9.5544E4,1.1557E4,3.474E4,7.131E3,4.862E4,1.1958E4,8.414E3,2.976E3,8.88E3,1.8114E4,8.154E3,9.53E2,3.541E3,6.48E2,6.9E2,2.28E2,9.4252E4,1.292E3,3.449E3,8.108E3,3.3264E4,1.476E3,4.591E3,2.54E3,3.6974E4,1.1646E4,1.1893E4,6.5E1,5.972E3,2.442E3,1.166E3,1.81E3,6.562E3,2.318E3,2.964E3,1.515E4,8.031E3,1.23E2,2.35E2,7.18E2,2.39E2,3.302E3,6.36E2,1.2E1,6.4E2,5E1,3.1E1,1.97E2,3.6119E4,5.8133E4,1.71E2,1.121E3,2.632E3,8.17E2,6.614E3,1.494E3,1.9711E4,1.3553E4,7.1E2,7.66E2,3.058E3,1.533E3,1.194E3,1.346E3,3.6912E4,6.2E1,1.0022E4,1.624E3,1.1168E4,7.25E2,4.8E1,1.7E1,2.671E3,3.301E3,8.06E2,1.636E3,9.9E1,1.067E3,1.131E3,6.79E2,3.07E2,6.255E3,2.205E3,1.13E2,5.51E2,2.413E3,1.3875E4,1.275E3,7.782E3,2.49E2,4.5E1,7.8E1,2.17E2,1.8E1,2.19E2,4.99E2,6.4E1,1.75E2,4.31E2,2.871E3,2.91E2,3.45E2,4E0,8E0,4.69E2,1.71E2,3.5E1,1.5E1,7E0,2.4E1,9.5E1,1.02E2],"tree_param":{"num_deleted":"0","num_feature":"15","num_nodes":"127","size_leaf_vector":"0"}},{"base_weights":[9.573492E0,7.6660256E0,2.953111E1,6.4677353E0,1.3811666E1,2.5185503E1,5.4510925E1,5.663831E0,9.402926E0,1.2198757E1,1.9083282E1,2.1109745E1,3.1558977E1,4.693149E1,6.224343E1,4.714509E0,7.0490656E0,8.505557E0,1.1867903E1,1.1241005E1,1.6614319E1,1.7572218E1,2.542268E1,1.8962448E1,2.6644316E1,2.7834846E1,3.585311E1,4.6499474E1,2.2010254E2,7.919628E1,4.949037E1,3.2239575E0,5.407985E0,6.6730485E0,1.01223135E1,6.8707223E0,9.512558E0,1.1833959E1,1.378618E2,1.501805E1,1.0554687E1,1.8689491E1,9.192808E0,1.5844736E1,2.2452713E1,2.72088E1,4.9045277E0,2.506587E1,1.558371E1,2.5231903E1,3.8949486E1,2.9374598E1,1.3177222E1,6.960115E1,3.4867725E1,4.6091415E1,1.7659183E2,1.7326279E1,2.819192E2,6.879398E1,1.4195886E2,9.1719086E1,4.065255E1,2.1986241E0,4.1750093E0,5.202853E0,9.040746E0,6.4669695E0,1.0617843E1,2.1318516E1,9.855973E0,6.5198298E0,1.3690701E1,1.3407055E1,9.143594E0,1.1966509E1,-9.643365E0,1.1827287E1,1.756989E1,9.922433E0,1.5089188E1,1.619208E1,2.5864058E1,-2.9748027E0,1.1669582E1,2.2008722E1,1.4449267E1,2.3584398E1,-8.395369E0,2.5074623E1,4.8222515E1,-2.8931005E0,4.5374565E1,1.3702211E1,2.8142553E1,1.2747372E1,2.0297024E1,2.377069E1,3.756719E1,4.7655594E1,9.583043E0,3.2624187E1,2.1708405E1,4.5762474E1,8.995349E0,3.749754E1,9.4602264E1,3.1407223E1,4.3270554E1,4.304941E1,6.0282497E1,6.234894E-1,2.2042804E2,8.441472E1,6.1961113E1,1.236847E2,2.4668512E2,3.992092E2,6.2794212E1,-1.5636199E1,5.099406E1],"categories":[],"categories_nodes":[],"categories_segments":[],"categories_sizes":[],"default_left":[1,1,1,1,1,1,1,1,1,1,1,1,1,1,1,1,1,1,1,1,1,1,1,1,1,1,1,1,1,1,1,1,1,1,1,1,1,1,0,1,1,1,1,1,1,1,1,1,1,1,1,1,1,1,1,1,1,0,0,1,1,1,1,0,0,0,0,0,0,0,0,0,0,0,0,0,0,0,0,0,0,0,0,0,0,0,0,0,0,0,0,0,0,0,0,0,0,0,0,0,0,0,0,0,0,0,0,0,0,0,0,0,0,0,0,0,0,0,0,0,0],"id":13,"left_children":[1,3,5,7,9,11,13,15,17,19,21,23,25,27,29,31,33,35,37,39,41,43,45,47,49,51,53,55,57,59,61,63,65,67,69,71,73,75,-1,77,79,81,83,85,87,89,91,93,95,97,99,101,103,105,107,109,111,-1,-1,113,115,117,119,-1,-1,-1,-1,-1,-1,-1,-1,-1,-1,-1,-1,-1,-1,-1,-1,-1,-1,-1,-1,-1,-1,-1,-1,-1,-1,-1,-1,-1,-1,-1,-1,-1,-1,-1,-1,-1,-1,-1,-1,-1,-1,-1,-1,-1,-1,-1,-1,-1,-1,-1,-1,-1,-1,-1,-1,-1,-1],"loss_changes":[9.979386E6,1.76204E6,2.481112E6,4.72435E5,3.31727E5,5.05413E5,1.95643E5,2.066785E5,9.512525E4,1.262525E5,8.71555E4,1.40752E5,1.20492E5,1.1806975E5,3.579995E5,9.6396375E4,7.379575E4,5.1898E4,4.749575E4,6.353875E4,8.186875E4,6.1932E4,6.42935E4,1.7627725E5,5.671875E4,9.1537E4,1.14796E5,8.2742E4,4.5255203E4,4.58346E5,3.5380625E5,2.8873656E4,4.7389125E4,4.623075E4,2.0562438E4,2.8711438E4,2.794075E4,3.2811125E4,0E0,3.0537625E4,5.947425E4,7.4155375E4,3.517378E4,4.6647125E4,6.753994E4,7.1308375E4,4.4942254E4,1.06284625E5,7.3495625E4,5.2837875E4,8.647022E4,9.10925E4,5.2596375E4,7.591259E4,9.82915E4,7.113825E4,3.84315E4,0E0,0E0,6.062475E4,1.6278125E5,1.4424605E6,4.6299325E5,0E0,0E0,0E0,0E0,0E0,0E0,0E0,0E0,0E0,0E0,0E0,0E0,0E0,0E0,0E0,0E0,0E0,0E0,0E0,0E0,0E0,0E0,0E0,0E0,0E0,0E0,0E0,0E0,0E0,0E0,0E0,0E0,0E0,0E0,0E0,0E0,0E0,0E0,0E0,0E0,0E0,0E0,0E0,0E0,0E0,0E0,0E0,0E0,0E0,0E0,0E0,0E0,0E0,0E0,0E0,0E0,0E0,0E0],"parents":[2147483647,0,0,1,1,2,2,3,3,4,4,5,5,6,6,7,7,8,8,9,9,10,10,11,11,12,12,13,13,14,14,15,15,16,16,17,17,18,18,19,19,20,20,21,21,22,22,23,23,24,24,25,25,26,26,27,27,28,28,29,29,30,30,31,31,32,32,33,33,34,34,35,35,36,36,37,37,39,39,40,40,41,41,42,42,43,43,44,44,45,45,46,46,47,47,48,48,49,49,50,50,51,51,52,52,53,53,54,54,55,55,56,56,59,59,60,60,61,61,62,62],"right_children":[2,4,6,8,10,12,14,16,18,20,22,24,26,28,30,32,34,36,38,40,42,44,46,48,50,52,54,56,58,60,62,64,66,68,70,72,74,76,-1,78,80,82,84,86,88,90,92,94,96,98,100,102,104,106,108,110,112,-1,-1,114,116,118,120,-1,-1,-1,-1,-1,-1,-1,-1,-1,-1,-1,-1,-1,-1,-1,-1,-1,-1,-1,-1,-1,-1,-1,-1,-1,-1,-1,-1,-1,-1,-1,-1,-1,-1,-1,-1,-1,-1,-1,-1,-1,-1,-1,-1,-1,-1,-1,-1,-1,-1,-1,-1,-1,-1,-1,-1,-1,-1],"split_conditions":[1.795E2,9.55E1,3.835E2,5.05E1,1.575E2,1.405E2,5.175E2,7.05E1,5.25E1,8.05E1,3.2E1,2.4E1,1.795E2,4.79E2,1.727E3,4E0,1.285E2,2.95E1,1.915E2,-4E1,1.255E2,1.445E2,6.6E1,-2.6E1,5.7E1,1.455E2,1.865E2,2.68E2,-2.7E1,7.37E2,2.75E1,1.55E1,5.7E1,6.85E1,-8.4E1,1.435E2,-6.1E1,4.42E2,4.1358543E1,1.035E2,7.75E1,7.05E1,-3E1,-3.8E1,5.275E2,5.7E1,5.55E1,1.425E2,8.45E1,8.65E1,1.06E2,2.855E2,-3.8E1,6.95E1,1.6E1,3.2E1,-2.1E1,5.1978836E0,8.457576E1,-1.6E1,9.845E2,1.2E1,2.4E1,6.5958726E-1,1.2525028E0,1.560856E0,2.7122238E0,1.9400909E0,3.185353E0,6.395555E0,2.956792E0,1.955949E0,4.10721E0,4.0221167E0,2.7430782E0,3.5899527E0,-2.8930097E0,3.548186E0,5.270967E0,2.9767299E0,4.5267563E0,4.857624E0,7.7592177E0,-8.9244086E-1,3.5008748E0,6.602617E0,4.33478E0,7.07532E0,-2.5186107E0,7.522387E0,1.4466755E1,-8.679302E-1,1.36123705E1,4.1106634E0,8.442766E0,3.8242116E0,6.0891075E0,7.1312075E0,1.1270157E1,1.4296679E1,2.874913E0,9.787256E0,6.5125217E0,1.3728743E1,2.6986048E0,1.1249262E1,2.838068E1,9.422167E0,1.2981167E1,1.29148245E1,1.808475E1,1.8704683E-1,6.612842E1,2.5324417E1,1.8588335E1,3.710541E1,7.400554E1,1.19762764E2,1.8838264E1,-4.69086E0,1.5298219E1],"split_indices":[13,13,13,5,2,12,13,14,8,12,0,0,12,12,2,1,14,12,12,0,14,5,0,0,0,14,2,11,0,13,8,12,0,12,0,14,0,2,0,2,5,5,9,0,2,0,11,2,5,8,7,2,0,8,0,0,0,0,0,0,13,1,7,0,0,0,0,0,0,0,0,0,0,0,0,0,0,0,0,0,0,0,0,0,0,0,0,0,0,0,0,0,0,0,0,0,0,0,0,0,0,0,0,0,0,0,0,0,0,0,0,0,0,0,0,0,0,0,0,0,0],"split_type":[0,0,0,0,0,0,0,0,0,0,0,0,0,0,0,0,0,0,0,0,0,0,0,0,0,0,0,0,0,0,0,0,0,0,0,0,0,0,0,0,0,0,0,0,0,0,0,0,0,0,0,0,0,0,0,0,0,0,0,0,0,0,0,0,0,0,0,0,0,0,0,0,0,0,0,0,0,0,0,0,0,0,0,0,0,0,0,0,0,0,0,0,0,0,0,0,0,0,0,0,0,0,0,0,0,0,0,0,0,0,0,0,0,0,0,0,0,0,0,0,0],"sum_hessian":[2.62148E5,2.3928E5,2.2868E4,2.00239E5,3.9041E4,1.9481E4,3.387E3,1.5719E5,4.3049E4,2.9897E4,9.144E3,1.1885E4,7.596E3,1.714E3,1.673E3,9.3273E4,6.3917E4,3.1563E4,1.1486E4,2.4571E4,5.326E3,7.387E3,1.757E3,8.566E3,3.319E3,4.072E3,3.524E3,1.711E3,3E0,7.16E2,9.57E2,2.9618E4,6.3655E4,5.6952E4,6.965E3,1.2034E4,1.9529E4,1.1484E4,2E0,3.775E3,2.0796E4,4.161E3,1.165E3,5.459E3,1.928E3,1.616E3,1.41E2,3.05E3,5.516E3,2.98E3,3.39E2,3.684E3,3.88E2,9.8E1,3.426E3,1.707E3,4E0,1E0,2E0,6.16E2,1E2,1.64E2,7.93E2,1.4254E4,1.5364E4,6.0255E4,3.4E3,5.4127E4,2.825E3,1.6E2,6.805E3,1.1447E4,5.87E2,1.687E3,1.7842E4,1.1414E4,7E1,1.68E3,2.095E3,1.8254E4,2.542E3,3.089E3,1.072E3,1.97E2,9.68E2,1.005E3,4.454E3,1.86E3,6.8E1,1.469E3,1.47E2,1.19E2,2.2E1,6.51E2,2.399E3,3.446E3,2.07E3,2.667E3,3.13E2,2.61E2,7.8E1,2.585E3,1.099E3,4.3E1,3.45E2,4.4E1,5.4E1,2.43E3,9.96E2,1.409E3,2.98E2,1E0,3E0,1.84E2,4.32E2,8.7E1,1.3E1,1.3E1,1.51E2,1.23E2,6.7E2],"tree_param":{"num_deleted":"0","num_feature":"15","num_nodes":"121","size_leaf_vector":"0"}},{"base_weights":[5.8983064E0,5.029396E0,6.2505536E0,5.5502133E0,9.660973E-1,7.2635555E0,5.770041E0,5.6824293E0,8.2576907E-1,-2.4289587E0,8.527161E0,6.977357E0,1.2001425E1,4.7747006E0,6.6868668E0,5.4614444E0,9.777923E0,-1.6552086E1,1.8208975E0,1.0489984E1,-4.9820004E0,1.1537124E1,-2.8741336E0,7.242147E0,2.4261377E0,3.968642E0,1.6639025E1,5.2590985E0,2.8824716E0,6.040685E0,7.6520557E0,5.9746437E0,4.294435E0,1.0568754E1,-2.0482714E0,-2.0716677E1,2.7395674E1,5.9369764E0,-1.4473819E0,5.670756E0,2.0125826E1,-2.6432555E0,-1.0421066E1,-3.7746418E0,1.2900121E1,-7.621358E0,1.8376928E1,6.366599E0,8.499924E0,-7.4226003E0,3.827049E0,7.4317446E0,-6.949832E0,1.9482224E1,1.0107638E1,4.9393663E0,7.651139E0,6.4843946E0,1.5773051E0,6.366049E0,3.88301E0,1.0695272E1,6.8768263E0,5.888348E0,1.1718651E1,1.1760957E0,6.069292E0,1.0859362E1,-1.8814116E1,-1.3739225E1,6.6644073E0,4.2094685E1,-2.18823E1,4.9522907E1,-3.336643E1,4.1020627E0,2.3541046E1,-5.496828E0,7.44742E0,1.1380247E1,-1.2175651E1,2.5218472E0,2.5746038E1,-4.5217795E0,5.687638E0,6.3686676E1,-1.0613536E1,-9.629851E0,1.2600174E1,1.7096874E1,8.318217E0,1.1347315E1,-1.1687425E1,-8.263509E0,2.6237608E1,6.4102073E0,-1.4845209E1,6.9130034E0,1.0703102E1,-1.1000781E0,-1.9398874E1,8.515514E0,1.2406158E0,-3.027791E0,1.3445795E1,1.4536451E1,-1.2674402E1,-2.844526E1,1.9853397E1,-8.185422E-1,1.5774019E1,5.4690704E0,3.1977065E0,7.422627E0,3.0115526E1,1.0824644E1,-6.315748E-1,-1.2761627E0,5.632613E0,6.2500205E0,1.0873058E1,2.5012085E0,1.0045217E1,9.739844E0,1.7413122E1,5.5855546E0,1.0097645E1],"categories":[],"categories_nodes":[],"categories_segments":[],"categories_sizes":[],"default_left":[1,1,1,1,1,1,1,1,1,1,1,1,1,1,1,1,1,1,1,1,1,1,1,1,1,1,1,1,1,1,1,1,1,1,1,1,1,1,1,1,1,1,1,1,1,1,1,1,1,1,1,1,1,1,1,1,1,1,1,1,1,1,1,0,0,0,0,0,0,0,0,0,0,0,0,0,0,0,0,0,0,0,0,0,0,0,0,0,0,0,0,0,0,0,0,0,0,0,0,0,0,0,0,0,0,0,0,0,0,0,0,0,0,0,0,0,0,0,0,0,0,0,0,0,0,0,0],"id":14,"left_children":[1,3,5,7,9,11,13,15,17,19,21,23,25,27,29,31,33,35,37,39,41,43,45,47,49,51,53,55,57,59,61,63,65,67,69,71,73,75,77,79,81,83,85,87,89,91,93,95,97,99,101,103,105,107,109,111,113,115,117,119,121,123,125,-1,-1,-1,-1,-1,-1,-1,-1,-1,-1,-1,-1,-1,-1,-1,-1,-1,-1,-1,-1,-1,-1,-1,-1,-1,-1,-1,-1,-1,-1,-1,-1,-1,-1,-1,-1,-1,-1,-1,-1,-1,-1,-1,-1,-1,-1,-1,-1,-1,-1,-1,-1,-1,-1,-1,-1,-1,-1,-1,-1,-1,-1,-1,-1],"loss_changes":[8.0204E4,1.6003062E5,9.0752E4,4.1866375E4,2.2060503E5,8.12855E4,1.154245E5,5.896075E4,3.1607518E4,1.9567205E5,9.142064E4,6.818225E4,1.2722684E5,5.559075E4,4.102675E4,3.7028875E4,3.1231062E4,1.8686965E4,